{"learner":{"attributes":{"best_iteration":"264","best_score":"27.585259326067117"},"feature_names":["dia","franja","barrio"],"feature_types":["int","float","int"],"gradient_booster":{"model":{"gbtree_model_param":{"num_parallel_tree":"1","num_trees":"295"},"iteration_indptr":[0,1,2,3,4,5,6,7,8,9,10,11,12,13,14,15,16,17,18,19,20,21,22,23,24,25,26,27,28,29,30,31,32,33,34,35,36,37,38,39,40,41,42,43,44,45,46,47,48,49,50,51,52,53,54,55,56,57,58,59,60,61,62,63,64,65,66,67,68,69,70,71,72,73,74,75,76,77,78,79,80,81,82,83,84,85,86,87,88,89,90,91,92,93,94,95,96,97,98,99,100,101,102,103,104,105,106,107,108,109,110,111,112,113,114,115,116,117,118,119,120,121,122,123,124,125,126,127,128,129,130,131,132,133,134,135,136,137,138,139,140,141,142,143,144,145,146,147,148,149,150,151,152,153,154,155,156,157,158,159,160,161,162,163,164,165,166,167,168,169,170,171,172,173,174,175,176,177,178,179,180,181,182,183,184,185,186,187,188,189,190,191,192,193,194,195,196,197,198,199,200,201,202,203,204,205,206,207,208,209,210,211,212,213,214,215,216,217,218,219,220,221,222,223,224,225,226,227,228,229,230,231,232,233,234,235,236,237,238,239,240,241,242,243,244,245,246,247,248,249,250,251,252,253,254,255,256,257,258,259,260,261,262,263,264,265,266,267,268,269,270,271,272,273,274,275,276,277,278,279,280,281,282,283,284,285,286,287,288,289,290,291,292,293,294,295],"tree_info":[0,0,0,0,0,0,0,0,0,0,0,0,0,0,0,0,0,0,0,0,0,0,0,0,0,0,0,0,0,0,0,0,0,0,0,0,0,0,0,0,0,0,0,0,0,0,0,0,0,0,0,0,0,0,0,0,0,0,0,0,0,0,0,0,0,0,0,0,0,0,0,0,0,0,0,0,0,0,0,0,0,0,0,0,0,0,0,0,0,0,0,0,0,0,0,0,0,0,0,0,0,0,0,0,0,0,0,0,0,0,0,0,0,0,0,0,0,0,0,0,0,0,0,0,0,0,0,0,0,0,0,0,0,0,0,0,0,0,0,0,0,0,0,0,0,0,0,0,0,0,0,0,0,0,0,0,0,0,0,0,0,0,0,0,0,0,0,0,0,0,0,0,0,0,0,0,0,0,0,0,0,0,0,0,0,0,0,0,0,0,0,0,0,0,0,0,0,0,0,0,0,0,0,0,0,0,0,0,0,0,0,0,0,0,0,0,0,0,0,0,0,0,0,0,0,0,0,0,0,0,0,0,0,0,0,0,0,0,0,0,0,0,0,0,0,0,0,0,0,0,0,0,0,0,0,0,0,0,0,0,0,0,0,0,0,0,0,0,0,0,0,0,0,0,0,0,0,0,0,0,0,0,0,0,0,0,0,0,0,0,0,0,0,0,0],"trees":[{"base_weights":[-2.3622139E-1,-4.9837227E1,2.4546793E1,2.6016598E1,-6.036721E1,6.822619E1,-9.96476E0,5.563167E1,-2.9268724E1,-3.655386E1,-7.9130875E1,5.086245E1,4.0750052E2,7.646749E0,-5.165286E1,1.4480188E2,4.3371433E1,-6.419121E0,-5.248345E1,-4.9472385E1,2.0453952E2,-8.5328804E1,-4.149539E1,1.3031635E2,2.4319967E1,5.340221E1,4.5030325E2,-4.675762E1,3.153301E1,-7.43105E1,1.4227029E1,-1.6765852E1,4.6152824E1,6.256068E0,2.1045837E1,-5.7467337E0,2.9953653E1,-1.5580526E1,5.7074366E0,-1.2897969E1,-3.112295E0,2.8855957E1,4.5448696E1,-1.5811079E1,-2.0998106E1,-6.2379947E0,-1.4226485E1,-2.013817E1,3.8504078E1,7.196896E0,-4.0712442E0,7.603439E1,9.882944E1,1.5656178E0,-1.49388485E1,4.111049E1,3.273048E0,-1.1858514E1,-1.5808177E1,2.2906512E-1,6.2844925E0],"categories":[],"categories_nodes":[],"categories_segments":[],"categories_sizes":[],"default_left":[0,0,0,0,0,0,0,0,0,0,0,0,0,0,0,0,0,0,0,0,0,0,0,0,0,0,0,0,0,0,0,0,0,0,0,0,0,0,0,0,0,0,0,0,0,0,0,0,0,0,0,0,0,0,0,0,0,0,0,0,0],"id":0,"left_children":[1,3,5,7,9,11,13,15,17,19,21,23,25,27,29,31,33,35,37,39,41,43,45,47,49,-1,51,53,55,57,59,-1,-1,-1,-1,-1,-1,-1,-1,-1,-1,-1,-1,-1,-1,-1,-1,-1,-1,-1,-1,-1,-1,-1,-1,-1,-1,-1,-1,-1,-1],"loss_changes":[7.818103E6,1.6941E6,6.3937505E6,4.256835E5,8.286495E5,1.1007361E7,1.740426E6,1.7847866E5,4.7933812E4,2.5702965E6,2.39052E5,3.754897E6,4.51469E5,2.1677695E6,1.0519062E6,3.8646634E5,1.10913E5,1.602526E5,8.8166945E4,3.6421812E5,1.6195E4,1.156375E5,4.383639E4,5.953604E6,6.458117E5,0E0,1.75E2,7.307314E5,3.0476015E6,2.1613E4,3.9182504E4,0E0,0E0,0E0,0E0,0E0,0E0,0E0,0E0,0E0,0E0,0E0,0E0,0E0,0E0,0E0,0E0,0E0,0E0,0E0,0E0,0E0,0E0,0E0,0E0,0E0,0E0,0E0,0E0,0E0,0E0],"parents":[2147483647,0,0,1,1,2,2,3,3,4,4,5,5,6,6,7,7,8,8,9,9,10,10,11,11,12,12,13,13,14,14,15,15,16,16,17,17,18,18,19,19,20,20,21,21,22,22,23,23,24,24,26,26,27,27,28,28,29,29,30,30],"right_children":[2,4,6,8,10,12,14,16,18,20,22,24,26,28,30,32,34,36,38,40,42,44,46,48,50,-1,52,54,56,58,60,-1,-1,-1,-1,-1,-1,-1,-1,-1,-1,-1,-1,-1,-1,-1,-1,-1,-1,-1,-1,-1,-1,-1,-1,-1,-1,-1,-1,-1,-1],"split_conditions":[8E0,1E0,2.1E1,3.2E1,2.1E1,2E1,4E1,4E0,4E1,2E1,7E0,5E0,1.2E1,2.7E1,4.6E1,1E0,2.7E1,3.9E1,4.6E1,6E0,3E0,4E1,4E1,1E0,1.7E1,5.340221E1,1.6E1,2.3E1,2.8E1,4.1E1,1.7E1,-1.6765852E1,4.6152824E1,6.256068E0,2.1045837E1,-5.7467337E0,2.9953653E1,-1.5580526E1,5.7074366E0,-1.2897969E1,-3.112295E0,2.8855957E1,4.5448696E1,-1.5811079E1,-2.0998106E1,-6.2379947E0,-1.4226485E1,-2.013817E1,3.8504078E1,7.196896E0,-4.0712442E0,7.603439E1,9.882944E1,1.5656178E0,-1.49388485E1,4.111049E1,3.273048E0,-1.1858514E1,-1.5808177E1,2.2906512E-1,6.2844925E0],"split_indices":[1,1,2,2,2,2,2,2,2,2,1,2,1,2,2,2,2,2,2,1,1,2,2,2,2,0,1,2,2,2,1,0,0,0,0,0,0,0,0,0,0,0,0,0,0,0,0,0,0,0,0,0,0,0,0,0,0,0,0,0,0],"split_type":[0,0,0,0,0,0,0,0,0,0,0,0,0,0,0,0,0,0,0,0,0,0,0,0,0,0,0,0,0,0,0,0,0,0,0,0,0,0,0,0,0,0,0,0,0,0,0,0,0,0,0,0,0,0,0,0,0,0,0,0,0],"sum_hessian":[6.358E3,2.118E3,4.24E3,2.58E2,1.86E3,1.871E3,2.369E3,1.68E2,9E1,8.21E2,1.039E3,1.781E3,9E1,1.666E3,7.03E2,1.9E1,1.49E2,4.6E1,4.4E1,7.8E2,4.1E1,8.91E2,1.48E2,4.45E2,1.336E3,2.2E1,6.8E1,5.08E2,1.158E3,5.23E2,1.8E2,5E0,1.4E1,1.24E2,2.5E1,4.1E1,5E0,3.4E1,1E1,5.57E2,2.23E2,1.1E1,3E1,6.16E2,2.75E2,1.08E2,4E1,9E1,3.55E2,1.072E3,2.64E2,2.4E1,4.4E1,1.66E2,3.42E2,9.6E1,1.062E3,8.6E1,4.37E2,1.01E2,7.9E1],"tree_param":{"num_deleted":"0","num_feature":"3","num_nodes":"61","size_leaf_vector":"1"}},{"base_weights":[2.0048127E-1,3.0635096E1,-2.396951E1,1.7854698E1,2.8486993E2,-1.1810486E1,-5.2294968E1,6.95308E1,4.5650223E-1,5.4338577E1,6.721174E1,-1.8568491E1,1.0702612E2,-6.792625E1,-5.2037916E0,-1.7749388E1,1.0937759E2,-2.2475721E1,1.5833749E1,-4.85259E1,-3.9023378E0,1.5180539E1,1.1249878E2,-7.04439E1,-1.1185525E1,-2.411012E1,-1.6356235E0,3.5445423E1,9.311806E0,5.3390694E0,-1.4243529E1,2.6806322E1,-3.470571E0,-1.8537489E0,-1.3709632E1,9.730611E0,-8.344303E0,2.4776812E1,1.9140123E1,-1.2877715E1,-1.6541906E1,-3.8932564E0,-5.773359E0,-2.0391302E0,1.328837E0],"categories":[],"categories_nodes":[],"categories_segments":[],"categories_sizes":[],"default_left":[0,0,0,0,0,0,0,0,0,0,0,0,0,0,0,0,0,0,0,0,0,0,0,0,0,0,0,0,0,0,0,0,0,0,0,0,0,0,0,0,0,0,0,0,0],"id":1,"left_children":[1,3,5,7,9,11,13,15,17,-1,-1,19,21,23,25,-1,27,29,31,33,35,-1,37,39,-1,41,43,-1,-1,-1,-1,-1,-1,-1,-1,-1,-1,-1,-1,-1,-1,-1,-1,-1,-1],"loss_changes":[4.654903E6,9.095985E6,1.2141161E6,2.3986895E6,2.4256E4,1.9848375E6,7.7917125E5,4.19755E6,7.045668E5,0E0,0E0,1.02659494E6,1.5461E4,2.2522E4,1.783772E4,0E0,2.1844475E6,1.8433382E6,4.530806E6,5.622186E5,2.9902552E6,0E0,7.124125E3,4.668775E4,0E0,3.4202148E2,1.527969E4,0E0,0E0,0E0,0E0,0E0,0E0,0E0,0E0,0E0,0E0,0E0,0E0,0E0,0E0,0E0,0E0,0E0,0E0],"parents":[2147483647,0,0,1,1,2,2,3,3,4,4,5,5,6,6,7,7,8,8,11,11,12,12,13,13,14,14,16,16,17,17,18,18,19,19,20,20,22,22,23,23,25,25,26,26],"right_children":[2,4,6,8,10,12,14,16,18,-1,-1,20,22,24,26,-1,28,30,32,34,36,-1,38,40,-1,42,44,-1,-1,-1,-1,-1,-1,-1,-1,-1,-1,-1,-1,-1,-1,-1,-1,-1,-1],"split_conditions":[2.1E1,2E1,4E1,5E0,5E0,3.9E1,4.6E1,1E0,1.1E1,5.4338577E1,6.721174E1,2.7E1,1E0,4.5E1,1E0,-1.7749388E1,3E0,8E0,1.3E1,2.3E1,3.2E1,1.5180539E1,5E0,4.3E1,-1.1185525E1,4.7E1,4.7E1,3.5445423E1,9.311806E0,5.3390694E0,-1.4243529E1,2.6806322E1,-3.470571E0,-1.8537489E0,-1.3709632E1,9.730611E0,-8.344303E0,2.4776812E1,1.9140123E1,-1.2877715E1,-1.6541906E1,-3.8932564E0,-5.773359E0,-2.0391302E0,1.328837E0],"split_indices":[2,2,2,2,0,2,2,2,2,0,0,2,0,2,0,0,2,2,2,2,2,0,0,2,0,2,2,0,0,0,0,0,0,0,0,0,0,0,0,0,0,0,0,0,0],"split_type":[0,0,0,0,0,0,0,0,0,0,0,0,0,0,0,0,0,0,0,0,0,0,0,0,0,0,0,0,0,0,0,0,0,0,0,0,0,0,0,0,0,0,0,0,0],"sum_hessian":[6.326E3,2.8E3,3.526E3,2.667E3,1.33E2,2.468E3,1.058E3,6.71E2,1.996E3,9.8E1,3.5E1,2.336E3,1.32E2,7.94E2,2.64E2,1.36E2,5.35E2,8.01E2,1.195E3,7.67E2,1.569E3,2.1E1,1.11E2,6.63E2,1.31E2,4.1E1,2.23E2,2.66E2,2.69E2,3.95E2,4.06E2,2.64E2,9.31E2,2.46E2,5.21E2,6.55E2,9.14E2,7.2E1,3.9E1,3.93E2,2.7E2,2.1E1,2E1,1.1E2,1.13E2],"tree_param":{"num_deleted":"0","num_feature":"3","num_nodes":"45","size_leaf_vector":"1"}},{"base_weights":[7.116834E-2,-3.922351E1,1.979323E1,2.2645313E1,-4.788802E1,3.8473816E1,-1.7515509E1,1.1494393E2,1.4054457E1,-5.3696735E1,-1.11320095E1,3.4027046E1,1.7528004E2,-5.326045E1,-9.383455E0,2.806169E0,2.0815822E2,3.1346668E1,-1.4922056E1,-4.322835E1,-6.3490147E1,1.3844997E1,-3.1896046E1,9.268203E1,2.2554615E1,1.8664459E2,1.388758E1,-3.817847E1,-1.7843056E1,2.4190813E1,-3.0919113E1,-1.0889266E1,1.1940382E1,5.380956E1,2.2280924E1,4.6178007E0,1.4748205E1,2.741227E-1,-6.23314E0,-1.0235338E1,7.5612855E-1,-1.3513997E1,-1.0129821E1,-1.4700595E1,3.9184945E0,-1.2755365E1,-4.968458E0,-1.2485753E1,2.6848885E1,7.275249E0,2.0125055E-1,2.3331999E1,4.343753E1,-5.203829E0,-1.0514767E1,4.9663258E-1,2.2621609E1,-9.266071E0,2.349664E0],"categories":[],"categories_nodes":[],"categories_segments":[],"categories_sizes":[],"default_left":[0,0,0,0,0,0,0,0,0,0,0,0,0,0,0,0,0,0,0,0,0,0,0,0,0,0,0,0,0,0,0,0,0,0,0,0,0,0,0,0,0,0,0,0,0,0,0,0,0,0,0,0,0,0,0,0,0,0,0],"id":2,"left_children":[1,3,5,7,9,11,13,15,17,19,21,23,25,27,29,31,33,35,37,39,41,43,45,47,49,51,-1,53,-1,55,57,-1,-1,-1,-1,-1,-1,-1,-1,-1,-1,-1,-1,-1,-1,-1,-1,-1,-1,-1,-1,-1,-1,-1,-1,-1,-1,-1,-1],"loss_changes":[4.8955E6,1.1327132E6,2.9320415E6,2.0454484E5,3.94814E5,1.699228E6,4.076146E5,2.2937838E5,1.20223016E5,1.611865E5,1.3217197E5,1.8255475E6,9.463E4,1.302715E5,8.2863325E5,3.7449426E4,3.69385E4,5.1937703E4,2.2854414E4,2.5030062E5,2.71355E4,5.4465094E4,3.0645719E4,2.6525858E6,6.399621E5,1.242905E5,0E0,2.941825E4,0E0,8.4326644E5,4.2787344E5,0E0,0E0,0E0,0E0,0E0,0E0,0E0,0E0,0E0,0E0,0E0,0E0,0E0,0E0,0E0,0E0,0E0,0E0,0E0,0E0,0E0,0E0,0E0,0E0,0E0,0E0,0E0,0E0],"parents":[2147483647,0,0,1,1,2,2,3,3,4,4,5,5,6,6,7,7,8,8,9,9,10,10,11,11,12,12,13,13,14,14,15,15,16,16,17,17,18,18,19,19,20,20,21,21,22,22,23,23,24,24,25,25,27,27,29,29,30,30],"right_children":[2,4,6,8,10,12,14,16,18,20,22,24,26,28,30,32,34,36,38,40,42,44,46,48,50,52,-1,54,-1,56,58,-1,-1,-1,-1,-1,-1,-1,-1,-1,-1,-1,-1,-1,-1,-1,-1,-1,-1,-1,-1,-1,-1,-1,-1,-1,-1,-1,-1],"split_conditions":[8E0,1E0,3.2E1,4E0,7E0,3.1E1,3.5E1,2E0,3.2E1,2.3E1,2.3E1,5E0,2.2E1,3.4E1,4E1,1E0,3E0,2.7E1,4E1,2E1,6E0,1E0,2.7E1,1E0,2.1E1,1.2E1,1.388758E1,3.3E1,-1.7843056E1,3.9E1,4.6E1,-1.0889266E1,1.1940382E1,5.380956E1,2.2280924E1,4.6178007E0,1.4748205E1,2.741227E-1,-6.23314E0,-1.0235338E1,7.5612855E-1,-1.3513997E1,-1.0129821E1,-1.4700595E1,3.9184945E0,-1.2755365E1,-4.968458E0,-1.2485753E1,2.6848885E1,7.275249E0,2.0125055E-1,2.3331999E1,4.343753E1,-5.203829E0,-1.0514767E1,4.9663258E-1,2.2621609E1,-9.266071E0,2.349664E0],"split_indices":[1,1,2,2,1,2,2,2,2,2,2,2,1,2,2,2,2,2,2,2,1,2,2,2,2,1,0,2,0,2,2,0,0,0,0,0,0,0,0,0,0,0,0,0,0,0,0,0,0,0,0,0,0,0,0,0,0,0,0],"split_type":[0,0,0,0,0,0,0,0,0,0,0,0,0,0,0,0,0,0,0,0,0,0,0,0,0,0,0,0,0,0,0,0,0,0,0,0,0,0,0,0,0,0,0,0,0,0,0,0,0,0,0,0,0,0,0,0,0,0,0],"sum_hessian":[6.315E3,2.11E3,4.205E3,2.59E2,1.851E3,2.802E3,1.403E3,2.1E1,2.38E2,1.598E3,2.53E2,2.715E3,8.7E1,2.59E2,1.144E3,1E1,1.1E1,1.49E2,8.9E1,7.75E2,8.23E2,1.15E2,1.38E2,4.43E2,2.272E3,7.8E1,9E0,1.81E2,7.8E1,4.47E2,6.97E2,5E0,5E0,6E0,5E0,1.24E2,2.5E1,4.4E1,4.5E1,6.76E2,9.9E1,6.88E2,1.35E2,6E0,1.09E2,2.6E1,1.12E2,8.9E1,3.54E2,1.415E3,8.57E2,2.2E1,5.6E1,9.4E1,8.7E1,3.58E2,8.9E1,5.2E2,1.77E2],"tree_param":{"num_deleted":"0","num_feature":"3","num_nodes":"59","size_leaf_vector":"1"}},{"base_weights":[-1.854542E-2,1.9573513E1,-1.541822E1,9.648232E0,4.478721E1,-7.5141163E0,-3.385654E1,6.2073025E1,2.2005242E-1,-1.2044622E1,7.3954025E1,-4.4115734E1,-2.6009703E0,-1.0844512E1,2.0798843E2,6.7794414E0,-3.0091087E1,-3.6125954E1,-3.6077183E-1,9.918429E0,7.836346E1,-4.607478E1,-3.355331E1,-1.8009733E1,3.127923E-1,-1.1721757E1,7.4476566E0,1.8282887E1,4.6546444E1,-2.2031908E0,6.237614E0,-1.4136113E1,-2.0860279E0,-4.045791E0,-1.4009694E1,2.3213335E1,-2.3267252E0,1.7369768E1,1.297838E1,-8.221996E0,-1.1129578E1,-9.072043E0,-6.4612184E0,-2.855246E0,-4.368025E0,-1.1518501E0,1.2364461E0],"categories":[],"categories_nodes":[],"categories_segments":[],"categories_sizes":[],"default_left":[0,0,0,0,0,0,0,0,0,0,0,0,0,0,0,0,0,0,0,0,0,0,0,0,0,0,0,0,0,0,0,0,0,0,0,0,0,0,0,0,0,0,0,0,0,0,0],"id":3,"left_children":[1,3,5,7,-1,9,11,13,15,17,19,21,23,25,27,29,31,33,35,-1,37,39,41,43,45,-1,-1,-1,-1,-1,-1,-1,-1,-1,-1,-1,-1,-1,-1,-1,-1,-1,-1,-1,-1,-1,-1],"loss_changes":[1.9113414E6,5.5221385E6,5.1667975E5,1.3132628E6,0E0,9.1771525E5,3.4106412E5,4.3113715E6,4.4815122E5,6.623147E5,1.087275E4,1.5028625E4,1.1858568E4,5.984492E5,2.968725E5,7.732588E5,3.1099178E5,4.059157E5,1.9946776E6,0E0,5.4595625E3,3.07745E4,1.2957969E3,2.7221777E2,7.6494395E3,0E0,0E0,0E0,0E0,0E0,0E0,0E0,0E0,0E0,0E0,0E0,0E0,0E0,0E0,0E0,0E0,0E0,0E0,0E0,0E0,0E0,0E0],"parents":[2147483647,0,0,1,1,2,2,3,3,5,5,6,6,7,7,8,8,9,9,10,10,11,11,12,12,13,13,14,14,15,15,16,16,17,17,18,18,20,20,21,21,22,22,23,23,24,24],"right_children":[2,4,6,8,-1,10,12,14,16,18,20,22,24,26,28,30,32,34,36,-1,38,40,42,44,46,-1,-1,-1,-1,-1,-1,-1,-1,-1,-1,-1,-1,-1,-1,-1,-1,-1,-1,-1,-1,-1,-1],"split_conditions":[2.1E1,2E1,4E1,3E0,4.478721E1,3.9E1,4.6E1,2E0,1.7E1,2.7E1,1E0,4.5E1,1E0,1E0,1E0,1.1E1,1.8E1,2.5E1,2.8E1,9.918429E0,5E0,4.3E1,1E0,4.7E1,4.7E1,-1.1721757E1,7.4476566E0,1.8282887E1,4.6546444E1,-2.2031908E0,6.237614E0,-1.4136113E1,-2.0860279E0,-4.045791E0,-1.4009694E1,2.3213335E1,-2.3267252E0,1.7369768E1,1.297838E1,-8.221996E0,-1.1129578E1,-9.072043E0,-6.4612184E0,-2.855246E0,-4.368025E0,-1.1518501E0,1.2364461E0],"split_indices":[2,2,2,2,0,2,2,2,2,2,0,2,0,2,0,2,2,2,2,0,0,2,0,2,2,0,0,0,0,0,0,0,0,0,0,0,0,0,0,0,0,0,0,0,0,0,0],"split_type":[0,0,0,0,0,0,0,0,0,0,0,0,0,0,0,0,0,0,0,0,0,0,0,0,0,0,0,0,0,0,0,0,0,0,0,0,0,0,0,0,0,0,0,0,0,0,0],"sum_hessian":[6.333E3,2.787E3,3.546E3,2.656E3,1.31E2,2.483E3,1.063E3,4.04E2,2.252E3,2.353E3,1.3E2,8E2,2.63E2,2.7E2,1.34E2,1.852E3,4E2,7.68E2,1.585E3,2.1E1,1.09E2,6.72E2,1.28E2,4.1E1,2.22E2,1.36E2,1.34E2,2E1,1.14E2,1.065E3,7.87E2,1.34E2,2.66E2,5.12E2,2.56E2,1.39E2,1.446E3,7.2E1,3.7E1,4E2,2.72E2,1.6E1,1.12E2,2.1E1,2E1,1.09E2,1.13E2],"tree_param":{"num_deleted":"0","num_feature":"3","num_nodes":"47","size_leaf_vector":"1"}},{"base_weights":[1.9596608E-2,1.0191875E1,-2.0383015E1,7.45147E0,9.4963425E1,-4.6810658E1,-1.42819195E1,3.164718E1,-1.1293321E0,4.563487E0,1.0550546E2,-3.475807E1,-1.474534E1,5.4876102E1,-2.024459E1,1.663357E1,1.3639424E2,-5.616014E1,7.4703226E0,2.0315844E1,2.711109E1,-2.464903E1,-4.570124E1,4.869689E0,5.9713333E1,-6.850615E0,-2.6877834E1,7.8989563E0,-7.865497E0,1.6766344E1,2.96675E1,-6.7501516E0,-1.3734422E1,1.9782532E1,-4.8387325E-1,1.7961282E0,-6.1708717E0,-9.700464E0,-7.146839E0,1.0890009E1,1.3345209E1,-5.9667926E0,1.2173913E1,-7.1854157E0,-3.759235E-1],"categories":[],"categories_nodes":[],"categories_segments":[],"categories_sizes":[],"default_left":[0,0,0,0,0,0,0,0,0,0,0,0,0,0,0,0,0,0,0,0,0,0,0,0,0,0,0,0,0,0,0,0,0,0,0,0,0,0,0,0,0,0,0,0,0],"id":4,"left_children":[1,3,5,7,9,11,13,15,17,-1,19,21,-1,23,25,27,29,31,33,-1,-1,35,37,-1,39,41,43,-1,-1,-1,-1,-1,-1,-1,-1,-1,-1,-1,-1,-1,-1,-1,-1,-1,-1],"loss_changes":[1.3118672E6,9.7916925E5,3.3841406E5,8.48573E5,9.8708375E4,1.17918E5,7.062578E5,1.6804469E6,1.4286759E6,0E0,5.785875E3,2.8631625E4,0E0,1.8997906E4,1.397475E5,1.1393796E6,5.22405E4,1.02138375E5,2.2956232E6,0E0,0E0,2.663886E4,7.7821875E2,0E0,7.2328125E2,7.78431E5,2.1852362E5,0E0,0E0,0E0,0E0,0E0,0E0,0E0,0E0,0E0,0E0,0E0,0E0,0E0,0E0,0E0,0E0,0E0,0E0],"parents":[2147483647,0,0,1,1,2,2,3,3,4,4,5,5,6,6,7,7,8,8,10,10,11,11,13,13,14,14,15,15,16,16,17,17,18,18,21,21,22,22,24,24,25,25,26,26],"right_children":[2,4,6,8,10,12,14,16,18,-1,20,22,-1,24,26,28,30,32,34,-1,-1,36,38,-1,40,42,44,-1,-1,-1,-1,-1,-1,-1,-1,-1,-1,-1,-1,-1,-1,-1,-1,-1,-1],"split_conditions":[3.2E1,3.1E1,3.5E1,8E0,1E0,3.4E1,3.6E1,7E0,1.1E1,4.563487E0,6E0,3.3E1,-1.474534E1,1E0,4E1,5E0,1E0,9E0,1.3E1,2.0315844E1,2.711109E1,1E0,6E0,4.869689E0,4E0,3.9E1,4.6E1,7.8989563E0,-7.865497E0,1.6766344E1,2.96675E1,-6.7501516E0,-1.3734422E1,1.9782532E1,-4.8387325E-1,1.7961282E0,-6.1708717E0,-9.700464E0,-7.146839E0,1.0890009E1,1.3345209E1,-5.9667926E0,1.2173913E1,-7.1854157E0,-3.759235E-1],"split_indices":[2,2,2,2,0,2,2,2,2,0,0,2,0,0,2,2,0,2,2,0,0,0,0,0,0,2,2,0,0,0,0,0,0,0,0,0,0,0,0,0,0,0,0,0,0],"split_type":[0,0,0,0,0,0,0,0,0,0,0,0,0,0,0,0,0,0,0,0,0,0,0,0,0,0,0,0,0,0,0,0,0,0,0,0,0,0,0,0,0,0,0,0,0],"sum_hessian":[6.319E3,4.217E3,2.102E3,4.086E3,1.31E2,3.93E2,1.709E3,1.069E3,3.017E3,1.7E1,1.14E2,2.68E2,1.25E2,1.35E2,1.574E3,9.36E2,1.33E2,4.07E2,2.61E3,9.7E1,1.7E1,1.41E2,1.27E2,1.9E1,1.16E2,5.22E2,1.052E3,6.69E2,2.67E2,2E1,1.13E2,1.33E2,2.74E2,2.58E2,2.352E3,2E1,1.21E2,1.06E2,2.1E1,5.9E1,5.7E1,3.91E2,1.31E2,7.9E2,2.62E2],"tree_param":{"num_deleted":"0","num_feature":"3","num_nodes":"45","size_leaf_vector":"1"}},{"base_weights":[1.7848985E-1,-2.3163923E1,2.339606E1,-3.4111835E1,-7.6318097E0,1.010675E2,1.8288189E1,1.889818E1,-4.2533722E1,1.2649864E0,-1.5812978E1,9.321092E0,2.8582837E2,2.9527536E1,-2.2406566E0,3.788773E1,3.2762175E0,-4.7091515E1,-3.31822E1,-4.1799703E0,3.8086857E1,-3.9215225E1,-1.1389924E1,-8.878049E0,6.1168625E1,6.654158E1,1.17373276E2,2.548873E1,1.4314589E2,-2.6887205E1,3.5070708E0,5.0741982E0,5.534114E1,-5.086963E0,2.140739E0,-7.4928803E0,-1.03163395E1,-3.2945483E0,-7.1132255E0,-1.0378122E1,-3.0184948E-1,2.131E1,2.3248899E-1,-5.9256444E0,-1.4052275E1,6.8629084E0,-3.3516114E0,4.4366927E0,2.0668184E1,3.0868061E1,5.4102674E0,5.9561934E0,-2.4847758E0,3.319785E1,1.3598829E1,-9.997148E-1,-7.9589157E0,1.5916704E1,-6.9609255E-1],"categories":[],"categories_nodes":[],"categories_segments":[],"categories_sizes":[],"default_left":[0,0,0,0,0,0,0,0,0,0,0,0,0,0,0,0,0,0,0,0,0,0,0,0,0,0,0,0,0,0,0,0,0,0,0,0,0,0,0,0,0,0,0,0,0,0,0,0,0,0,0,0,0,0,0,0,0,0,0],"id":5,"left_children":[1,3,5,7,9,11,13,15,17,19,21,23,25,27,29,31,33,35,37,39,41,43,45,-1,47,-1,49,51,53,55,57,-1,-1,-1,-1,-1,-1,-1,-1,-1,-1,-1,-1,-1,-1,-1,-1,-1,-1,-1,-1,-1,-1,-1,-1,-1,-1,-1,-1],"loss_changes":[3.4376152E6,5.375894E5,1.2597711E6,8.28958E5,9.5297125E4,3.3197605E6,6.887977E5,7.552265E4,6.6676E4,1.2606912E5,7.014675E4,3.6383884E5,3.98187E5,8.815364E5,1.4983064E5,3.429745E5,2.8869387E4,3.620575E4,1.4147375E4,6.89629E4,1.9805098E5,3.0611484E4,1.3024133E5,0E0,1.035145E5,0E0,3.8894203E4,2.574675E5,8.6941625E4,5.2891703E4,4.4160588E5,0E0,0E0,0E0,0E0,0E0,0E0,0E0,0E0,0E0,0E0,0E0,0E0,0E0,0E0,0E0,0E0,0E0,0E0,0E0,0E0,0E0,0E0,0E0,0E0,0E0,0E0,0E0,0E0],"parents":[2147483647,0,0,1,1,2,2,3,3,4,4,5,5,6,6,7,7,8,8,9,9,10,10,11,11,12,12,13,13,14,14,15,15,16,16,17,17,18,18,19,19,20,20,21,21,22,22,24,24,26,26,27,27,28,28,29,29,30,30],"right_children":[2,4,6,8,10,12,14,16,18,20,22,24,26,28,30,32,34,36,38,40,42,44,46,-1,48,-1,50,52,54,56,58,-1,-1,-1,-1,-1,-1,-1,-1,-1,-1,-1,-1,-1,-1,-1,-1,-1,-1,-1,-1,-1,-1,-1,-1,-1,-1,-1,-1],"split_conditions":[1.2E1,7E0,3E0,1E0,2.3E1,2E0,3.2E1,2.1E1,5E0,2E1,2.7E1,1E0,2.1E1,3.1E1,3.5E1,2E1,2.7E1,2E0,4E0,1E0,2.1E1,2.6E1,2.9E1,-8.878049E0,1.8E1,6.654158E1,2.3E1,2.3E1,2.1E1,3.3E1,3.6E1,5.0741982E0,5.534114E1,-5.086963E0,2.140739E0,-7.4928803E0,-1.03163395E1,-3.2945483E0,-7.1132255E0,-1.0378122E1,-3.0184948E-1,2.131E1,2.3248899E-1,-5.9256444E0,-1.4052275E1,6.8629084E0,-3.3516114E0,4.4366927E0,2.0668184E1,3.0868061E1,5.4102674E0,5.9561934E0,-2.4847758E0,3.319785E1,1.3598829E1,-9.997148E-1,-7.9589157E0,1.5916704E1,-6.9609255E-1],"split_indices":[1,1,2,1,2,2,2,2,1,2,2,2,1,2,2,2,2,1,2,2,2,2,2,0,1,0,1,1,1,2,2,0,0,0,0,0,0,0,0,0,0,0,0,0,0,0,0,0,0,0,0,0,0,0,0,0,0,0,0],"split_type":[0,0,0,0,0,0,0,0,0,0,0,0,0,0,0,0,0,0,0,0,0,0,0,0,0,0,0,0,0,0,0,0,0,0,0,0,0,0,0,0,0,0,0,0,0,0,0,0,0,0,0,0,0,0,0,0,0,0,0],"sum_hessian":[6.341E3,3.162E3,3.179E3,1.854E3,1.308E3,1.95E2,2.984E3,2.54E2,1.6E3,6.27E2,6.81E2,1.31E2,6.4E1,1.928E3,1.056E3,1.14E2,1.4E2,1.073E3,5.27E2,5.47E2,8E1,1.07E2,5.74E2,6.5E1,6.6E1,5.1E1,1.3E1,1.863E3,6.5E1,1.99E2,8.57E2,1.09E2,5E0,2.8E1,1.12E2,2.67E2,8.06E2,4.7E1,4.8E2,2.9E1,5.18E2,2.8E1,5.2E1,8.1E1,2.6E1,5.7E1,5.17E2,3.4E1,3.2E1,9E0,4E0,1.698E3,1.65E2,5.1E1,1.4E1,7.1E1,1.28E2,7.2E1,7.85E2],"tree_param":{"num_deleted":"0","num_feature":"3","num_nodes":"59","size_leaf_vector":"1"}},{"base_weights":[3.125456E-1,-1.8339615E1,1.8935244E1,-2.7069273E1,-5.9658356E0,-1.4041557E1,2.4426441E1,1.5057546E1,-3.3928577E1,-4.476492E1,3.172755E-1,-2.8255823E1,4.2352498E-1,2.7641296E1,-1.0539955E1,1.2516761E1,4.378314E0,-7.001625E0,-3.826466E1,-6.121491E0,-4.843784E1,7.448718E0,-1.3412032E1,-3.2332268E1,-4.075984E0,5.196422E0,-8.523466E0,1.8602222E1,3.857106E1,-1.8556734E1,4.1556535E0,3.400418E0,2.30818E0,1.0070667E0,-1.8293351E0,-8.905316E0,-5.550751E0,-1.1161762E1,-8.420498E0,2.0891306E0,1.1536682E0,-5.566256E0,1.2924184E-1,-5.4713397E0,-6.975671E0,-3.6579344E-1,2.7929244E0,-8.674041E-1,-2.53039E0,3.3480349E0,5.9556823E0,1.0111451E1,4.47181E0,-4.177102E0,-3.3087893E0,8.333178E-3,1.7316002E0],"categories":[],"categories_nodes":[],"categories_segments":[],"categories_sizes":[],"default_left":[0,0,0,0,0,0,0,0,0,0,0,0,0,0,0,0,0,0,0,0,0,0,0,0,0,0,0,0,0,0,0,0,0,0,0,0,0,0,0,0,0,0,0,0,0,0,0,0,0,0,0,0,0,0,0,0,0],"id":6,"left_children":[1,3,5,7,9,11,13,15,17,19,21,23,25,27,29,31,-1,33,35,-1,37,39,41,43,-1,45,47,49,51,53,55,-1,-1,-1,-1,-1,-1,-1,-1,-1,-1,-1,-1,-1,-1,-1,-1,-1,-1,-1,-1,-1,-1,-1,-1,-1,-1],"loss_changes":[2.204653E6,3.4236625E5,5.754599E5,5.37689E5,3.2009594E5,9.335915E4,3.0638888E5,3.957289E3,1.8642725E5,8.498844E3,1.1083585E5,7.10875E3,9.695187E3,2.4567712E5,2.7173744E4,7.630371E2,0E0,5.237448E3,8.0137625E4,0E0,4.2355E3,3.6698945E3,7.519652E4,6.1334375E2,0E0,8.786372E3,1.2524321E3,3.1465375E4,2.0440738E5,3.3333594E2,1.4571669E3,0E0,0E0,0E0,0E0,0E0,0E0,0E0,0E0,0E0,0E0,0E0,0E0,0E0,0E0,0E0,0E0,0E0,0E0,0E0,0E0,0E0,0E0,0E0,0E0,0E0,0E0],"parents":[2147483647,0,0,1,1,2,2,3,3,4,4,5,5,6,6,7,7,8,8,9,9,10,10,11,11,12,12,13,13,14,14,15,15,17,17,18,18,20,20,21,21,22,22,23,23,25,25,26,26,27,27,28,28,29,29,30,30],"right_children":[2,4,6,8,10,12,14,16,18,20,22,24,26,28,30,32,-1,34,36,-1,38,40,42,44,-1,46,48,50,52,54,56,-1,-1,-1,-1,-1,-1,-1,-1,-1,-1,-1,-1,-1,-1,-1,-1,-1,-1,-1,-1,-1,-1,-1,-1,-1,-1],"split_conditions":[1.2E1,7E0,1E0,1E0,1E0,1.8E1,2.3E1,5E0,1E0,8E0,5E0,1.6E1,2.2E1,1.8E1,5E0,1E0,4.378314E0,2E0,5E0,-6.121491E0,1E1,9E0,6E0,1.3E1,-4.075984E0,2E1,2.3E1,6E0,2.1E1,3E0,6E0,3.400418E0,2.30818E0,1.0070667E0,-1.8293351E0,-8.905316E0,-5.550751E0,-1.1161762E1,-8.420498E0,2.0891306E0,1.1536682E0,-5.566256E0,1.2924184E-1,-5.4713397E0,-6.975671E0,-3.6579344E-1,2.7929244E0,-8.674041E-1,-2.53039E0,3.3480349E0,5.9556823E0,1.0111451E1,4.47181E0,-4.177102E0,-3.3087893E0,8.333178E-3,1.7316002E0],"split_indices":[1,1,0,1,0,1,1,0,0,1,0,1,1,1,0,0,0,1,0,0,1,1,0,1,0,1,1,0,1,0,0,0,0,0,0,0,0,0,0,0,0,0,0,0,0,0,0,0,0,0,0,0,0,0,0,0,0],"split_type":[0,0,0,0,0,0,0,0,0,0,0,0,0,0,0,0,0,0,0,0,0,0,0,0,0,0,0,0,0,0,0,0,0,0,0,0,0,0,0,0,0,0,0,0,0,0,0,0,0,0,0,0,0,0,0,0,0],"sum_hessian":[6.345E3,3.17E3,3.175E3,1.858E3,1.312E3,4.53E2,2.722E3,2.6E2,1.598E3,1.82E2,1.13E3,2.28E2,2.25E2,2.493E3,2.29E2,1.88E2,7.2E1,2.22E2,1.376E3,3.8E1,1.44E2,7.44E2,3.86E2,1.51E2,7.7E1,1.47E2,7.8E1,1.366E3,1.127E3,1.48E2,8.1E1,4E1,1.48E2,3.1E1,1.91E2,9.28E2,4.48E2,7.4E1,7E1,2.91E2,4.53E2,1.94E2,1.92E2,4.1E1,1.1E2,8.1E1,6.6E1,3.8E1,4E1,1.131E3,2.35E2,6.8E2,4.47E2,7.8E1,7E1,4.2E1,3.9E1],"tree_param":{"num_deleted":"0","num_feature":"3","num_nodes":"57","size_leaf_vector":"1"}},{"base_weights":[1.6016228E-1,-1.459712E1,1.4884828E1,-2.1515717E1,-4.745348E0,5.238099E1,7.3771296E0,1.2072058E1,-2.7009132E1,2.5863097E0,-1.1406483E1,3.5223385E1,1.6818146E2,-4.90654E1,1.2041073E1,6.9772385E1,6.754717E0,-2.931207E1,-1.5471005E1,-8.873719E0,1.5776183E1,-1.12084875E1,-9.471106E0,6.0318428E1,-2.6009195E1,2.718169E1,1.9090128E2,-6.122271E1,-2.3086351E1,1.0732514E2,6.5085597E0,-2.0831606E0,2.8044436E1,3.308283E0,-1.8917898E0,-1.1775894E1,-5.8417706E0,8.0940753E-1,-3.5192835E0,1.3985761E0,-8.639458E0,3.233033E1,-1.3471322E-1,1.0073164E-1,-2.939315E0,-7.9494357E0,1.736455E1,-7.5242357E0,-3.4991724E0,4.1394604E1,1.4465515E1,-5.932031E0,-1.8363348E1,-6.5776367E0,-2.7720323E0,1.291328E0,4.0777157E1,3.418659E0,-1.1324493E0],"categories":[],"categories_nodes":[],"categories_segments":[],"categories_sizes":[],"default_left":[0,0,0,0,0,0,0,0,0,0,0,0,0,0,0,0,0,0,0,0,0,0,0,0,0,0,0,0,0,0,0,0,0,0,0,0,0,0,0,0,0,0,0,0,0,0,0,0,0,0,0,0,0,0,0,0,0,0,0],"id":7,"left_children":[1,3,5,7,9,11,13,15,17,19,21,23,25,27,29,31,33,35,37,39,41,-1,43,45,47,-1,49,51,53,55,57,-1,-1,-1,-1,-1,-1,-1,-1,-1,-1,-1,-1,-1,-1,-1,-1,-1,-1,-1,-1,-1,-1,-1,-1,-1,-1,-1,-1],"loss_changes":[1.3770051E6,2.1562556E5,8.925628E5,3.433333E5,6.385967E4,1.04512425E6,6.9660994E5,7.991353E4,4.2008E4,9.43104E4,5.7087508E4,7.11494E5,2.8894875E4,6.2385312E4,1.2871542E6,1.2013478E5,3.6572918E4,2.548725E4,9.202859E3,1.7570589E5,6.7912756E5,0E0,3.218445E4,8.062776E5,1.2341586E4,0E0,4.0470625E4,1.2375866E5,5.284953E3,1.2474034E6,2.8471116E5,0E0,0E0,0E0,0E0,0E0,0E0,0E0,0E0,0E0,0E0,0E0,0E0,0E0,0E0,0E0,0E0,0E0,0E0,0E0,0E0,0E0,0E0,0E0,0E0,0E0,0E0,0E0,0E0],"parents":[2147483647,0,0,1,1,2,2,3,3,4,4,5,5,6,6,7,7,8,8,9,9,10,10,11,11,12,12,13,13,14,14,15,15,16,16,17,17,18,18,19,19,20,20,22,22,23,23,24,24,26,26,27,27,28,28,29,29,30,30],"right_children":[2,4,6,8,10,12,14,16,18,20,22,24,26,28,30,32,34,36,38,40,42,-1,44,46,48,-1,50,52,54,56,58,-1,-1,-1,-1,-1,-1,-1,-1,-1,-1,-1,-1,-1,-1,-1,-1,-1,-1,-1,-1,-1,-1,-1,-1,-1,-1,-1,-1],"split_conditions":[1.2E1,7E0,8E0,1E0,2.3E1,7E0,1.1E1,4E0,6E0,1.2E1,2.4E1,5E0,1.7E1,1E1,1.3E1,2E0,3.2E1,1E0,4E0,8E0,1.3E1,-1.12084875E1,3.2E1,1E0,1.7E1,2.718169E1,2.3E1,9E0,1.8E1,1.2E1,3.2E1,-2.0831606E0,2.8044436E1,3.308283E0,-1.8917898E0,-1.1775894E1,-5.8417706E0,8.0940753E-1,-3.5192835E0,1.3985761E0,-8.639458E0,3.233033E1,-1.3471322E-1,1.0073164E-1,-2.939315E0,-7.9494357E0,1.736455E1,-7.5242357E0,-3.4991724E0,4.1394604E1,1.4465515E1,-5.932031E0,-1.8363348E1,-6.5776367E0,-2.7720323E0,1.291328E0,4.0777157E1,3.418659E0,-1.1324493E0],"split_indices":[1,1,2,1,2,2,2,2,1,2,2,2,1,2,2,2,2,2,2,2,2,0,2,2,1,0,1,2,1,2,2,0,0,0,0,0,0,0,0,0,0,0,0,0,0,0,0,0,0,0,0,0,0,0,0,0,0,0,0],"split_type":[0,0,0,0,0,0,0,0,0,0,0,0,0,0,0,0,0,0,0,0,0,0,0,0,0,0,0,0,0,0,0,0,0,0,0,0,0,0,0,0,0,0,0,0,0,0,0,0,0,0,0,0,0,0,0,0,0,0,0],"sum_hessian":[6.335E3,3.164E3,3.171E3,1.858E3,1.306E3,5.28E2,2.643E3,2.61E2,1.597E3,6.22E2,6.84E2,4.61E2,6.7E1,2.01E2,2.442E3,2.1E1,2.4E2,1.33E3,2.67E2,3.33E2,2.89E2,2.8E1,6.56E2,3.27E2,1.34E2,2.9E1,3.8E1,1.36E2,6.5E1,1.33E2,2.309E3,1E1,1.1E1,1.51E2,8.9E1,3.1E1,1.299E3,2.2E1,2.45E2,2.27E2,1.06E2,2.9E1,2.6E2,2.17E2,4.39E2,6.5E1,2.62E2,5.9E1,7.5E1,3.4E1,4E0,6.5E1,7.1E1,3.2E1,3.3E1,6.4E1,6.9E1,1.249E3,1.06E3],"tree_param":{"num_deleted":"0","num_feature":"3","num_nodes":"59","size_leaf_vector":"1"}},{"base_weights":[7.001313E-2,9.573161E0,-7.486208E0,1.6333532E0,1.6913312E2,-2.7829424E1,-1.7608075E0,1.173436E1,-1.7042877E1,1.5309174E2,4.221435E1,-1.4998393E1,-5.2751434E1,6.03161E1,-8.502161E0,2.076856E0,1.25336784E2,-5.48134E1,-1.0796878E1,3.363973E1,2.7072966E1,-2.4742605E1,1.1925447E1,-8.590892E0,-1.2787655E1,8.539731E1,3.2648663E1,-2.9637257E1,-6.0625997E0,3.5659254E0,-5.877345E0,1.4579469E1,2.727423E1,-1.3575763E1,-1.0733734E1,5.420174E-1,-4.894608E0,-8.8778263E-1,-1.2874342E1,3.1637554E0,3.083405E-1,4.0450068E0,1.975953E1,2.731688E0,7.3618584E0,-9.4515295E0,-5.4043245E0,1.3594142E1,-2.155861E0],"categories":[],"categories_nodes":[],"categories_segments":[],"categories_sizes":[],"default_left":[0,0,0,0,0,0,0,0,0,0,0,0,0,0,0,0,0,0,0,0,0,0,0,0,0,0,0,0,0,0,0,0,0,0,0,0,0,0,0,0,0,0,0,0,0,0,0,0,0],"id":8,"left_children":[1,3,5,7,9,11,13,15,17,19,-1,21,23,25,27,29,31,33,35,-1,-1,37,39,-1,-1,41,43,45,47,-1,-1,-1,-1,-1,-1,-1,-1,-1,-1,-1,-1,-1,-1,-1,-1,-1,-1,-1,-1],"loss_changes":[4.549028E5,3.554576E6,4.1098444E5,5.0464672E5,4.833925E4,2.470345E5,1.1534318E6,1.9043329E6,2.209321E5,1.2575E3,0E0,1.3488142E5,2.5060625E4,1.8457375E5,1.2799936E5,7.5979075E5,5.034625E4,3.29375E1,1.4289698E5,0E0,0E0,2.9401794E5,5.056035E3,0E0,0E0,1.02742125E5,7.9983594E3,1.2387281E4,7.274756E5,0E0,0E0,0E0,0E0,0E0,0E0,0E0,0E0,0E0,0E0,0E0,0E0,0E0,0E0,0E0,0E0,0E0,0E0,0E0,0E0],"parents":[2147483647,0,0,1,1,2,2,3,3,4,4,5,5,6,6,7,7,8,8,9,9,11,11,12,12,13,13,14,14,15,15,16,16,17,17,18,18,21,21,22,22,25,25,26,26,27,27,28,28],"right_children":[2,4,6,8,10,12,14,16,18,20,-1,22,24,26,28,30,32,34,36,-1,-1,38,40,-1,-1,42,44,46,48,-1,-1,-1,-1,-1,-1,-1,-1,-1,-1,-1,-1,-1,-1,-1,-1,-1,-1,-1,-1],"split_conditions":[2.1E1,2E1,2.7E1,1.3E1,5E0,2.5E1,2.9E1,1.2E1,1.4E1,3E0,4.221435E1,2.4E1,2.6E1,2.8E1,3.1E1,8E0,1E0,1E0,1.7E1,3.363973E1,2.7072966E1,2.3E1,5E0,-8.590892E0,-1.2787655E1,1E0,1E0,1E0,3.2E1,3.5659254E0,-5.877345E0,1.4579469E1,2.727423E1,-1.3575763E1,-1.0733734E1,5.420174E-1,-4.894608E0,-8.8778263E-1,-1.2874342E1,3.1637554E0,3.083405E-1,4.0450068E0,1.975953E1,2.731688E0,7.3618584E0,-9.4515295E0,-5.4043245E0,1.3594142E1,-2.155861E0],"split_indices":[2,2,2,2,0,2,2,2,2,0,0,2,2,2,2,2,0,0,2,0,0,2,0,0,0,0,0,0,2,0,0,0,0,0,0,0,0,0,0,0,0,0,0,0,0,0,0,0,0],"split_type":[0,0,0,0,0,0,0,0,0,0,0,0,0,0,0,0,0,0,0,0,0,0,0,0,0,0,0,0,0,0,0,0,0,0,0,0,0,0,0,0,0,0,0,0,0,0,0,0,0],"sum_hessian":[6.333E3,2.805E3,3.528E3,2.673E3,1.32E2,7.74E2,2.754E3,1.735E3,9.38E2,9.6E1,3.6E1,5.12E2,2.62E2,2.69E2,2.485E3,1.6E3,1.35E2,1.32E2,8.06E2,5.7E1,3.9E1,3.76E2,1.36E2,1.28E2,1.34E2,1.4E2,1.29E2,2.56E2,2.229E3,1.068E3,5.32E2,1.9E1,1.16E2,1.7E1,1.15E2,3.99E2,4.07E2,2.46E2,1.3E2,1.01E2,3.5E1,2.1E1,1.19E2,2E1,1.09E2,3.9E1,2.17E2,1.29E2,2.1E3],"tree_param":{"num_deleted":"0","num_feature":"3","num_nodes":"49","size_leaf_vector":"1"}},{"base_weights":[6.704525E-2,-1.1713155E1,1.1869521E1,-1.7141674E1,-3.9976375E0,6.308505E1,8.5463295E0,9.5320635E0,-2.1509996E1,-8.927004E0,-3.067066E0,-6.0917163E0,2.0592744E2,1.2349165E1,-9.328072E0,5.3293224E1,5.5143876E0,-1.0649242E1,-2.0832924E1,3.6123272E1,-4.8836637E0,-7.046961E0,2.3275167E1,2.3030405E2,3.407844E1,1.0521749E1,7.6369E1,-1.813741E1,1.6380655E1,-2.3585672E0,2.2124239E1,1.997751E0,-2.73118E0,-4.8925934E0,-2.9673905E0,-3.4938304E0,1.800022E1,-5.6522207E0,-5.16415E-1,-1.118123E0,1.0847437E1,4.98682E1,2.9403534E1,1.101897E1,1.5138158E0,2.4378064E0,-7.8705444E0,8.961766E0,2.0610527E1,-1.3003546E0,-4.165142E0,1.1303174E0,4.828757E0],"categories":[],"categories_nodes":[],"categories_segments":[],"categories_sizes":[],"default_left":[0,0,0,0,0,0,0,0,0,0,0,0,0,0,0,0,0,0,0,0,0,0,0,0,0,0,0,0,0,0,0,0,0,0,0,0,0,0,0,0,0,0,0,0,0,0,0,0,0,0,0,0,0],"id":9,"left_children":[1,3,5,7,9,11,13,15,17,-1,19,21,23,25,27,29,31,-1,33,35,37,-1,39,41,43,45,47,49,51,-1,-1,-1,-1,-1,-1,-1,-1,-1,-1,-1,-1,-1,-1,-1,-1,-1,-1,-1,-1,-1,-1,-1,-1],"loss_changes":[8.823195E5,1.3295453E5,5.3899175E5,2.1739738E5,4.8367207E4,1.9083598E6,2.0254003E5,4.5946297E4,3.2118375E4,0E0,9.158832E4,1.100568E5,2.5606475E5,2.8652612E5,1.18744484E5,7.969291E4,1.961266E4,0E0,3.0474562E4,1.5919494E5,6.58416E4,0E0,5.6007062E4,3.031875E4,4.365669E3,1.6566231E5,4.974875E4,1.0195008E4,1.0413512E4,0E0,0E0,0E0,0E0,0E0,0E0,0E0,0E0,0E0,0E0,0E0,0E0,0E0,0E0,0E0,0E0,0E0,0E0,0E0,0E0,0E0,0E0,0E0,0E0],"parents":[2147483647,0,0,1,1,2,2,3,3,4,4,5,5,6,6,7,7,8,8,10,10,11,11,12,12,13,13,14,14,15,15,16,16,18,18,19,19,20,20,22,22,23,23,24,24,25,25,26,26,27,27,28,28],"right_children":[2,4,6,8,10,12,14,16,18,-1,20,22,24,26,28,30,32,-1,34,36,38,-1,40,42,44,46,48,50,52,-1,-1,-1,-1,-1,-1,-1,-1,-1,-1,-1,-1,-1,-1,-1,-1,-1,-1,-1,-1,-1,-1,-1,-1],"split_conditions":[1.2E1,7E0,3E0,1E0,1E0,2E0,4E1,4E0,1E0,-8.927004E0,3E0,1E0,2.2E1,3.9E1,4.6E1,2E0,4E1,-1.0649242E1,5E0,2E0,7E0,-7.046961E0,1.8E1,2E1,2.3E1,3.8E1,1.7E1,4.1E1,1.7E1,-2.3585672E0,2.2124239E1,1.997751E0,-2.73118E0,-4.8925934E0,-2.9673905E0,-3.4938304E0,1.800022E1,-5.6522207E0,-5.16415E-1,-1.118123E0,1.0847437E1,4.98682E1,2.9403534E1,1.101897E1,1.5138158E0,2.4378064E0,-7.8705444E0,8.961766E0,2.0610527E1,-1.3003546E0,-4.165142E0,1.1303174E0,4.828757E0],"split_indices":[1,1,2,1,2,2,2,2,2,0,2,2,1,2,2,2,2,0,1,2,2,0,1,1,1,2,1,2,1,0,0,0,0,0,0,0,0,0,0,0,0,0,0,0,0,0,0,0,0,0,0,0,0],"split_type":[0,0,0,0,0,0,0,0,0,0,0,0,0,0,0,0,0,0,0,0,0,0,0,0,0,0,0,0,0,0,0,0,0,0,0,0,0,0,0,0,0,0,0,0,0,0,0,0,0,0,0,0,0],"sum_hessian":[6.344E3,3.175E3,3.169E3,1.863E3,1.312E3,1.92E2,2.977E3,2.62E2,1.601E3,2.9E1,1.283E3,1.3E2,6.2E1,2.455E3,5.22E2,2.1E1,2.41E2,3.3E1,1.568E3,5.6E1,1.227E3,6.6E1,6.4E1,5.4E1,8E0,2.388E3,6.7E1,3.89E2,1.33E2,1E1,1.1E1,1.97E2,4.4E1,1.048E3,5.2E2,2.8E1,2.8E1,1.14E2,1.113E3,3.3E1,3.1E1,4.5E1,9E0,4E0,4E0,2.322E3,6.6E1,3E1,3.7E1,6.3E1,3.26E2,5.4E1,7.9E1],"tree_param":{"num_deleted":"0","num_feature":"3","num_nodes":"53","size_leaf_vector":"1"}},{"base_weights":[-1.47199165E-2,-8.108626E0,1.1305114E1,-1.3776384E1,-2.436482E0,-1.3220352E1,1.5342671E1,7.313527E0,-1.7233997E1,-3.2744587E1,2.613219E0,-2.821797E1,-6.8644576E0,2.0789919E1,-6.5403075E0,5.2490997E0,1.2459457E1,5.3858304E0,-2.0837288E1,-4.5253897E0,-3.4482655E1,6.568854E0,-5.075395E0,-6.2035623E0,-4.8975677E0,-3.1675076E0,-5.3880787E0,1.1505243E1,3.0051722E1,6.1396307E-1,-1.3238595E1,4.73878E-1,1.4483051E0,2.0464704E0,2.9894702E0,1.6538572E0,-1.7589877E0,-5.0419283E0,-2.6259296E0,-8.531264E0,-6.275438E0,1.6188251E0,-2.6084915E-1,-3.1016119E0,1.0936692E0,-4.0942708E-1,-2.46922E0,2.0005693E0,3.989491E0,6.9267626E0,4.47883E0,-5.881462E-1,4.765647E-1,-4.0070734E0,-3.3164468E-1],"categories":[],"categories_nodes":[],"categories_segments":[],"categories_sizes":[],"default_left":[0,0,0,0,0,0,0,0,0,0,0,0,0,0,0,0,0,0,0,0,0,0,0,0,0,0,0,0,0,0,0,0,0,0,0,0,0,0,0,0,0,0,0,0,0,0,0,0,0,0,0,0,0,0,0],"id":10,"left_children":[1,3,5,7,9,11,13,15,17,19,21,23,25,27,29,31,33,35,37,-1,39,41,43,-1,-1,-1,45,47,49,51,53,-1,-1,-1,-1,-1,-1,-1,-1,-1,-1,-1,-1,-1,-1,-1,-1,-1,-1,-1,-1,-1,-1,-1,-1],"loss_changes":[5.806066E5,1.1875458E5,2.6182153E5,1.3488362E5,2.8291612E5,3.5457203E4,2.706053E5,2.7073066E3,1.2954341E5,4.0979062E3,4.8238504E4,2.8341406E2,3.2835498E3,1.5590325E5,2.1716502E4,9.967715E2,2.4618457E2,8.372299E3,4.1691562E4,0E0,4.883375E3,1.1135715E4,5.688182E4,0E0,0E0,0E0,5.1207563E3,1.2302633E4,2.77175E4,1.3272177E3,1.72923E4,0E0,0E0,0E0,0E0,0E0,0E0,0E0,0E0,0E0,0E0,0E0,0E0,0E0,0E0,0E0,0E0,0E0,0E0,0E0,0E0,0E0,0E0,0E0,0E0],"parents":[2147483647,0,0,1,1,2,2,3,3,4,4,5,5,6,6,7,7,8,8,9,9,10,10,11,11,12,12,13,13,14,14,15,15,16,16,17,17,18,18,20,20,21,21,22,22,26,26,27,27,28,28,29,29,30,30],"right_children":[2,4,6,8,10,12,14,16,18,20,22,24,26,28,30,32,34,36,38,-1,40,42,44,-1,-1,-1,46,48,50,52,54,-1,-1,-1,-1,-1,-1,-1,-1,-1,-1,-1,-1,-1,-1,-1,-1,-1,-1,-1,-1,-1,-1,-1,-1],"split_conditions":[1.4E1,7E0,1E0,1E0,1E0,1.7E1,2.2E1,5E0,1E0,8E0,5E0,1.6E1,1.8E1,1.8E1,2.3E1,2E0,6E0,6E0,5E0,-4.5253897E0,1E1,1.3E1,6E0,-6.2035623E0,-4.8975677E0,-3.1675076E0,2.2E1,6E0,5E0,3E0,5E0,4.73878E-1,1.4483051E0,2.0464704E0,2.9894702E0,1.6538572E0,-1.7589877E0,-5.0419283E0,-2.6259296E0,-8.531264E0,-6.275438E0,1.6188251E0,-2.6084915E-1,-3.1016119E0,1.0936692E0,-4.0942708E-1,-2.46922E0,2.0005693E0,3.989491E0,6.9267626E0,4.47883E0,-5.881462E-1,4.765647E-1,-4.0070734E0,-3.3164468E-1],"split_indices":[1,1,0,1,0,1,1,0,0,1,0,1,1,1,1,0,0,1,0,0,1,1,0,0,0,0,1,0,0,0,0,0,0,0,0,0,0,0,0,0,0,0,0,0,0,0,0,0,0,0,0,0,0,0,0],"split_type":[0,0,0,0,0,0,0,0,0,0,0,0,0,0,0,0,0,0,0,0,0,0,0,0,0,0,0,0,0,0,0,0,0,0,0,0,0,0,0,0,0,0,0,0,0,0,0,0,0,0,0,0,0,0,0],"sum_hessian":[6.335E3,3.694E3,2.641E3,1.847E3,1.847E3,3.73E2,2.268E3,2.6E2,1.587E3,2.63E2,1.584E3,1.1E2,2.63E2,1.816E3,4.52E2,1.87E2,7.3E1,2.18E2,1.369E3,3.9E1,2.24E2,1.046E3,5.38E2,6.9E1,4.1E1,3.7E1,2.26E2,9.08E2,9.08E2,2.19E2,2.33E2,7.3E1,1.14E2,3.7E1,3.6E1,1.83E2,3.5E1,9.23E2,4.46E2,7.3E1,1.51E2,8.92E2,1.54E2,2.73E2,2.65E2,1.51E2,7.5E1,7.5E2,1.58E2,6.14E2,2.94E2,7.2E1,1.47E2,1.5E2,8.3E1],"tree_param":{"num_deleted":"0","num_feature":"3","num_nodes":"55","size_leaf_vector":"1"}},{"base_weights":[4.8994098E-2,6.960341E0,-5.43634E0,7.8282034E-1,1.3022832E2,-2.2376347E1,-7.7053744E-1,8.57494E0,-1.3727192E1,2.4603622E1,3.1378319E1,-1.227732E1,-4.2368645E1,4.871009E1,-6.145122E0,7.4906033E-1,9.9474464E1,-4.424961E1,-8.78719E0,-1.9718033E1,9.566901E0,-6.912239E0,-1.0268014E1,6.9068886E1,2.6269943E1,-2.3805544E1,-4.114622E0,2.607833E0,-4.715758E0,1.4310716E1,2.271802E1,-1.1023064E1,-8.665846E0,3.0785364E-1,-3.847729E0,-6.847897E-1,-1.0305852E1,-6.1964333E-1,2.4008648E0,4.25294E0,1.57875185E1,2.7701023E0,5.810288E0,-6.0020056E0,-3.5457313E0,1.0437539E1,-1.5494928E0],"categories":[],"categories_nodes":[],"categories_segments":[],"categories_sizes":[],"default_left":[0,0,0,0,0,0,0,0,0,0,0,0,0,0,0,0,0,0,0,0,0,0,0,0,0,0,0,0,0,0,0,0,0,0,0,0,0,0,0,0,0,0,0,0,0,0,0],"id":11,"left_children":[1,3,5,7,9,11,13,15,17,-1,-1,19,21,23,25,27,29,31,33,35,37,-1,-1,39,41,43,45,-1,-1,-1,-1,-1,-1,-1,-1,-1,-1,-1,-1,-1,-1,-1,-1,-1,-1,-1,-1],"loss_changes":[2.4058342E5,2.1381632E6,2.7962178E5,3.0256325E5,1.21925E4,1.5373356E5,7.3827675E5,1.2384185E6,1.405912E5,0E0,0E0,8.291977E4,1.5538094E4,1.2245E5,8.969421E4,4.5954547E5,3.9804125E4,2.6125E1,8.337406E4,1.909072E5,3.613002E3,0E0,0E0,5.459425E4,3.225125E3,8.762516E3,4.3070628E5,0E0,0E0,0E0,0E0,0E0,0E0,0E0,0E0,0E0,0E0,0E0,0E0,0E0,0E0,0E0,0E0,0E0,0E0,0E0,0E0],"parents":[2147483647,0,0,1,1,2,2,3,3,4,4,5,5,6,6,7,7,8,8,11,11,12,12,13,13,14,14,15,15,16,16,17,17,18,18,19,19,20,20,23,23,24,24,25,25,26,26],"right_children":[2,4,6,8,10,12,14,16,18,-1,-1,20,22,24,26,28,30,32,34,36,38,-1,-1,40,42,44,46,-1,-1,-1,-1,-1,-1,-1,-1,-1,-1,-1,-1,-1,-1,-1,-1,-1,-1,-1,-1],"split_conditions":[2.1E1,2E1,2.7E1,1.3E1,5E0,2.5E1,2.9E1,1.2E1,1.4E1,2.4603622E1,3.1378319E1,2.4E1,2.6E1,2.8E1,3.1E1,8E0,2E0,1E0,1.7E1,2.3E1,1E0,-6.912239E0,-1.0268014E1,1E0,1E0,3E1,3.2E1,2.607833E0,-4.715758E0,1.4310716E1,2.271802E1,-1.1023064E1,-8.665846E0,3.0785364E-1,-3.847729E0,-6.847897E-1,-1.0305852E1,-6.1964333E-1,2.4008648E0,4.25294E0,1.57875185E1,2.7701023E0,5.810288E0,-6.0020056E0,-3.5457313E0,1.0437539E1,-1.5494928E0],"split_indices":[2,2,2,2,0,2,2,2,2,0,0,2,2,2,2,2,0,0,2,2,0,0,0,0,0,2,2,0,0,0,0,0,0,0,0,0,0,0,0,0,0,0,0,0,0,0,0],"split_type":[0,0,0,0,0,0,0,0,0,0,0,0,0,0,0,0,0,0,0,0,0,0,0,0,0,0,0,0,0,0,0,0,0,0,0,0,0,0,0,0,0,0,0,0,0,0,0],"sum_hessian":[6.344E3,2.807E3,3.537E3,2.674E3,1.33E2,7.63E2,2.774E3,1.74E3,9.34E2,9.8E1,3.5E1,5.08E2,2.55E2,2.71E2,2.503E3,1.603E3,1.37E2,1.29E2,8.05E2,3.79E2,1.29E2,1.25E2,1.3E2,1.41E2,1.3E2,2.57E2,2.246E3,1.066E3,5.37E2,4.1E1,9.6E1,1.6E1,1.13E2,3.98E2,4.07E2,2.48E2,1.31E2,1.9E1,1.1E2,2.1E1,1.2E2,2E1,1.1E2,1.36E2,1.21E2,1.32E2,2.114E3],"tree_param":{"num_deleted":"0","num_feature":"3","num_nodes":"47","size_leaf_vector":"1"}},{"base_weights":[-7.698189E-2,-6.570866E0,8.971862E0,-1.2141358E1,-2.3786564E0,-1.0429697E1,1.21532545E1,-1.3496816E0,-1.7449635E1,-2.2876286E1,1.0200548E0,-1.9904764E1,-4.136712E0,1.6401518E1,-5.0452676E0,5.0349183E0,-7.514015E0,4.477895E0,-2.122601E1,-9.049129E-1,-2.5295998E1,-5.102026E0,3.0554929E0,-2.2278093E1,-2.5824158E0,-2.0753825E0,-2.792957E0,9.195464E0,2.3511314E1,8.508069E-1,-1.0689784E1,1.9721681E-1,1.3433392E0,2.6408968E0,-2.0355096E0,1.0812677E0,7.4123716E-1,-5.1418314E0,-2.682444E0,-3.5741303E0,-5.4275784E0,-3.0077085E-1,-1.4209031E0,1.2156664E0,-5.265743E-1,-4.889305E0,-3.880645E0,-1.3273922E0,2.9410002E-1,3.5966153E0,1.520838E0,5.365559E0,3.0871732E0,-1.2688638E-1,1.5452654E0,-3.1413863E0,-4.391693E-1],"categories":[],"categories_nodes":[],"categories_segments":[],"categories_sizes":[],"default_left":[0,0,0,0,0,0,0,0,0,0,0,0,0,0,0,0,0,0,0,0,0,0,0,0,0,0,0,0,0,0,0,0,0,0,0,0,0,0,0,0,0,0,0,0,0,0,0,0,0,0,0,0,0,0,0,0,0],"id":12,"left_children":[1,3,5,7,9,11,13,15,17,19,21,23,25,27,29,31,33,35,37,-1,39,41,43,45,-1,47,-1,49,51,53,55,-1,-1,-1,-1,-1,-1,-1,-1,-1,-1,-1,-1,-1,-1,-1,-1,-1,-1,-1,-1,-1,-1,-1,-1,-1,-1],"loss_changes":[3.7284603E5,8.6235875E4,1.6375703E5,9.083075E4,1.469479E5,2.2217953E4,1.6652222E5,2.0660799E4,8.811847E4,1.3279078E4,2.2570209E4,2.2875938E3,4.412817E3,9.338756E4,1.5051878E4,1.610605E3,1.3492361E4,8.946411E1,2.8607938E4,0E0,2.1592969E3,3.0292412E3,2.217289E4,1.4789453E2,0E0,2.9154849E3,0E0,1.3257664E4,2.0836719E4,2.197984E3,9.21073E3,0E0,0E0,0E0,0E0,0E0,0E0,0E0,0E0,0E0,0E0,0E0,0E0,0E0,0E0,0E0,0E0,0E0,0E0,0E0,0E0,0E0,0E0,0E0,0E0,0E0,0E0],"parents":[2147483647,0,0,1,1,2,2,3,3,4,4,5,5,6,6,7,7,8,8,9,9,10,10,11,11,12,12,13,13,14,14,15,15,16,16,17,17,18,18,20,20,21,21,22,22,23,23,25,25,27,27,28,28,29,29,30,30],"right_children":[2,4,6,8,10,12,14,16,18,20,22,24,26,28,30,32,34,36,38,-1,40,42,44,46,-1,48,-1,50,52,54,56,-1,-1,-1,-1,-1,-1,-1,-1,-1,-1,-1,-1,-1,-1,-1,-1,-1,-1,-1,-1,-1,-1,-1,-1,-1,-1],"split_conditions":[1.4E1,6E0,1E0,2E0,1E0,1.8E1,2.2E1,1E0,1E0,7E0,8E0,1.7E1,2.3E1,1.8E1,2.3E1,2E0,1E0,4E0,5E0,-9.049129E-1,8E0,3E0,5E0,1.6E1,-2.5824158E0,2E1,-2.792957E0,2E0,2.1E1,6E0,5E0,1.9721681E-1,1.3433392E0,2.6408968E0,-2.0355096E0,1.0812677E0,7.4123716E-1,-5.1418314E0,-2.682444E0,-3.5741303E0,-5.4275784E0,-3.0077085E-1,-1.4209031E0,1.2156664E0,-5.265743E-1,-4.889305E0,-3.880645E0,-1.3273922E0,2.9410002E-1,3.5966153E0,1.520838E0,5.365559E0,3.0871732E0,-1.2688638E-1,1.5452654E0,-3.1413863E0,-4.391693E-1],"split_indices":[1,1,0,1,0,1,1,1,0,1,1,1,1,1,1,0,0,1,0,0,1,0,0,1,0,1,0,0,1,0,0,0,0,0,0,0,0,0,0,0,0,0,0,0,0,0,0,0,0,0,0,0,0,0,0,0,0],"split_type":[0,0,0,0,0,0,0,0,0,0,0,0,0,0,0,0,0,0,0,0,0,0,0,0,0,0,0,0,0,0,0,0,0,0,0,0,0,0,0,0,0,0,0,0,0,0,0,0,0,0,0,0,0,0,0,0,0],"sum_hessian":[6.343E3,3.693E3,2.65E3,1.585E3,2.108E3,3.73E2,2.277E3,5.23E2,1.062E3,2.99E2,1.809E3,1.48E2,2.25E2,1.826E3,4.51E2,2.57E2,2.66E2,1.56E2,9.06E2,3.5E1,2.64E2,4.51E2,1.358E3,1.1E2,3.8E1,1.86E2,3.9E1,9.08E2,9.18E2,2.21E2,2.3E2,7.1E1,1.86E2,2.8E1,2.38E2,7.7E1,7.9E1,6.08E2,2.98E2,3.9E1,2.25E2,1.53E2,2.98E2,8.97E2,4.61E2,6.9E1,4.1E1,8.2E1,1.04E2,1.55E2,7.53E2,6.9E2,2.28E2,1.82E2,3.9E1,1.48E2,8.2E1],"tree_param":{"num_deleted":"0","num_feature":"3","num_nodes":"57","size_leaf_vector":"1"}},{"base_weights":[1.0633807E-1,-7.1298614E0,5.262737E0,4.140252E0,-8.348072E0,-1.1070296E1,7.965259E0,2.9916115E0,2.2311351E0,-1.2066427E1,-3.6869664E0,-1.7277567E1,-2.8815079E0,9.844727E0,-3.5353909E0,1.6235209E0,1.8922818E0,5.3059573E0,-1.4910512E1,-1.87295E1,-1.2391268E0,-1.8280653E1,-2.1492863E0,-6.157305E-1,-7.230878E0,5.3260746E0,1.8866262E1,1.0449028E0,-7.9002337E0,-1.1555048E0,7.210769E-1,2.0479417E0,8.794091E-1,-3.7013063E0,-1.682502E0,-1.8399098E0,-5.735927E0,6.106084E-1,-1.897392E0,-2.7519908E0,-3.886403E0,-1.0061511E0,9.6353894E-1,-9.446628E-1,-1.9598063E0,8.572194E-1,2.2244198E0,4.5386257E0,2.3964062E0,-5.617714E-1,5.6633025E-1,-2.481399E0,1.177814E-3],"categories":[],"categories_nodes":[],"categories_segments":[],"categories_sizes":[],"default_left":[0,0,0,0,0,0,0,0,0,0,0,0,0,0,0,0,0,0,0,0,0,0,0,0,0,0,0,0,0,0,0,0,0,0,0,0,0,0,0,0,0,0,0,0,0,0,0,0,0,0,0,0,0],"id":13,"left_children":[1,3,5,7,9,11,13,15,-1,17,19,21,23,25,27,-1,29,31,33,35,37,39,-1,41,43,45,47,49,51,-1,-1,-1,-1,-1,-1,-1,-1,-1,-1,-1,-1,-1,-1,-1,-1,-1,-1,-1,-1,-1,-1,-1,-1],"loss_changes":[2.365629E5,3.6252656E4,1.6349588E5,1.976563E3,4.122214E4,2.66868E4,6.870597E4,1.1941503E3,0E0,6.549603E4,3.893416E4,1.8345625E3,2.24242E3,1.1122925E5,8.944795E3,0E0,2.281076E3,8.4057227E2,2.4201438E4,1.3195895E4,3.1022656E4,6.67375E2,0E0,3.4922295E3,4.3586182E2,1.1402441E4,2.1506969E4,1.4427198E3,7.685295E3,0E0,0E0,0E0,0E0,0E0,0E0,0E0,0E0,0E0,0E0,0E0,0E0,0E0,0E0,0E0,0E0,0E0,0E0,0E0,0E0,0E0,0E0,0E0,0E0],"parents":[2147483647,0,0,1,1,2,2,3,3,4,4,5,5,6,6,7,7,9,9,10,10,11,11,12,12,13,13,14,14,16,16,17,17,18,18,19,19,20,20,21,21,23,23,24,24,25,25,26,26,27,27,28,28],"right_children":[2,4,6,8,10,12,14,16,-1,18,20,22,24,26,28,-1,30,32,34,36,38,40,-1,42,44,46,48,50,52,-1,-1,-1,-1,-1,-1,-1,-1,-1,-1,-1,-1,-1,-1,-1,-1,-1,-1,-1,-1,-1,-1,-1,-1],"split_conditions":[1E1,1E0,1E0,6E0,6E0,1.8E1,2.2E1,1E0,2.2311351E0,1E0,1E0,1.7E1,2.2E1,1.8E1,2.3E1,1.6235209E0,2E0,2E0,5E0,8E0,5E0,1.1E1,-2.1492863E0,2E1,2.3E1,6E0,5E0,3E0,5E0,-1.1555048E0,7.210769E-1,2.0479417E0,8.794091E-1,-3.7013063E0,-1.682502E0,-1.8399098E0,-5.735927E0,6.106084E-1,-1.897392E0,-2.7519908E0,-3.886403E0,-1.0061511E0,9.6353894E-1,-9.446628E-1,-1.9598063E0,8.572194E-1,2.2244198E0,4.5386257E0,2.3964062E0,-5.617714E-1,5.6633025E-1,-2.481399E0,1.177814E-3],"split_indices":[1,1,0,0,1,1,1,0,0,0,0,1,1,1,1,0,0,1,0,1,0,1,0,1,1,0,0,0,0,0,0,0,0,0,0,0,0,0,0,0,0,0,0,0,0,0,0,0,0,0,0,0,0],"split_type":[0,0,0,0,0,0,0,0,0,0,0,0,0,0,0,0,0,0,0,0,0,0,0,0,0,0,0,0,0,0,0,0,0,0,0,0,0,0,0,0,0,0,0,0,0,0,0,0,0,0,0,0,0],"sum_hessian":[6.338E3,2.637E3,3.701E3,2.57E2,2.38E3,5.25E2,3.176E3,2.21E2,3.6E1,1.323E3,1.057E3,2.98E2,2.27E2,2.73E3,4.46E2,3.9E1,1.82E2,1.86E2,1.137E3,1.47E2,9.1E2,2.58E2,4E1,1.5E2,7.7E1,1.82E3,9.1E2,2.18E2,2.28E2,3.2E1,1.5E2,3.1E1,1.55E2,7.67E2,3.7E2,7.3E1,7.4E1,5.97E2,3.13E2,3.7E1,2.21E2,8.3E1,6.7E1,3.8E1,3.9E1,1.514E3,3.06E2,6.18E2,2.92E2,6.8E1,1.5E2,1.48E2,8E1],"tree_param":{"num_deleted":"0","num_feature":"3","num_nodes":"53","size_leaf_vector":"1"}},{"base_weights":[1.226899E-1,-3.6527134E1,9.024536E-1,-7.580565E0,-3.7297814E0,4.8827393E1,-1.2526257E0,2.7261941E0,9.5254715E1,-1.7006077E1,2.9120517E-1,-8.520613E0,3.6386433E1,2.7204811E1,1.579792E2,-3.034111E-1,-3.3582016E1,8.537645E1,-1.8533142E0,4.380483E0,-2.605722E0,1.0222396E1,-4.780563E0,2.3794329E1,3.3004825E0,3.7967617E1,1.4044871E1,-1.2704872E0,2.34212E0,-5.432254E0,-8.127766E0,2.168496E0,2.4469664E1,-6.76393E0,-2.6253745E-2],"categories":[],"categories_nodes":[],"categories_segments":[],"categories_sizes":[],"default_left":[0,0,0,0,0,0,0,0,0,0,0,0,0,0,0,0,0,0,0,0,0,0,0,0,0,0,0,0,0,0,0,0,0,0,0],"id":14,"left_children":[1,3,5,-1,-1,7,9,11,13,15,17,19,21,23,25,27,29,31,33,-1,-1,-1,-1,-1,-1,-1,-1,-1,-1,-1,-1,-1,-1,-1,-1],"loss_changes":[1.8107586E5,7.1103125E2,6.4082294E5,0E0,0E0,5.712151E5,1.4442105E5,5.1417008E4,5.633989E5,1.467269E5,9.8712194E5,1.32094E4,2.8909969E4,6.223075E4,1.5871875E5,1.8515275E4,1.04750625E4,3.406773E5,2.844511E5,0E0,0E0,0E0,0E0,0E0,0E0,0E0,0E0,0E0,0E0,0E0,0E0,0E0,0E0,0E0,0E0],"parents":[2147483647,0,0,1,1,2,2,5,5,6,6,7,7,8,8,9,9,10,10,11,11,12,12,13,13,14,14,15,15,16,16,17,17,18,18],"right_children":[2,4,6,-1,-1,8,10,12,14,16,18,20,22,24,26,28,30,32,34,-1,-1,-1,-1,-1,-1,-1,-1,-1,-1,-1,-1,-1,-1,-1,-1],"split_conditions":[1E0,2.3E1,3E0,-7.580565E0,-3.7297814E0,2E0,7E0,1.8E1,1.1E1,5E0,8E0,2E0,2.3E1,1E0,2E1,1.6E1,6E0,8E0,1E1,4.380483E0,-2.605722E0,1.0222396E1,-4.780563E0,2.3794329E1,3.3004825E0,3.7967617E1,1.4044871E1,-1.2704872E0,2.34212E0,-5.432254E0,-8.127766E0,2.168496E0,2.4469664E1,-6.76393E0,-2.6253745E-2],"split_indices":[2,1,2,0,0,2,2,1,1,2,2,1,1,1,1,1,2,1,2,0,0,0,0,0,0,0,0,0,0,0,0,0,0,0,0],"split_type":[0,0,0,0,0,0,0,0,0,0,0,0,0,0,0,0,0,0,0,0,0,0,0,0,0,0,0,0,0,0,0,0,0,0,0],"sum_hessian":[6.334E3,1.31E2,6.203E3,1.26E2,5E0,2.66E2,5.937E3,1.34E2,1.32E2,5.29E2,5.408E3,1.01E2,3.3E1,6.4E1,6.8E1,2.64E2,2.65E2,1.32E2,5.276E3,1.2E1,8.9E1,2.7E1,6E0,6E0,5.8E1,5.1E1,1.7E1,1.76E2,8.8E1,1.27E2,1.38E2,4.2E1,9E1,2.75E2,5.001E3],"tree_param":{"num_deleted":"0","num_feature":"3","num_nodes":"35","size_leaf_vector":"1"}},{"base_weights":[-1.4255735E-1,-3.5346153E0,6.522299E0,-2.9893108E1,-2.935427E0,1.5959529E1,-8.205827E-1,-9.194076E0,-5.8276925E0,2.501086E1,-4.196217E0,6.831259E0,2.0473463E2,-2.6368406E1,6.2045836E0,-9.09634E0,5.883704E1,-1.7256845E1,-2.871004E0,2.4024836E1,-4.025442E0,2.3423447E2,1.9945593E1,2.877639E0,-4.0671806E1,1.0998032E2,1.4112355E-1,3.5543404E0,-2.7482176E0,4.240555E0,2.9730661E1,1.0985821E0,-5.1114473E0,9.707612E0,-8.502155E-1,2.4273531E0,2.2278416E1,-7.5843387E0,6.3370556E-1,3.3604115E1,5.34561E1,-3.2241874E0,5.052488E0,-1.2491628E1,-6.7541437E0,2.8219902E1,4.848827E0,1.3230157E0,-1.9473511E0],"categories":[],"categories_nodes":[],"categories_segments":[],"categories_sizes":[],"default_left":[0,0,0,0,0,0,0,0,0,0,0,0,0,0,0,0,0,0,0,0,0,0,0,0,0,0,0,0,0,0,0,0,0,0,0,0,0,0,0,0,0,0,0,0,0,0,0,0,0],"id":15,"left_children":[1,3,5,7,9,11,13,-1,-1,15,17,19,21,23,25,27,29,31,33,35,37,39,-1,41,43,45,47,-1,-1,-1,-1,-1,-1,-1,-1,-1,-1,-1,-1,-1,-1,-1,-1,-1,-1,-1,-1,-1,-1],"loss_changes":[1.4290295E5,6.607206E4,1.4775316E5,6.408125E2,1.4446028E5,1.6063378E6,2.1553686E5,0E0,0E0,2.0474298E5,6.781557E4,1.664157E5,1.13003875E5,1.08461375E5,5.927286E5,1.0501801E4,2.907574E5,6.3547484E4,2.3170948E5,3.5490162E5,1.29139625E5,2.0054375E4,0E0,3.545352E4,2.509525E4,1.229305E5,5.4651316E4,0E0,0E0,0E0,0E0,0E0,0E0,0E0,0E0,0E0,0E0,0E0,0E0,0E0,0E0,0E0,0E0,0E0,0E0,0E0,0E0,0E0,0E0],"parents":[2147483647,0,0,1,1,2,2,3,3,4,4,5,5,6,6,9,9,10,10,11,11,12,12,13,13,14,14,15,15,16,16,17,17,18,18,19,19,20,20,21,21,23,23,24,24,25,25,26,26],"right_children":[2,4,6,8,10,12,14,-1,-1,16,18,20,22,24,26,28,30,32,34,36,38,40,-1,42,44,46,48,-1,-1,-1,-1,-1,-1,-1,-1,-1,-1,-1,-1,-1,-1,-1,-1,-1,-1,-1,-1,-1,-1],"split_conditions":[1.6E1,1E0,2.1E1,1E0,3E0,2E1,2.7E1,-9.194076E0,-5.8276925E0,2E0,7E0,8E0,2.2E1,2.3E1,2.8E1,2E0,1.1E1,4E0,8E0,7E0,1E1,1.8E1,1.9945593E1,2.2E1,2.4E1,2.2E1,4E1,3.5543404E0,-2.7482176E0,4.240555E0,2.9730661E1,1.0985821E0,-5.1114473E0,9.707612E0,-8.502155E-1,2.4273531E0,2.2278416E1,-7.5843387E0,6.3370556E-1,3.3604115E1,5.34561E1,-3.2241874E0,5.052488E0,-1.2491628E1,-6.7541437E0,2.8219902E1,4.848827E0,1.3230157E0,-1.9473511E0],"split_indices":[1,2,2,1,2,2,2,0,0,2,2,2,1,2,2,1,1,2,2,2,2,1,0,2,2,1,2,0,0,0,0,0,0,0,0,0,0,0,0,0,0,0,0,0,0,0,0,0,0],"split_type":[0,0,0,0,0,0,0,0,0,0,0,0,0,0,0,0,0,0,0,0,0,0,0,0,0,0,0,0,0,0,0,0,0,0,0,0,0,0,0,0,0,0,0,0,0,0,0,0,0],"sum_hessian":[6.319E3,4.188E3,2.131E3,9.2E1,4.096E3,9.32E2,1.199E3,5E0,8.7E1,1.76E2,3.92E3,8.9E2,4.2E1,2.58E2,9.41E2,8.8E1,8.8E1,3.6E2,3.56E3,3.44E2,5.46E2,3.2E1,1E1,8.5E1,1.73E2,5.1E1,8.9E2,1.2E1,7.6E1,6.2E1,2.6E1,9.2E1,2.68E2,8.8E1,3.472E3,3.02E2,4.2E1,9.6E1,4.5E2,1.1E1,2.1E1,4.6E1,3.9E1,4.5E1,1.28E2,3.8E1,1.3E1,5.38E2,3.52E2],"tree_param":{"num_deleted":"0","num_feature":"3","num_nodes":"49","size_leaf_vector":"1"}},{"base_weights":[-2.070769E-2,4.7790027E0,-3.82578E0,1.5480083E-1,9.633705E1,-1.5167115E1,-6.751656E-1,6.190861E0,-1.1041387E1,4.2879E1,1.49953E2,-7.260307E0,-3.0648699E1,3.494569E1,-4.468581E0,-6.3554116E-2,7.928124E1,-2.692925E1,-4.569644E0,3.4094894E1,3.0584295E1,1.6114749E2,1.7410707E1,-1.3716947E1,1.0465972E1,-1.5385278E1,-4.5561646E1,7.928732E0,6.1701855E1,-1.2459102E1,-7.848476E-1,1.1472149E0,-3.5256176E0,2.1975834E0,2.044408E1,-7.3122873E0,-3.7042918E0,2.403162E0,-3.0443873E0,9.805104E-2,7.523473E0,2.5180838E1,4.03091E1,-4.3150786E-1,-7.2677236E0,3.1336394E-1,2.7857118E0,-1.05984125E1,-2.4338372E0,-7.637224E0,-1.0839379E1,7.8894734E0,1.1054186E0,1.814607E1,6.6240697E0,-4.6171838E-1,-6.7996087E0,8.666687E0,-9.1303295E-1],"categories":[],"categories_nodes":[],"categories_segments":[],"categories_sizes":[],"default_left":[0,0,0,0,0,0,0,0,0,0,0,0,0,0,0,0,0,0,0,0,0,0,0,0,0,0,0,0,0,0,0,0,0,0,0,0,0,0,0,0,0,0,0,0,0,0,0,0,0,0,0,0,0,0,0,0,0,0,0],"id":16,"left_children":[1,3,5,7,9,11,13,15,17,19,21,23,25,27,29,31,33,35,37,-1,39,41,-1,43,45,47,49,51,53,55,57,-1,-1,-1,-1,-1,-1,-1,-1,-1,-1,-1,-1,-1,-1,-1,-1,-1,-1,-1,-1,-1,-1,-1,-1,-1,-1,-1,-1],"loss_changes":[1.15971625E5,1.1888444E6,1.2655311E5,1.8077958E5,3.8050775E5,9.403311E4,3.7485697E5,7.9451025E5,9.622133E4,1.0008722E5,3.4822375E4,5.8628633E4,5.848086E4,1.9251712E5,7.378364E4,1.5649708E5,1.9401919E5,2.0478484E4,1.12713984E5,0E0,1.2002941E4,5.2397875E4,0E0,9.503305E4,3.8565225E3,1.5855949E4,6.0459062E3,1.0146153E4,1.0350247E5,1.6790266E5,2.7346728E5,0E0,0E0,0E0,0E0,0E0,0E0,0E0,0E0,0E0,0E0,0E0,0E0,0E0,0E0,0E0,0E0,0E0,0E0,0E0,0E0,0E0,0E0,0E0,0E0,0E0,0E0,0E0,0E0],"parents":[2147483647,0,0,1,1,2,2,3,3,4,4,5,5,6,6,7,7,8,8,9,9,10,10,11,11,12,12,13,13,14,14,15,15,16,16,17,17,18,18,20,20,21,21,23,23,24,24,25,25,26,26,27,27,28,28,29,29,30,30],"right_children":[2,4,6,8,10,12,14,16,18,20,22,24,26,28,30,32,34,36,38,-1,40,42,-1,44,46,48,50,52,54,56,58,-1,-1,-1,-1,-1,-1,-1,-1,-1,-1,-1,-1,-1,-1,-1,-1,-1,-1,-1,-1,-1,-1,-1,-1,-1,-1,-1,-1],"split_conditions":[2.1E1,2E1,2.7E1,1.3E1,1.2E1,2.5E1,2.9E1,1.2E1,1.5E1,1E0,2.2E1,2.4E1,1.2E1,1.2E1,3.5E1,9E0,6E0,1.4E1,1.7E1,3.4094894E1,3E0,1.7E1,1.7410707E1,2.3E1,6E0,1E0,2.6E1,1E0,2.8E1,3.3E1,3.6E1,1.1472149E0,-3.5256176E0,2.1975834E0,2.044408E1,-7.3122873E0,-3.7042918E0,2.403162E0,-3.0443873E0,9.805104E-2,7.523473E0,2.5180838E1,4.03091E1,-4.3150786E-1,-7.2677236E0,3.1336394E-1,2.7857118E0,-1.05984125E1,-2.4338372E0,-7.637224E0,-1.0839379E1,7.8894734E0,1.1054186E0,1.814607E1,6.6240697E0,-4.6171838E-1,-6.7996087E0,8.666687E0,-9.1303295E-1],"split_indices":[2,2,2,2,1,2,2,2,2,1,1,2,1,1,2,2,1,2,2,0,1,1,0,2,1,1,2,1,2,2,2,0,0,0,0,0,0,0,0,0,0,0,0,0,0,0,0,0,0,0,0,0,0,0,0,0,0,0,0],"split_type":[0,0,0,0,0,0,0,0,0,0,0,0,0,0,0,0,0,0,0,0,0,0,0,0,0,0,0,0,0,0,0,0,0,0,0,0,0,0,0,0,0,0,0,0,0,0,0,0,0,0,0,0,0,0,0,0,0,0,0],"sum_hessian":[6.348E3,2.807E3,3.541E3,2.673E3,1.34E2,7.69E2,2.772E3,1.737E3,9.36E2,6.8E1,6.6E1,5.1E2,2.59E2,2.66E2,2.506E3,1.601E3,1.36E2,2.7E2,6.66E2,5E0,6.3E1,5.5E1,1.1E1,3.74E2,1.36E2,1.29E2,1.3E2,1.33E2,1.33E2,7.9E2,1.716E3,1.204E3,3.97E2,3.2E1,1.04E2,1.33E2,1.37E2,2.58E2,4.08E2,1.1E1,5.2E1,2.9E1,2.6E1,2.45E2,1.29E2,3.6E1,1E2,1E1,1.19E2,6.5E1,6.5E1,9E0,1.24E2,6.8E1,6.5E1,5.31E2,2.59E2,1.34E2,1.582E3],"tree_param":{"num_deleted":"0","num_feature":"3","num_nodes":"59","size_leaf_vector":"1"}},{"base_weights":[1.4634725E-1,-3.827433E0,2.9947033E0,5.525066E0,-4.8515134E0,-1.036789E1,5.1949053E0,4.2271852E0,8.827426E0,-8.175408E0,-2.1397514E0,-1.45712595E1,-4.7795196E0,6.7549067E0,-4.2913265E0,5.6375628E0,-2.1163437E-1,1.4772536E0,2.0811124E0,6.8018565E0,-1.0522935E1,-9.282215E0,-9.569217E-1,-1.3296245E0,-1.56196E1,-3.5657868E0,-2.077686E0,3.2415128E0,1.158453E1,-5.778059E0,2.7449918E0,7.513383E-1,1.5318881E0,1.9633906E0,1.2244133E0,-5.3502744E-1,-2.7030897E0,4.8784512E-1,-3.497473E0,2.1860588E-1,-1.0177664E0,-3.3329287E0,-2.3430314E0,-1.1840425E0,-3.4998107E-1,8.820387E-1,2.3138972E-1,1.8962824E0,4.7750764E0,-4.158122E-1,-1.8990313E0,8.635387E-1,2.7361023E-1],"categories":[],"categories_nodes":[],"categories_segments":[],"categories_sizes":[],"default_left":[0,0,0,0,0,0,0,0,0,0,0,0,0,0,0,0,0,0,0,0,0,0,0,0,0,0,0,0,0,0,0,0,0,0,0,0,0,0,0,0,0,0,0,0,0,0,0,0,0,0,0,0,0],"id":17,"left_children":[1,3,5,7,9,11,13,15,17,19,21,23,25,27,29,31,-1,-1,-1,33,35,37,39,-1,41,43,-1,45,47,49,51,-1,-1,-1,-1,-1,-1,-1,-1,-1,-1,-1,-1,-1,-1,-1,-1,-1,-1,-1,-1,-1,-1],"loss_changes":[7.1840195E4,2.5407734E4,1.0874717E5,1.0856348E3,2.1516023E4,1.2215617E4,4.7014336E4,1.4161807E3,8.47334E1,3.779775E4,1.1117553E4,2.4174258E3,1.4421328E3,4.6235195E4,4.7129062E3,5.1937354E2,0E0,0E0,0E0,2.740669E2,1.9823281E4,1.714127E4,9.231078E3,0E0,5.6991797E2,7.583992E2,0E0,3.5791836E3,3.0949219E4,4.864366E3,1.5888153E2,0E0,0E0,0E0,0E0,0E0,0E0,0E0,0E0,0E0,0E0,0E0,0E0,0E0,0E0,0E0,0E0,0E0,0E0,0E0,0E0,0E0,0E0],"parents":[2147483647,0,0,1,1,2,2,3,3,4,4,5,5,6,6,7,7,8,8,9,9,10,10,11,11,12,12,13,13,14,14,15,15,19,19,20,20,21,21,22,22,24,24,25,25,27,27,28,28,29,29,30,30],"right_children":[2,4,6,8,10,12,14,16,18,20,22,24,26,28,30,32,-1,-1,-1,34,36,38,40,-1,42,44,-1,46,48,50,52,-1,-1,-1,-1,-1,-1,-1,-1,-1,-1,-1,-1,-1,-1,-1,-1,-1,-1,-1,-1,-1,-1],"split_conditions":[1E1,1E0,1E0,5E0,5E0,1.8E1,2.2E1,4E0,6E0,1E0,1E0,1.1E1,2.3E1,1.7E1,6E0,2E0,-2.1163437E-1,1.4772536E0,2.0811124E0,2E0,2E0,7E0,5E0,-1.3296245E0,1.7E1,2E1,-2.077686E0,5E0,6E0,2.3E1,2.3E1,7.513383E-1,1.5318881E0,1.9633906E0,1.2244133E0,-5.3502744E-1,-2.7030897E0,4.8784512E-1,-3.497473E0,2.1860588E-1,-1.0177664E0,-3.3329287E0,-2.3430314E0,-1.1840425E0,-3.4998107E-1,8.820387E-1,2.3138972E-1,1.8962824E0,4.7750764E0,-4.158122E-1,-1.8990313E0,8.635387E-1,2.7361023E-1],"split_indices":[1,1,0,0,1,1,1,0,0,0,0,1,1,1,0,0,0,0,0,1,1,1,0,0,1,1,0,0,0,1,1,0,0,0,0,0,0,0,0,0,0,0,0,0,0,0,0,0,0,0,0,0,0],"split_type":[0,0,0,0,0,0,0,0,0,0,0,0,0,0,0,0,0,0,0,0,0,0,0,0,0,0,0,0,0,0,0,0,0,0,0,0,0,0,0,0,0,0,0,0,0,0,0,0,0,0,0,0,0],"sum_hessian":[6.345E3,2.649E3,3.696E3,2.61E2,2.388E3,5.22E2,3.174E3,1.89E2,7.2E1,1.072E3,1.316E3,2.97E2,2.25E2,2.726E3,4.48E2,1.49E2,4E1,3.6E1,3.6E1,1.45E2,9.27E2,1.86E2,1.13E3,3.5E1,2.62E2,1.85E2,4E1,1.579E3,1.147E3,3.7E2,7.8E1,7.4E1,7.5E1,3E1,1.15E2,2.37E2,6.9E2,7.5E1,1.11E2,7.52E2,3.78E2,2.22E2,4E1,8.3E1,1.02E2,1.045E3,5.34E2,9.61E2,1.86E2,1.8E2,1.9E2,3.7E1,4.1E1],"tree_param":{"num_deleted":"0","num_feature":"3","num_nodes":"53","size_leaf_vector":"1"}},{"base_weights":[1.22466214E-1,-2.7378487E1,7.1162605E-1,-4.118582E0,-5.7888584E0,3.337135E1,-7.5603765E-1,1.1658397E0,6.581024E1,-1.3251607E1,4.726445E-1,-6.4553577E-1,2.8147936E0,-2.5168347E0,7.974735E1,-9.429609E-1,-2.5649591E1,5.340853E1,-8.714028E-1,-1.9941798E0,2.64472E-1,1.3916096E1,1.7224136E1,-5.9818683E0,9.096803E-1,-4.0629663E0,-6.262919E0,3.7729347E0,1.2131421E1,-4.6356835E0,6.885172E-2],"categories":[],"categories_nodes":[],"categories_segments":[],"categories_sizes":[],"default_left":[0,0,0,0,0,0,0,0,0,0,0,0,0,0,0,0,0,0,0,0,0,0,0,0,0,0,0,0,0,0,0],"id":18,"left_children":[1,3,5,-1,-1,7,9,11,13,15,17,19,-1,-1,21,23,25,27,29,-1,-1,-1,-1,-1,-1,-1,-1,-1,-1,-1,-1],"loss_changes":[1.02743055E5,3.4578125E2,2.975963E5,0E0,0E0,2.7886116E5,9.123428E4,3.0927454E3,1.4580475E5,8.116028E4,3.8503016E5,2.1168801E3,0E0,0E0,2.475625E2,4.1101543E4,7.0332812E3,2.6848062E4,1.3915927E5,0E0,0E0,0E0,0E0,0E0,0E0,0E0,0E0,0E0,0E0,0E0,0E0],"parents":[2147483647,0,0,1,1,2,2,5,5,6,6,7,7,8,8,9,9,10,10,11,11,14,14,15,15,16,16,17,17,18,18],"right_children":[2,4,6,-1,-1,8,10,12,14,16,18,20,-1,-1,22,24,26,28,30,-1,-1,-1,-1,-1,-1,-1,-1,-1,-1,-1,-1],"split_conditions":[1E0,1E0,3E0,-4.118582E0,-5.7888584E0,2E0,7E0,6E0,1E0,5E0,8E0,1E0,2.8147936E0,-2.5168347E0,3E0,1E0,6E0,1E0,1E1,-1.9941798E0,2.64472E-1,1.3916096E1,1.7224136E1,-5.9818683E0,9.096803E-1,-4.0629663E0,-6.262919E0,3.7729347E0,1.2131421E1,-4.6356835E0,6.885172E-2],"split_indices":[2,0,2,0,0,2,2,0,0,2,2,0,0,0,0,0,2,0,2,0,0,0,0,0,0,0,0,0,0,0,0],"split_type":[0,0,0,0,0,0,0,0,0,0,0,0,0,0,0,0,0,0,0,0,0,0,0,0,0,0,0,0,0,0,0],"sum_hessian":[6.339E3,1.32E2,6.207E3,1.8E1,1.14E2,2.66E2,5.941E3,1.34E2,1.32E2,5.31E2,5.41E3,1.18E2,1.6E1,2E1,1.12E2,2.67E2,2.64E2,1.33E2,5.277E3,2E1,9.8E1,3.6E1,7.6E1,4.2E1,2.25E2,1.25E2,1.39E2,2E1,1.13E2,2.76E2,5.001E3],"tree_param":{"num_deleted":"0","num_feature":"3","num_nodes":"31","size_leaf_vector":"1"}},{"base_weights":[-8.3912276E-2,-3.949316E0,1.8355623E0,1.6859412E0,-5.8038507E0,-8.783864E0,3.5791557E0,-7.561542E-2,6.2983193E0,-9.199665E0,-2.3399937E0,-1.2005833E1,-3.4035163E0,5.50748E0,-2.7091128E-1,8.908695E0,-2.1106515E0,1.0502693E1,2.1792808E0,1.4943494E0,-1.0984186E1,-4.7907414E0,-1.3388114E0,-3.5240448E0,-1.0628543E1,-2.520625E0,-1.4923576E0,6.920213E0,-4.6237574E0,-9.409533E0,9.035145E0,1.548219E0,2.1311402E0,3.3620775E-1,-1.0943669E0,1.1256324E0,3.2229462E0,1.9029171E0,-8.413312E-1,-1.5345958E-1,1.1693525E0,-1.8788018E0,-3.945965E0,-1.3518947E-1,-1.843819E0,1.2506444E0,-6.6769665E-1,-1.5843371E0,-2.4969897E0,-7.6156485E-1,-3.156336E-1,8.0918837E-1,2.4691124E0,-1.9753678E-1,-1.6755881E0,-4.6996255E0,-1.5147647E0,1.1850684E0,2.4942856E0],"categories":[],"categories_nodes":[],"categories_segments":[],"categories_sizes":[],"default_left":[0,0,0,0,0,0,0,0,0,0,0,0,0,0,0,0,0,0,0,0,0,0,0,0,0,0,0,0,0,0,0,0,0,0,0,0,0,0,0,0,0,0,0,0,0,0,0,0,0,0,0,0,0,0,0,0,0,0,0],"id":19,"left_children":[1,3,5,7,9,11,13,15,17,19,21,23,25,27,29,31,33,35,37,39,41,43,45,-1,47,49,-1,51,53,55,57,-1,-1,-1,-1,-1,-1,-1,-1,-1,-1,-1,-1,-1,-1,-1,-1,-1,-1,-1,-1,-1,-1,-1,-1,-1,-1,-1,-1],"loss_changes":[4.6980383E4,2.1966875E4,7.837248E4,4.233583E3,1.8575172E4,1.030832E4,2.6988379E4,6.9299277E3,2.4709014E3,1.5245195E4,1.9172437E3,2.509879E3,7.564778E2,3.4697438E4,1.0332907E5,6.2771484E1,3.775972E3,1.7821133E3,3.3629324E3,1.0963396E3,1.0011578E4,3.9623145E3,8.0506953E3,0E0,1.2694805E3,2.12094E2,0E0,3.2450148E4,3.877439E3,1.6457156E4,6.108336E3,0E0,0E0,0E0,0E0,0E0,0E0,0E0,0E0,0E0,0E0,0E0,0E0,0E0,0E0,0E0,0E0,0E0,0E0,0E0,0E0,0E0,0E0,0E0,0E0,0E0,0E0,0E0,0E0],"parents":[2147483647,0,0,1,1,2,2,3,3,4,4,5,5,6,6,7,7,8,8,9,9,10,10,11,11,12,12,13,13,14,14,15,15,16,16,17,17,18,18,19,19,20,20,21,21,22,22,24,24,25,25,27,27,28,28,29,29,30,30],"right_children":[2,4,6,8,10,12,14,16,18,20,22,24,26,28,30,32,34,36,38,40,42,44,46,-1,48,50,-1,52,54,56,58,-1,-1,-1,-1,-1,-1,-1,-1,-1,-1,-1,-1,-1,-1,-1,-1,-1,-1,-1,-1,-1,-1,-1,-1,-1,-1,-1,-1],"split_conditions":[8E0,2E0,1E0,5E0,5E0,1.8E1,5E0,1E0,6E0,1E0,2E0,1E1,2.3E1,2.2E1,6E0,1E0,1E0,1E0,1E0,4E0,6E0,1E0,3E0,-3.5240448E0,1.3E1,2E1,-1.4923576E0,1.7E1,2.3E1,1E1,1.6E1,1.548219E0,2.1311402E0,3.3620775E-1,-1.0943669E0,1.1256324E0,3.2229462E0,1.9029171E0,-8.413312E-1,-1.5345958E-1,1.1693525E0,-1.8788018E0,-3.945965E0,-1.3518947E-1,-1.843819E0,1.2506444E0,-6.6769665E-1,-1.5843371E0,-2.4969897E0,-7.6156485E-1,-3.156336E-1,8.0918837E-1,2.4691124E0,-1.9753678E-1,-1.6755881E0,-4.6996255E0,-1.5147647E0,1.1850684E0,2.4942856E0],"split_indices":[1,1,0,0,1,1,0,0,0,0,0,1,1,1,0,1,1,1,1,1,0,0,0,0,1,1,0,1,1,1,1,0,0,0,0,0,0,0,0,0,0,0,0,0,0,0,0,0,0,0,0,0,0,0,0,0,0,0,0],"split_type":[0,0,0,0,0,0,0,0,0,0,0,0,0,0,0,0,0,0,0,0,0,0,0,0,0,0,0,0,0,0,0,0,0,0,0,0,0,0,0,0,0,0,0,0,0,0,0,0,0,0,0,0,0,0,0,0,0,0,0],"sum_hessian":[6.33E3,2.1E3,4.23E3,5.2E2,1.58E3,5.96E2,3.634E3,3.77E2,1.43E2,7.97E2,7.83E2,3.72E2,2.24E2,2.421E3,1.213E3,6.9E1,3.08E2,7E1,7.3E1,1.14E2,6.83E2,2.26E2,5.57E2,7.5E1,2.97E2,1.84E2,4E1,2.125E3,2.96E2,6.12E2,6.01E2,4E1,2.9E1,1.43E2,1.65E2,3.7E1,3.3E1,3.4E1,3.9E1,7.5E1,3.9E1,5.64E2,1.19E2,1.15E2,1.11E2,1.14E2,4.43E2,1.08E2,1.89E2,8.1E1,1.03E2,1.352E3,7.73E2,1.47E2,1.49E2,7.7E1,5.35E2,2.99E2,3.02E2],"tree_param":{"num_deleted":"0","num_feature":"3","num_nodes":"59","size_leaf_vector":"1"}},{"base_weights":[-4.0780008E-2,3.7465763E0,-3.0325875E0,1.8322422E-1,7.629068E1,-1.2195447E1,-4.998261E-1,4.871471E0,-8.554617E0,3.234266E1,1.1778815E2,-5.986951E0,-2.4492514E1,2.9082994E1,-3.6334503E0,-8.922637E-2,6.2807274E1,-1.3762365E1,4.3995132E0,3.054592E1,2.2208923E1,1.2477598E2,8.186253E0,-1.125673E1,8.773744E0,-1.1578078E1,-3.741739E1,7.5118814E0,5.0597626E1,-1.8457846E1,-1.9129702E0,8.0789E-1,-2.5006752E0,1.9203348E0,1.6276318E1,-1.262548E0,-8.884825E0,5.59638E0,-3.9113445E0,3.4497902E0,1.04391775E1,2.099669E1,3.0738907E1,-3.8199422E-1,-5.815572E0,5.430877E0,1.6108772E0,-9.028527E0,-1.7350626E0,-8.181083E0,-2.2719254E0,7.7359474E-1,4.9912724E0,1.3533378E1,6.347497E-1,-4.7902555E0,-2.6240883E0,8.125024E0,-9.1236717E-1],"categories":[],"categories_nodes":[],"categories_segments":[],"categories_sizes":[],"default_left":[0,0,0,0,0,0,0,0,0,0,0,0,0,0,0,0,0,0,0,0,0,0,0,0,0,0,0,0,0,0,0,0,0,0,0,0,0,0,0,0,0,0,0,0,0,0,0,0,0,0,0,0,0,0,0,0,0,0,0],"id":20,"left_children":[1,3,5,7,9,11,13,15,17,19,21,23,25,27,29,31,33,35,37,-1,39,41,-1,43,45,47,49,51,53,55,57,-1,-1,-1,-1,-1,-1,-1,-1,-1,-1,-1,-1,-1,-1,-1,-1,-1,-1,-1,-1,-1,-1,-1,-1,-1,-1,-1,-1],"loss_changes":[7.1838836E4,7.232695E5,8.219429E4,1.0933671E5,2.3509925E5,5.8410977E4,2.5744486E5,4.992229E5,6.2934977E4,7.385412E4,3.1388312E4,3.9847203E4,4.246458E4,1.2306909E5,6.4007938E4,7.870286E4,1.22589E5,1.496181E5,1.4559392E5,0E0,8.518275E3,1.9006938E4,0E0,6.0842324E4,1.9284824E3,1.2707402E4,8.389281E3,8.353224E3,9.858669E4,7.007828E3,2.3966747E5,0E0,0E0,0E0,0E0,0E0,0E0,0E0,0E0,0E0,0E0,0E0,0E0,0E0,0E0,0E0,0E0,0E0,0E0,0E0,0E0,0E0,0E0,0E0,0E0,0E0,0E0,0E0,0E0],"parents":[2147483647,0,0,1,1,2,2,3,3,4,4,5,5,6,6,7,7,8,8,9,9,10,10,11,11,12,12,13,13,14,14,15,15,16,16,17,17,18,18,20,20,21,21,23,23,24,24,25,25,26,26,27,27,28,28,29,29,30,30],"right_children":[2,4,6,8,10,12,14,16,18,20,22,24,26,28,30,32,34,36,38,-1,40,42,-1,44,46,48,50,52,54,56,58,-1,-1,-1,-1,-1,-1,-1,-1,-1,-1,-1,-1,-1,-1,-1,-1,-1,-1,-1,-1,-1,-1,-1,-1,-1,-1,-1,-1],"split_conditions":[2.1E1,2E1,2.7E1,1.3E1,1.2E1,2.5E1,2.9E1,1.2E1,1.8E1,1E0,2.3E1,2.4E1,1.2E1,1.2E1,3.1E1,9E0,6E0,1.7E1,1.9E1,3.054592E1,1E1,1.8E1,8.186253E0,2.3E1,1E0,1E0,2.3E1,1E1,2.1E1,3E1,3.2E1,8.0789E-1,-2.5006752E0,1.9203348E0,1.6276318E1,-1.262548E0,-8.884825E0,5.59638E0,-3.9113445E0,3.4497902E0,1.04391775E1,2.099669E1,3.0738907E1,-3.8199422E-1,-5.815572E0,5.430877E0,1.6108772E0,-9.028527E0,-1.7350626E0,-8.181083E0,-2.2719254E0,7.7359474E-1,4.9912724E0,1.3533378E1,6.347497E-1,-4.7902555E0,-2.6240883E0,8.125024E0,-9.1236717E-1],"split_indices":[2,2,2,2,1,2,2,2,2,1,1,2,1,1,2,2,1,2,2,0,1,1,0,2,1,1,1,1,1,2,2,0,0,0,0,0,0,0,0,0,0,0,0,0,0,0,0,0,0,0,0,0,0,0,0,0,0,0,0],"split_type":[0,0,0,0,0,0,0,0,0,0,0,0,0,0,0,0,0,0,0,0,0,0,0,0,0,0,0,0,0,0,0,0,0,0,0,0,0,0,0,0,0,0,0,0,0,0,0,0,0,0,0,0,0,0,0,0,0,0,0],"sum_hessian":[6.338E3,2.797E3,3.541E3,2.667E3,1.3E2,7.66E2,2.775E3,1.736E3,9.31E2,6.4E1,6.6E1,5.1E2,2.56E2,2.65E2,2.51E3,1.6E3,1.36E2,6.64E2,2.67E2,4E0,6E1,6E1,6E0,3.76E2,1.34E2,1.29E2,1.27E2,1.33E2,1.32E2,2.6E2,2.25E3,1.201E3,3.99E2,3.3E1,1.03E2,5.3E2,1.34E2,1.35E2,1.32E2,5.2E1,8E0,3.5E1,2.5E1,2.44E2,1.32E2,5E0,1.29E2,1E1,1.19E2,1.15E2,1.2E1,1.1E2,2.3E1,9.9E1,3.3E1,1.36E2,1.24E2,1.29E2,2.121E3],"tree_param":{"num_deleted":"0","num_feature":"3","num_nodes":"59","size_leaf_vector":"1"}},{"base_weights":[-4.812171E-2,-2.2400887E1,4.3734664E-1,-3.2478898E0,-4.7534714E0,2.4544613E1,-6.2759256E-1,3.7797856E-1,4.9645008E1,-1.0983223E1,3.968114E-1,-1.1352187E0,2.0996869E0,-1.9548699E0,6.0597565E1,-1.1034967E0,-2.0932821E1,4.1373688E1,-6.499767E-1,-1.5665994E0,5.6425612E-2,8.831437E0,1.3805843E1,-4.518899E0,6.0774356E-1,-3.393937E0,-5.0535197E0,3.095406E0,9.358039E0,-3.4334452E0,5.0450813E-2],"categories":[],"categories_nodes":[],"categories_segments":[],"categories_sizes":[],"default_left":[0,0,0,0,0,0,0,0,0,0,0,0,0,0,0,0,0,0,0,0,0,0,0,0,0,0,0,0,0,0,0],"id":21,"left_children":[1,3,5,-1,-1,7,9,11,13,15,17,19,-1,-1,21,23,25,27,29,-1,-1,-1,-1,-1,-1,-1,-1,-1,-1,-1,-1],"loss_changes":[6.89172E4,3.894922E2,1.5959734E5,0E0,0E0,1.5951494E5,6.316647E4,2.0338201E3,8.424075E4,5.266533E4,2.3247006E5,1.0900569E3,0E0,0E0,1.02861875E4,2.3203943E4,3.9751875E3,1.4984844E4,7.6580664E4,0E0,0E0,0E0,0E0,0E0,0E0,0E0,0E0,0E0,0E0,0E0,0E0],"parents":[2147483647,0,0,1,1,2,2,5,5,6,6,7,7,8,8,9,9,10,10,11,11,14,14,15,15,16,16,17,17,18,18],"right_children":[2,4,6,-1,-1,8,10,12,14,16,18,20,-1,-1,22,24,26,28,30,-1,-1,-1,-1,-1,-1,-1,-1,-1,-1,-1,-1],"split_conditions":[1E0,1E0,3E0,-3.2478898E0,-4.7534714E0,2E0,7E0,6E0,1E0,5E0,8E0,1E0,2.0996869E0,-1.9548699E0,3E0,1E0,6E0,1E0,1E1,-1.5665994E0,5.6425612E-2,8.831437E0,1.3805843E1,-4.518899E0,6.0774356E-1,-3.393937E0,-5.0535197E0,3.095406E0,9.358039E0,-3.4334452E0,5.0450813E-2],"split_indices":[2,0,2,0,0,2,2,0,0,2,2,0,0,0,0,0,2,0,2,0,0,0,0,0,0,0,0,0,0,0,0],"split_type":[0,0,0,0,0,0,0,0,0,0,0,0,0,0,0,0,0,0,0,0,0,0,0,0,0,0,0,0,0,0,0],"sum_hessian":[6.349E3,1.34E2,6.215E3,1.8E1,1.16E2,2.62E2,5.953E3,1.34E2,1.28E2,5.35E2,5.418E3,1.17E2,1.7E1,2E1,1.08E2,2.69E2,2.66E2,1.34E2,5.284E3,2E1,9.7E1,3.3E1,7.5E1,4.3E1,2.26E2,1.27E2,1.39E2,2E1,1.14E2,2.77E2,5.007E3],"tree_param":{"num_deleted":"0","num_feature":"3","num_nodes":"31","size_leaf_vector":"1"}},{"base_weights":[1.4422314E-1,1.472117E0,-6.443014E0,1.9010742E-1,5.1498188E1,-1.2040367E1,1.0500091E1,9.350213E-1,-2.9055067E1,4.2027912E1,7.467787E1,-8.713811E0,-1.6195099E1,2.89659E1,9.586351E0,-1.813662E1,1.4692572E0,-1.868652E1,-3.322527E1,2.4176798E1,4.732105E1,8.29051E1,5.6338673E0,-2.6114944E1,-7.21804E0,-1.8481028E1,-5.3066545E0,2.75942E0,9.788372E0,-1.5000159E0,1.265796E1,-3.0492802E0,-4.9794707E0,4.301738E0,7.175961E-2,-7.724032E0,-3.0162838E0,-7.2045536E0,-5.174403E0,1.5765168E1,1.2610544E0,1.3930345E1,7.158257E0,1.1717344E1,1.8866892E1,-3.538089E0,-6.8367186E0,-3.3377844E-1,-2.08427E0,-2.4848144E0,-5.6696095E0,-2.203212E0,9.576534E-1,1.1221966E0,-1.7752198E0,1.2263472E0,3.8416948E0],"categories":[],"categories_nodes":[],"categories_segments":[],"categories_sizes":[],"default_left":[0,0,0,0,0,0,0,0,0,0,0,0,0,0,0,0,0,0,0,0,0,0,0,0,0,0,0,0,0,0,0,0,0,0,0,0,0,0,0,0,0,0,0,0,0,0,0,0,0,0,0,0,0,0,0,0,0],"id":22,"left_children":[1,3,5,7,9,11,13,15,17,19,21,23,25,27,29,31,33,35,37,39,41,43,-1,45,47,49,51,-1,-1,53,55,-1,-1,-1,-1,-1,-1,-1,-1,-1,-1,-1,-1,-1,-1,-1,-1,-1,-1,-1,-1,-1,-1,-1,-1,-1,-1],"loss_changes":[5.552766E4,3.3880962E5,1.0112734E5,1.12264195E5,2.5837812E4,1.0929461E4,4.1936504E3,5.122515E4,4.9137188E3,7.926797E3,1.2052453E4,1.144607E4,8.737945E3,2.8672412E3,8.668447E3,2.3800625E3,1.07047734E5,2.3672773E3,5.5521875E2,2.2419207E4,1.6319359E4,2.1810469E3,0E0,1.6829043E3,6.8639336E3,1.6823656E4,3.498853E3,0E0,0E0,2.8627075E3,8.0261113E3,0E0,0E0,0E0,0E0,0E0,0E0,0E0,0E0,0E0,0E0,0E0,0E0,0E0,0E0,0E0,0E0,0E0,0E0,0E0,0E0,0E0,0E0,0E0,0E0,0E0,0E0],"parents":[2147483647,0,0,1,1,2,2,3,3,4,4,5,5,6,6,7,7,8,8,9,9,10,10,11,11,12,12,13,13,14,14,15,15,16,16,17,17,18,18,19,19,20,20,21,21,23,23,24,24,25,25,26,26,29,29,30,30],"right_children":[2,4,6,8,10,12,14,16,18,20,22,24,26,28,30,32,34,36,38,40,42,44,-1,46,48,50,52,-1,-1,54,56,-1,-1,-1,-1,-1,-1,-1,-1,-1,-1,-1,-1,-1,-1,-1,-1,-1,-1,-1,-1,-1,-1,-1,-1,-1,-1],"split_conditions":[4E1,3.9E1,4.6E1,3.8E1,1.7E1,1.3E1,1E0,1E0,8E0,5E0,2.3E1,1E0,4.5E1,4.7E1,6E0,1.6E1,3E0,1E0,2E1,1E0,9E0,1.9E1,5.6338673E0,4.3E1,5E0,4.3E1,2E1,2.75942E0,9.788372E0,4.7E1,4.7E1,-3.0492802E0,-4.9794707E0,4.301738E0,7.175961E-2,-7.724032E0,-3.0162838E0,-7.2045536E0,-5.174403E0,1.5765168E1,1.2610544E0,1.3930345E1,7.158257E0,1.1717344E1,1.8866892E1,-3.538089E0,-6.8367186E0,-3.3377844E-1,-2.08427E0,-2.4848144E0,-5.6696095E0,-2.203212E0,9.576534E-1,1.1221966E0,-1.7752198E0,1.2263472E0,3.8416948E0],"split_indices":[2,2,2,2,1,1,1,2,1,1,1,1,2,2,1,1,2,1,1,1,1,1,0,2,1,2,1,0,0,2,2,0,0,0,0,0,0,0,0,0,0,0,0,0,0,0,0,0,0,0,0,0,0,0,0,0,0],"split_type":[0,0,0,0,0,0,0,0,0,0,0,0,0,0,0,0,0,0,0,0,0,0,0,0,0,0,0,0,0,0,0,0,0,0,0,0,0,0,0,0,0,0,0,0,0,0,0,0,0,0,0,0,0,0,0,0,0],"sum_hessian":[6.346E3,5.282E3,1.064E3,5.151E3,1.31E2,8E2,2.64E2,5.024E3,1.27E2,9.5E1,3.6E1,4.46E2,3.54E2,1.1E1,2.53E2,1.36E2,4.888E3,3.8E1,8.9E1,2.3E1,7.2E1,3E1,6E0,3.4E1,4.12E2,2.92E2,6.2E1,7E0,4E0,5.5E1,1.98E2,9.2E1,4.4E1,2.63E2,4.625E3,5E0,3.3E1,6.8E1,2.1E1,5E0,1.8E1,2.5E1,4.7E1,1E1,2E1,1.7E1,1.7E1,1.44E2,2.68E2,1.75E2,1.17E2,4E1,2.2E1,2.8E1,2.7E1,9.6E1,1.02E2],"tree_param":{"num_deleted":"0","num_feature":"3","num_nodes":"57","size_leaf_vector":"1"}},{"base_weights":[8.0408104E-2,2.9749806E0,-2.2039444E0,-1.2993556E-1,6.379576E1,-1.0010663E1,-3.2900114E-2,3.6042726E0,-6.997718E0,5.3321896E1,8.9404106E1,-6.8017125E0,-2.5376959E1,3.1922205E1,-1.7670736E0,-2.21455E-1,4.872116E1,-2.0148457E1,-1.6601274E0,7.348439E1,3.955699E1,2.1316713E1,1.4094146E1,-1.4629828E1,-4.8542953E0,-2.6302168E0,-5.536545E0,-1.3275605E0,3.8588726E1,-6.6509027E0,8.0453473E-1,5.259554E-1,-1.7616072E0,8.24811E0,1.4250667E1,-5.5272584E0,-2.6756446E0,2.1703887E0,-1.9804144E0,1.7155764E1,1.1856155E1,6.576893E0,1.0838613E1,-2.6209185E0,-3.7525349E0,2.2850542E0,-2.017459E0,6.7595963E0,1.2430817E1,8.6779076E-1,-4.207139E0,7.1544647E0,-4.4719452E-1],"categories":[],"categories_nodes":[],"categories_segments":[],"categories_sizes":[],"default_left":[0,0,0,0,0,0,0,0,0,0,0,0,0,0,0,0,0,0,0,0,0,0,0,0,0,0,0,0,0,0,0,0,0,0,0,0,0,0,0,0,0,0,0,0,0,0,0,0,0,0,0,0,0],"id":23,"left_children":[1,3,5,7,9,11,13,15,17,19,21,23,25,27,29,31,33,35,37,39,41,-1,-1,43,45,-1,-1,-1,47,49,51,-1,-1,-1,-1,-1,-1,-1,-1,-1,-1,-1,-1,-1,-1,-1,-1,-1,-1,-1,-1,-1,-1],"loss_changes":[4.1974344E4,5.287699E5,6.0133773E4,6.8371086E4,3.17105E4,3.789447E4,1.5394581E5,2.980995E5,6.587803E4,2.4569125E4,4.3880312E3,9.685533E3,2.5138125E3,3.6876906E4,3.3099098E4,3.7435234E4,2.0891375E4,1.2841984E4,6.611217E4,1.4463906E3,4.35525E3,0E0,0E0,6.1950586E2,4.149459E4,0E0,0E0,0E0,1.2930391E4,1.3819198E5,1.7693731E5,0E0,0E0,0E0,0E0,0E0,0E0,0E0,0E0,0E0,0E0,0E0,0E0,0E0,0E0,0E0,0E0,0E0,0E0,0E0,0E0,0E0,0E0],"parents":[2147483647,0,0,1,1,2,2,3,3,4,4,5,5,6,6,7,7,8,8,9,9,10,10,11,11,12,12,13,13,14,14,15,15,16,16,17,17,18,18,19,19,20,20,23,23,24,24,28,28,29,29,30,30],"right_children":[2,4,6,8,10,12,14,16,18,20,22,24,26,28,30,32,34,36,38,40,42,-1,-1,44,46,-1,-1,-1,48,50,52,-1,-1,-1,-1,-1,-1,-1,-1,-1,-1,-1,-1,-1,-1,-1,-1,-1,-1,-1,-1,-1,-1],"split_conditions":[2.1E1,2E1,2.7E1,1.3E1,5E0,2.6E1,2.8E1,1.2E1,1.5E1,2E0,6E0,2.2E1,1E0,1E0,3.5E1,9E0,5E0,1.4E1,1.7E1,1E0,4E0,2.1316713E1,1.4094146E1,5E0,2.3E1,-2.6302168E0,-5.536545E0,-1.3275605E0,6E0,3.2E1,3.6E1,5.259554E-1,-1.7616072E0,8.24811E0,1.4250667E1,-5.5272584E0,-2.6756446E0,2.1703887E0,-1.9804144E0,1.7155764E1,1.1856155E1,6.576893E0,1.0838613E1,-2.6209185E0,-3.7525349E0,2.2850542E0,-2.017459E0,6.7595963E0,1.2430817E1,8.6779076E-1,-4.207139E0,7.1544647E0,-4.4719452E-1],"split_indices":[2,2,2,2,0,2,2,2,2,0,0,2,0,0,2,2,0,2,2,0,0,0,0,0,2,0,0,0,0,2,2,0,0,0,0,0,0,0,0,0,0,0,0,0,0,0,0,0,0,0,0,0,0],"split_type":[0,0,0,0,0,0,0,0,0,0,0,0,0,0,0,0,0,0,0,0,0,0,0,0,0,0,0,0,0,0,0,0,0,0,0,0,0,0,0,0,0,0,0,0,0,0,0,0,0,0,0,0,0],"sum_hessian":[6.346E3,2.799E3,3.547E3,2.664E3,1.35E2,7.71E2,2.776E3,1.726E3,9.38E2,9.8E1,3.7E1,6.39E2,1.32E2,1.42E2,2.634E3,1.592E3,1.34E2,2.7E2,6.68E2,3.8E1,6E1,1.9E1,1.8E1,1.26E2,5.13E2,1.7E1,1.15E2,2.1E1,1.21E2,9.08E2,1.726E3,1.195E3,3.97E2,9.8E1,3.6E1,1.35E2,1.35E2,2.64E2,4.04E2,2E1,1.8E1,4.1E1,1.9E1,8.8E1,3.8E1,1.22E2,3.91E2,9.9E1,2.2E1,5.1E2,3.98E2,1.38E2,1.588E3],"tree_param":{"num_deleted":"0","num_feature":"3","num_nodes":"53","size_leaf_vector":"1"}},{"base_weights":[8.858346E-2,-1.240171E0,3.2823966E0,4.31917E0,-1.5824769E0,6.801763E0,-1.548595E0,3.7892687E0,1.5346085E0,-4.4652576E0,-2.6397404E-1,5.021618E0,1.7531256E1,-7.4649274E-2,-4.3651924E0,1.2648844E0,3.2365277E0,5.6020217E0,-6.084814E0,-9.12799E0,1.1601983E0,8.948144E0,-1.4874805E1,2.4741073E0,1.9279873E1,-1.3033812E0,3.148072E0,-5.6967487E0,-1.2428833E0,2.0208145E-2,8.0030733E-1,1.3001356E0,5.126286E-1,-1.7889954E0,-1.01060584E-1,-8.0321306E-1,-2.102782E0,5.047907E-1,-2.8111112E-1,8.111154E-1,3.3895662E0,-3.9972801E0,-3.4200136E-2,5.346914E0,3.0752008E0,3.8275334E-1,-6.725573E-1,1.1237916E0,1.7987737E-1,-6.232958E-1,-1.5141233E0,-1.6267744E-1,-3.4122854E-1],"categories":[],"categories_nodes":[],"categories_segments":[],"categories_sizes":[],"default_left":[0,0,0,0,0,0,0,0,0,0,0,0,0,0,0,0,0,0,0,0,0,0,0,0,0,0,0,0,0,0,0,0,0,0,0,0,0,0,0,0,0,0,0,0,0,0,0,0,0,0,0,0,0],"id":24,"left_children":[1,3,5,7,9,11,13,15,-1,17,19,21,23,25,27,-1,29,31,33,35,37,39,41,-1,43,45,47,49,51,-1,-1,-1,-1,-1,-1,-1,-1,-1,-1,-1,-1,-1,-1,-1,-1,-1,-1,-1,-1,-1,-1,-1,-1],"loss_changes":[2.6909719E4,8.528447E3,3.168531E4,4.1130176E2,1.603505E4,2.0501816E4,3.2627625E3,2.7864868E2,0E0,2.1621283E4,3.6569363E4,7.247576E4,1.217082E3,2.0513508E3,1.1154526E3,0E0,3.946405E2,4.17375E2,1.7034578E4,2.3851445E3,8.298818E3,2.9379379E4,1.0549684E4,0E0,2.9275469E3,2.3749382E3,7.5794666E2,8.3460254E2,1.4318748E1,0E0,0E0,0E0,0E0,0E0,0E0,0E0,0E0,0E0,0E0,0E0,0E0,0E0,0E0,0E0,0E0,0E0,0E0,0E0,0E0,0E0,0E0,0E0,0E0],"parents":[2147483647,0,0,1,1,2,2,3,3,4,4,5,5,6,6,7,7,9,9,10,10,11,11,12,12,13,13,14,14,16,16,17,17,18,18,19,19,20,20,21,21,22,22,24,24,25,25,26,26,27,27,28,28],"right_children":[2,4,6,8,10,12,14,16,-1,18,20,22,24,26,28,-1,30,32,34,36,38,40,42,-1,44,46,48,50,52,-1,-1,-1,-1,-1,-1,-1,-1,-1,-1,-1,-1,-1,-1,-1,-1,-1,-1,-1,-1,-1,-1,-1,-1],"split_conditions":[1.7E1,1E0,2.1E1,6E0,6E0,6E0,2.3E1,1E0,1.5346085E0,1E0,1E0,5E0,1.8E1,5E0,5E0,1.2648844E0,2E0,5E0,5E0,8E0,5E0,3E0,2E1,2.4741073E0,1.9E1,2E0,2.2E1,2E0,6E0,2.0208145E-2,8.0030733E-1,1.3001356E0,5.126286E-1,-1.7889954E0,-1.01060584E-1,-8.0321306E-1,-2.102782E0,5.047907E-1,-2.8111112E-1,8.111154E-1,3.3895662E0,-3.9972801E0,-3.4200136E-2,5.346914E0,3.0752008E0,3.8275334E-1,-6.725573E-1,1.1237916E0,1.7987737E-1,-6.232958E-1,-1.5141233E0,-1.6267744E-1,-3.4122854E-1],"split_indices":[1,1,1,0,1,0,1,0,0,0,0,0,1,0,0,0,0,1,0,1,0,0,1,0,1,0,1,0,0,0,0,0,0,0,0,0,0,0,0,0,0,0,0,0,0,0,0,0,0,0,0,0,0],"split_type":[0,0,0,0,0,0,0,0,0,0,0,0,0,0,0,0,0,0,0,0,0,0,0,0,0,0,0,0,0,0,0,0,0,0,0,0,0,0,0,0,0,0,0,0,0,0,0,0,0,0,0,0,0],"sum_hessian":[6.339E3,4.477E3,1.862E3,2.59E2,4.218E3,1.077E3,7.85E2,2.24E2,3.5E1,1.323E3,2.895E3,9.25E2,1.52E2,5.16E2,2.69E2,4E1,1.84E2,1.83E2,1.14E3,4E2,2.495E3,7.73E2,1.52E2,3.9E1,1.13E2,3.74E2,1.42E2,1.88E2,8.1E1,3.3E1,1.51E2,1.46E2,3.7E1,7.71E2,3.69E2,7.4E1,3.26E2,1.645E3,8.5E2,4.69E2,3.04E2,1.15E2,3.7E1,4.1E1,7.2E1,1.44E2,2.3E2,6.9E1,7.3E1,7.5E1,1.13E2,4.1E1,4E1],"tree_param":{"num_deleted":"0","num_feature":"3","num_nodes":"53","size_leaf_vector":"1"}},{"base_weights":[-9.0080425E-3,-1.4875355E1,3.0316028E-1,-1.214207E1,-2.0123116E1,1.5851389E1,-3.865829E-1,-6.2424874E0,-1.0664826E1,-2.298852E1,-6.7439775E0,-1.1405474E1,4.0248917E1,-9.398076E0,5.0895786E-1,-3.26085E0,-1.3281656E1,-3.0961778E0,-4.9864364E0,-1.8309634E0,-8.4617823E-1,4.6137753E1,-1.681043E1,2.6806167E-1,8.080532E1,-1.517456E0,-1.7332043E1,3.3273014E1,-3.384315E-1,-3.194043E-1,-9.084549E-1,-4.461072E0,-2.0468073E0,2.483715E0,1.3039036E1,-6.101078E0,-6.142739E-1,-2.6746001E0,3.2787259E0,1.9723566E1,2.4742548E0,3.7997696E-1,-5.2770944E0,-1.3726366E0,-4.149667E0,-5.203917E0,1.13362665E1,-2.594335E0,7.124077E-2],"categories":[],"categories_nodes":[],"categories_segments":[],"categories_sizes":[],"default_left":[0,0,0,0,0,0,0,0,0,0,0,0,0,0,0,0,0,0,0,0,0,0,0,0,0,0,0,0,0,0,0,0,0,0,0,0,0,0,0,0,0,0,0,0,0,0,0,0,0],"id":25,"left_children":[1,3,5,7,9,11,13,-1,15,17,19,21,23,25,27,29,31,-1,-1,-1,-1,33,35,37,39,41,43,45,47,-1,-1,-1,-1,-1,-1,-1,-1,-1,-1,-1,-1,-1,-1,-1,-1,-1,-1,-1,-1],"loss_changes":[2.933438E4,1.620334E3,6.640017E4,2.0676025E3,1.4934414E3,1.753541E5,4.7852758E4,0E0,1.5648115E3,1.8802734E1,1.4824402E1,3.965293E4,2.2536398E5,3.348687E4,1.4976981E5,3.9336594E1,1.4839873E3,0E0,0E0,0E0,0E0,5.8333438E3,2.0628064E4,1.5176535E4,7.339466E4,2.2216178E4,8.303719E3,1.7886603E5,4.4665805E4,0E0,0E0,0E0,0E0,0E0,0E0,0E0,0E0,0E0,0E0,0E0,0E0,0E0,0E0,0E0,0E0,0E0,0E0,0E0,0E0],"parents":[2147483647,0,0,1,1,2,2,3,3,4,4,5,5,6,6,8,8,9,9,10,10,11,11,12,12,13,13,14,14,15,15,16,16,21,21,22,22,23,23,24,24,25,25,26,26,27,27,28,28],"right_children":[2,4,6,8,10,12,14,-1,16,18,20,22,24,26,28,30,32,-1,-1,-1,-1,34,36,38,40,42,44,46,48,-1,-1,-1,-1,-1,-1,-1,-1,-1,-1,-1,-1,-1,-1,-1,-1,-1,-1,-1,-1],"split_conditions":[1E0,1.6E1,3E0,1E0,2.2E1,1.1E1,7E0,-6.2424874E0,5E0,1.7E1,2.3E1,1E0,2E0,5E0,8E0,3E0,8E0,-3.0961778E0,-4.9864364E0,-1.8309634E0,-8.4617823E-1,2E0,6E0,1.8E1,2.1E1,2.1E1,6E0,7E0,1E1,-3.194043E-1,-9.084549E-1,-4.461072E0,-2.0468073E0,2.483715E0,1.3039036E1,-6.101078E0,-6.142739E-1,-2.6746001E0,3.2787259E0,1.9723566E1,2.4742548E0,3.7997696E-1,-5.2770944E0,-1.3726366E0,-4.149667E0,-5.203917E0,1.13362665E1,-2.594335E0,7.124077E-2],"split_indices":[2,1,2,1,1,1,2,0,1,1,1,1,2,2,2,1,1,0,0,0,0,2,1,1,1,1,1,1,2,0,0,0,0,0,0,0,0,0,0,0,0,0,0,0,0,0,0,0,0],"split_type":[0,0,0,0,0,0,0,0,0,0,0,0,0,0,0,0,0,0,0,0,0,0,0,0,0,0,0,0,0,0,0,0,0,0,0,0,0,0,0,0,0,0,0,0,0,0,0,0,0],"sum_hessian":[6.319E3,1.29E2,6.19E3,8.7E1,4.2E1,2.62E2,5.928E3,5E0,8.2E1,3.4E1,8E0,1.24E2,1.38E2,5.35E2,5.393E3,2.2E1,6E1,7E0,2.7E1,3E0,5E0,1E1,1.14E2,7E1,6.8E1,2.69E2,2.66E2,1.35E2,5.258E3,1E1,1.2E1,1.5E1,4.5E1,4E0,6E0,5.8E1,5.6E1,3.8E1,3.2E1,5.5E1,1.3E1,2.37E2,3.2E1,5.9E1,2.07E2,3.7E1,9.8E1,2.76E2,4.982E3],"tree_param":{"num_deleted":"0","num_feature":"3","num_nodes":"49","size_leaf_vector":"1"}},{"base_weights":[5.3793766E-2,2.6393788E0,-1.9895142E0,1.6236067E-1,5.1389565E1,-7.945111E0,-3.3242807E-1,3.270697E0,-5.56912E0,1.9121405E1,8.290199E1,-7.162806E-1,-1.5381859E1,1.8639053E1,-2.3844984E0,-1.3384655E0,2.9346996E1,-9.911872E0,5.1636276E0,2.046691E1,1.1098554E1,9.282812E1,2.884442E1,-1.0059355E1,1.0412555E0,-2.1113527E0,-2.1673262E1,1.8916305E0,3.5372463E1,-1.57396965E1,-8.5780704E-1,4.327604E-1,-3.3336394E0,8.815136E-1,7.3075395E0,-8.236483E-1,-6.7448144E0,4.806471E0,-2.732085E0,6.162499E0,-1.0244346E0,1.483886E1,2.7803923E1,9.500903E0,7.0217633E-1,1.3989179E-1,-2.4800878E0,-3.7635646E0,5.0898296E-1,-2.7578757E0,1.9784737E0,-7.7314777E0,-3.2461705E0,-2.30142E-1,3.273662E0,9.889401E0,-3.6914554E-1,-7.4444747E-1,-3.6168425E0,6.2961726E0,-5.735142E-1],"categories":[],"categories_nodes":[],"categories_segments":[],"categories_sizes":[],"default_left":[0,0,0,0,0,0,0,0,0,0,0,0,0,0,0,0,0,0,0,0,0,0,0,0,0,0,0,0,0,0,0,0,0,0,0,0,0,0,0,0,0,0,0,0,0,0,0,0,0,0,0,0,0,0,0,0,0,0,0,0,0],"id":26,"left_children":[1,3,5,7,9,11,13,15,17,19,21,23,25,27,29,31,33,35,37,-1,39,41,43,45,47,49,51,53,55,57,59,-1,-1,-1,-1,-1,-1,-1,-1,-1,-1,-1,-1,-1,-1,-1,-1,-1,-1,-1,-1,-1,-1,-1,-1,-1,-1,-1,-1,-1,-1],"loss_changes":[3.341587E4,3.3713984E5,3.4864312E4,4.7371473E4,1.3568931E5,4.132965E4,1.0768814E5,2.0724669E5,4.363121E4,4.3107E4,3.381E4,6.431003E3,3.1596992E4,7.559828E4,5.08781E4,7.593302E4,4.1465594E4,9.033831E4,9.220698E4,0E0,1.9502523E4,3.9922344E4,5.2237637E3,1.3934175E3,9.358007E3,1.6650607E4,2.343671E4,5.818258E3,6.549158E4,6.0134375E3,1.3844666E5,0E0,0E0,0E0,0E0,0E0,0E0,0E0,0E0,0E0,0E0,0E0,0E0,0E0,0E0,0E0,0E0,0E0,0E0,0E0,0E0,0E0,0E0,0E0,0E0,0E0,0E0,0E0,0E0,0E0,0E0],"parents":[2147483647,0,0,1,1,2,2,3,3,4,4,5,5,6,6,7,7,8,8,9,9,10,10,11,11,12,12,13,13,14,14,15,15,16,16,17,17,18,18,20,20,21,21,22,22,23,23,24,24,25,25,26,26,27,27,28,28,29,29,30,30],"right_children":[2,4,6,8,10,12,14,16,18,20,22,24,26,28,30,32,34,36,38,-1,40,42,44,46,48,50,52,54,56,58,60,-1,-1,-1,-1,-1,-1,-1,-1,-1,-1,-1,-1,-1,-1,-1,-1,-1,-1,-1,-1,-1,-1,-1,-1,-1,-1,-1,-1,-1,-1],"split_conditions":[2.1E1,2E1,2.7E1,1.3E1,1.2E1,1.2E1,2.9E1,1.1E1,1.8E1,1E0,2.2E1,2.2E1,2.3E1,1.2E1,3.1E1,9E0,5E0,1.7E1,1.9E1,2.046691E1,6E0,1.9E1,2.3E1,2E0,1E0,2.2E1,2.4E1,1E1,2.1E1,3E0,3.2E1,4.327604E-1,-3.3336394E0,8.815136E-1,7.3075395E0,-8.236483E-1,-6.7448144E0,4.806471E0,-2.732085E0,6.162499E0,-1.0244346E0,1.483886E1,2.7803923E1,9.500903E0,7.0217633E-1,1.3989179E-1,-2.4800878E0,-3.7635646E0,5.0898296E-1,-2.7578757E0,1.9784737E0,-7.7314777E0,-3.2461705E0,-2.30142E-1,3.273662E0,9.889401E0,-3.6914554E-1,-7.4444747E-1,-3.6168425E0,6.2961726E0,-5.735142E-1],"split_indices":[2,2,2,2,1,1,2,2,2,1,1,2,2,1,2,2,1,2,2,0,1,1,1,1,1,2,2,1,1,1,2,0,0,0,0,0,0,0,0,0,0,0,0,0,0,0,0,0,0,0,0,0,0,0,0,0,0,0,0,0,0],"split_type":[0,0,0,0,0,0,0,0,0,0,0,0,0,0,0,0,0,0,0,0,0,0,0,0,0,0,0,0,0,0,0,0,0,0,0,0,0,0,0,0,0,0,0,0,0,0,0,0,0,0,0,0,0,0,0,0,0,0,0,0,0],"sum_hessian":[6.323E3,2.791E3,3.532E3,2.657E3,1.34E2,7.68E2,2.764E3,1.723E3,9.34E2,6.7E1,6.7E1,3.9E2,3.78E2,2.69E2,2.495E3,1.465E3,2.58E2,6.65E2,2.69E2,5E0,6.2E1,5.6E1,1.1E1,6.1E1,3.29E2,1.22E2,2.56E2,1.35E2,1.34E2,2.55E2,2.24E3,1.191E3,2.74E2,5.3E1,2.05E2,5.31E2,1.34E2,1.35E2,1.34E2,2.8E1,3.4E1,4E1,1.6E1,6E0,5E0,1E1,5.1E1,2.2E1,3.07E2,6.2E1,6E1,6.6E1,1.9E2,1.12E2,2.3E1,9.9E1,3.5E1,3.6E1,2.19E2,1.29E2,2.111E3],"tree_param":{"num_deleted":"0","num_feature":"3","num_nodes":"61","size_leaf_vector":"1"}},{"base_weights":[4.990549E-2,-8.221703E-1,2.1492336E0,2.5113413E0,-1.2595861E0,4.4409924E0,-9.9773866E-1,1.4660934E0,5.178852E0,-4.2806454E0,-4.8885053E-1,-3.8742144E0,5.92814E0,-2.700282E0,1.2854228E0,3.8978782E0,-1.935352E0,8.469835E0,1.8623579E0,-2.4616804E0,-1.4745755E1,-6.2756696E0,4.5059592E-1,-6.0699053E0,-1.6583E0,8.750408E0,1.7986557E-1,-2.9244477E-1,-4.9615583E0,3.319755E0,3.203865E-1,5.258702E-1,1.3302139E0,2.5657168E-1,-9.9487704E-1,8.7482506E-1,2.5856328E0,1.2565489E0,-4.3791056E-1,-1.0643754E0,2.3582954E0,-2.2503383E0,-3.3562894E0,7.061849E-1,-1.6915843E0,2.732337E-1,-2.6386058E-1,-1.4118112E0,-1.0430658E0,-5.890448E-1,-5.5085205E-2,9.958182E-1,2.5791552E0,-2.5558176E0,2.6809216E0,-6.208568E-1,4.5308414E-1,-1.4843783E0,-5.3839904E-1,4.716945E-1,7.881911E-1,-8.6275406E-2,3.546545E-1],"categories":[],"categories_nodes":[],"categories_segments":[],"categories_sizes":[],"default_left":[0,0,0,0,0,0,0,0,0,0,0,0,0,0,0,0,0,0,0,0,0,0,0,0,0,0,0,0,0,0,0,0,0,0,0,0,0,0,0,0,0,0,0,0,0,0,0,0,0,0,0,0,0,0,0,0,0,0,0,0,0,0,0],"id":27,"left_children":[1,3,5,7,9,11,13,15,17,19,21,23,25,27,29,31,33,35,37,39,41,43,45,47,49,51,53,55,57,59,61,-1,-1,-1,-1,-1,-1,-1,-1,-1,-1,-1,-1,-1,-1,-1,-1,-1,-1,-1,-1,-1,-1,-1,-1,-1,-1,-1,-1,-1,-1,-1,-1],"loss_changes":[1.160887E4,6.535588E3,1.3426149E4,1.4422761E3,9.22085E3,1.3341084E4,3.0549082E3,3.1093877E3,1.5777471E3,1.5287411E4,1.7165562E4,7.878701E2,1.482641E4,2.4487024E3,6.5857306E2,7.408552E2,1.4760873E3,1.2254131E3,1.2841675E3,2.6497092E4,5.657324E2,8.628256E3,4.1987783E3,3.1180176E1,1.4038928E2,9.142039E3,4.9758914E4,1.5163873E3,1.2241958E3,4.984204E1,2.414575E2,0E0,0E0,0E0,0E0,0E0,0E0,0E0,0E0,0E0,0E0,0E0,0E0,0E0,0E0,0E0,0E0,0E0,0E0,0E0,0E0,0E0,0E0,0E0,0E0,0E0,0E0,0E0,0E0,0E0,0E0,0E0,0E0],"parents":[2147483647,0,0,1,1,2,2,3,3,4,4,5,5,6,6,7,7,8,8,9,9,10,10,11,11,12,12,13,13,14,14,15,15,16,16,17,17,18,18,19,19,20,20,21,21,22,22,23,23,24,24,25,25,26,26,27,27,28,28,29,29,30,30],"right_children":[2,4,6,8,10,12,14,16,18,20,22,24,26,28,30,32,34,36,38,40,42,44,46,48,50,52,54,56,58,60,62,-1,-1,-1,-1,-1,-1,-1,-1,-1,-1,-1,-1,-1,-1,-1,-1,-1,-1,-1,-1,-1,-1,-1,-1,-1,-1,-1,-1,-1,-1,-1,-1],"split_conditions":[1.7E1,2E0,2.1E1,5E0,5E0,1E0,4E0,3E0,6E0,6E0,1E0,1.9E1,5E0,2E0,2.2E1,2E0,1E0,1E0,1E0,5E0,3E0,7E0,5E0,1.8E1,2E1,3E0,6E0,1E0,3E0,5E0,6E0,5.258702E-1,1.3302139E0,2.5657168E-1,-9.9487704E-1,8.7482506E-1,2.5856328E0,1.2565489E0,-4.3791056E-1,-1.0643754E0,2.3582954E0,-2.2503383E0,-3.3562894E0,7.061849E-1,-1.6915843E0,2.732337E-1,-2.6386058E-1,-1.4118112E0,-1.0430658E0,-5.890448E-1,-5.5085205E-2,9.958182E-1,2.5791552E0,-2.5558176E0,2.6809216E0,-6.208568E-1,4.5308414E-1,-1.4843783E0,-5.3839904E-1,4.716945E-1,7.881911E-1,-8.6275406E-2,3.546545E-1],"split_indices":[1,1,1,0,1,0,0,0,0,0,0,1,0,0,1,0,1,1,1,0,1,1,0,1,1,0,0,0,0,0,0,0,0,0,0,0,0,0,0,0,0,0,0,0,0,0,0,0,0,0,0,0,0,0,0,0,0,0,0,0,0,0,0],"split_type":[0,0,0,0,0,0,0,0,0,0,0,0,0,0,0,0,0,0,0,0,0,0,0,0,0,0,0,0,0,0,0,0,0,0,0,0,0,0,0,0,0,0,0,0,0,0,0,0,0,0,0,0,0,0,0,0,0,0,0,0,0,0,0],"sum_hessian":[6.339E3,4.479E3,1.86E3,5.19E2,3.96E3,1.076E3,7.84E2,3.74E2,1.45E2,8.04E2,3.156E3,1.63E2,9.13E2,4.49E2,3.35E2,2.18E2,1.56E2,7.2E1,7.3E1,6.86E2,1.18E2,4.4E2,2.716E3,8.1E1,8.2E1,6.12E2,3.01E2,2.18E2,2.31E2,1.07E2,2.28E2,1.46E2,7.2E1,7.5E1,8.1E1,3.7E1,3.5E1,3.5E1,3.8E1,5.74E2,1.12E2,3.9E1,7.9E1,7.5E1,3.65E2,1.8E3,9.16E2,4E1,4.1E1,4.3E1,3.9E1,3.07E2,3.05E2,1.52E2,1.49E2,1.04E2,1.14E2,1.15E2,1.16E2,3.9E1,6.8E1,1.5E2,7.8E1],"tree_param":{"num_deleted":"0","num_feature":"3","num_nodes":"63","size_leaf_vector":"1"}},{"base_weights":[7.338517E-2,9.5761913E-1,-4.3170757E0,-1.07816465E-1,4.2173965E1,-8.778076E0,9.494313E0,4.7255507E-1,-2.2682983E1,3.4619034E1,6.0150257E1,-5.5864687E0,-1.2758641E1,2.8030956E1,8.640723E0,-1.9291751E-2,1.8128551E1,-1.4617686E1,-2.668599E1,2.1144459E1,3.85748E1,6.6065384E1,5.0090938E0,-2.1721874E1,-4.2088704E0,-1.4795029E1,-3.0206616E0,3.2534235E0,8.044785E0,1.3735678E0,1.1081672E1,1.1397222E-1,-4.248807E0,7.7847797E-1,4.830295E0,-7.3963337E0,-2.1185055E0,-5.826294E0,-4.0350127E0,1.2959483E1,1.364477E0,1.1954681E1,6.118645E0,9.209947E0,1.5028478E1,-2.9734578E0,-5.6560936E0,2.3453343E-1,-1.4445059E0,-3.414624E0,-1.169359E0,-2.1732433E0,1.5714087E-1,1.9997327E0,-1.3948684E0,8.736366E-1,3.6015096E0],"categories":[],"categories_nodes":[],"categories_segments":[],"categories_sizes":[],"default_left":[0,0,0,0,0,0,0,0,0,0,0,0,0,0,0,0,0,0,0,0,0,0,0,0,0,0,0,0,0,0,0,0,0,0,0,0,0,0,0,0,0,0,0,0,0,0,0,0,0,0,0,0,0,0,0,0,0],"id":28,"left_children":[1,3,5,7,9,11,13,15,17,19,21,23,25,27,29,31,33,35,37,39,41,43,-1,45,47,49,51,-1,-1,53,55,-1,-1,-1,-1,-1,-1,-1,-1,-1,-1,-1,-1,-1,-1,-1,-1,-1,-1,-1,-1,-1,-1,-1,-1,-1,-1],"loss_changes":[2.461725E4,2.3177925E5,6.557755E4,6.743353E4,1.5980344E4,1.0143066E4,3.8716895E3,4.357689E4,3.7747344E3,4.301375E3,6.3897812E3,9.866767E3,7.0347266E3,8.837793E2,4.419467E3,5.8561266E4,1.0645586E4,3.7512373E3,5.161719E2,1.4257219E4,1.0803906E4,1.7151719E3,0E0,1.0928516E3,6.3534316E3,5.036383E3,1.826593E3,0E0,0E0,4.482883E3,8.255189E3,0E0,0E0,0E0,0E0,0E0,0E0,0E0,0E0,0E0,0E0,0E0,0E0,0E0,0E0,0E0,0E0,0E0,0E0,0E0,0E0,0E0,0E0,0E0,0E0,0E0,0E0],"parents":[2147483647,0,0,1,1,2,2,3,3,4,4,5,5,6,6,7,7,8,8,9,9,10,10,11,11,12,12,13,13,14,14,15,15,16,16,17,17,18,18,19,19,20,20,21,21,23,23,24,24,25,25,26,26,29,29,30,30],"right_children":[2,4,6,8,10,12,14,16,18,20,22,24,26,28,30,32,34,36,38,40,42,44,-1,46,48,50,52,-1,-1,54,56,-1,-1,-1,-1,-1,-1,-1,-1,-1,-1,-1,-1,-1,-1,-1,-1,-1,-1,-1,-1,-1,-1,-1,-1,-1,-1],"split_conditions":[4E1,3.9E1,4.6E1,3.8E1,1.7E1,1.3E1,1E0,3.7E1,9E0,5E0,2.3E1,1E0,2.2E1,4.7E1,7E0,3.6E1,7E0,1E0,2E1,1E0,8E0,1.9E1,5.0090938E0,4.3E1,5E0,4.5E1,4.2E1,3.2534235E0,8.044785E0,4.7E1,4.7E1,1.1397222E-1,-4.248807E0,7.7847797E-1,4.830295E0,-7.3963337E0,-2.1185055E0,-5.826294E0,-4.0350127E0,1.2959483E1,1.364477E0,1.1954681E1,6.118645E0,9.209947E0,1.5028478E1,-2.9734578E0,-5.6560936E0,2.3453343E-1,-1.4445059E0,-3.414624E0,-1.169359E0,-2.1732433E0,1.5714087E-1,1.9997327E0,-1.3948684E0,8.736366E-1,3.6015096E0],"split_indices":[2,2,2,2,1,1,1,2,1,1,1,1,1,2,1,2,1,1,1,1,1,1,0,2,1,2,2,0,0,2,2,0,0,0,0,0,0,0,0,0,0,0,0,0,0,0,0,0,0,0,0,0,0,0,0,0,0],"split_type":[0,0,0,0,0,0,0,0,0,0,0,0,0,0,0,0,0,0,0,0,0,0,0,0,0,0,0,0,0,0,0,0,0,0,0,0,0,0,0,0,0,0,0,0,0,0,0,0,0,0,0,0,0,0,0,0,0],"sum_hessian":[6.339E3,5.277E3,1.062E3,5.145E3,1.32E2,8.03E2,2.59E2,5.017E3,1.28E2,9.5E1,3.7E1,4.47E2,3.56E2,1E1,2.49E2,4.882E3,1.35E2,4.4E1,8.4E1,2.3E1,7.2E1,3.1E1,6E0,3.4E1,4.13E2,2.94E2,6.2E1,6E0,4E0,6.3E1,1.86E2,4.751E3,1.31E2,3.8E1,9.7E1,6E0,3.8E1,6.4E1,2E1,5E0,1.8E1,2E1,5.2E1,1E1,2.1E1,1.7E1,1.7E1,1.44E2,2.69E2,2.42E2,5.2E1,2E1,4.2E1,3.1E1,3.2E1,9.2E1,9.4E1],"tree_param":{"num_deleted":"0","num_feature":"3","num_nodes":"57","size_leaf_vector":"1"}},{"base_weights":[3.3697125E-2,-1.2421174E1,3.0039558E-1,-1.1293663E0,-2.7344766E0,1.3027402E1,-2.7124634E-1,-3.5774562E0,2.9784008E1,-8.229444E0,5.1403606E-1,-4.60456E0,6.8537253E-1,-3.767972E0,3.8482822E1,-1.6576447E0,-1.4844422E1,2.6692904E1,-1.4549106E-1,-1.6695476E0,-7.7500385E-1,7.154315E0,9.07205E0,-3.187577E0,1.8760476E-1,-2.4042666E0,-3.5815046E0,1.1283351E0,6.209265E0,-1.7789576E0,6.821767E-2],"categories":[],"categories_nodes":[],"categories_segments":[],"categories_sizes":[],"default_left":[0,0,0,0,0,0,0,0,0,0,0,0,0,0,0,0,0,0,0,0,0,0,0,0,0,0,0,0,0,0,0],"id":29,"left_children":[1,3,5,-1,-1,7,9,11,13,15,17,19,-1,-1,21,23,25,27,29,-1,-1,-1,-1,-1,-1,-1,-1,-1,-1,-1,-1],"loss_changes":[2.107324E4,8.085781E2,4.5190363E4,0E0,0E0,7.439692E4,3.7157105E4,9.766282E2,5.6504617E4,2.3189605E4,9.34457E4,3.1049683E2,0E0,0E0,7.639844E2,9.676117E3,1.9913164E3,1.02446875E4,2.1673234E4,0E0,0E0,0E0,0E0,0E0,0E0,0E0,0E0,0E0,0E0,0E0,0E0],"parents":[2147483647,0,0,1,1,2,2,5,5,6,6,7,7,8,8,9,9,10,10,11,11,14,14,15,15,16,16,17,17,18,18],"right_children":[2,4,6,-1,-1,8,10,12,14,16,18,20,-1,-1,22,24,26,28,30,-1,-1,-1,-1,-1,-1,-1,-1,-1,-1,-1,-1],"split_conditions":[1E0,1E0,3E0,-1.1293663E0,-2.7344766E0,2E0,7E0,6E0,1E0,5E0,8E0,1E0,6.8537253E-1,-3.767972E0,5E0,1E0,6E0,1E0,1E1,-1.6695476E0,-7.7500385E-1,7.154315E0,9.07205E0,-3.187577E0,1.8760476E-1,-2.4042666E0,-3.5815046E0,1.1283351E0,6.209265E0,-1.7789576E0,6.821767E-2],"split_indices":[2,0,2,0,0,2,2,0,0,2,2,0,0,0,0,0,2,0,2,0,0,0,0,0,0,0,0,0,0,0,0],"split_type":[0,0,0,0,0,0,0,0,0,0,0,0,0,0,0,0,0,0,0,0,0,0,0,0,0,0,0,0,0,0,0],"sum_hessian":[6.342E3,1.32E2,6.21E3,1.7E1,1.15E2,2.66E2,5.944E3,1.34E2,1.32E2,5.33E2,5.411E3,1.17E2,1.7E1,2E1,1.12E2,2.68E2,2.65E2,1.32E2,5.279E3,2E1,9.7E1,7.5E1,3.7E1,4.1E1,2.27E2,1.26E2,1.39E2,2E1,1.12E2,2.79E2,5E3],"tree_param":{"num_deleted":"0","num_feature":"3","num_nodes":"31","size_leaf_vector":"1"}},{"base_weights":[1.1053195E-1,2.1088157E0,-1.4630843E0,1.0223102E-1,4.096551E1,-6.6869097E0,1.9271342E-3,2.7267044E0,-4.765854E0,3.2141174E1,6.3109406E1,-2.4143314E0,-1.5011694E1,2.2527355E1,-1.2156643E0,7.508668E-3,3.4245502E1,-1.5672729E1,-3.4985328E-1,4.990018E1,2.045178E1,1.5609177E1,9.357395E0,-6.8187823E0,9.877589E0,-1.04526415E1,-1.9322628E1,-8.873739E-1,2.7489819E1,-5.819971E0,1.2651191E0,-2.0128879E-1,2.337978E0,5.5897355E0,1.0789095E1,-4.3130126E0,-2.0757718E0,1.7796394E0,-1.2853767E0,1.1894585E1,7.780429E0,3.0697863E0,6.197124E0,-2.2412854E-1,-3.630592E0,2.5156689E0,5.104483E-1,-5.413503E-1,-2.3546143E0,-1.6582801E0,-4.311717E0,4.6146345E0,9.869704E0,-3.285602E-1,-6.463154E0,5.793333E0,-2.2787794E-1],"categories":[],"categories_nodes":[],"categories_segments":[],"categories_sizes":[],"default_left":[0,0,0,0,0,0,0,0,0,0,0,0,0,0,0,0,0,0,0,0,0,0,0,0,0,0,0,0,0,0,0,0,0,0,0,0,0,0,0,0,0,0,0,0,0,0,0,0,0,0,0,0,0,0,0,0,0],"id":30,"left_children":[1,3,5,7,9,11,13,15,17,19,21,23,25,27,29,31,33,35,37,39,41,-1,-1,43,45,47,49,-1,51,53,55,-1,-1,-1,-1,-1,-1,-1,-1,-1,-1,-1,-1,-1,-1,-1,-1,-1,-1,-1,-1,-1,-1,-1,-1,-1,-1],"loss_changes":[1.9914262E4,2.1753E5,2.7114467E4,3.3920918E4,2.4742125E4,2.7564754E4,7.594467E4,1.4784222E5,4.4787746E4,1.9738656E4,5.2422812E3,2.789488E4,4.9669688E3,1.9054281E4,3.001371E4,1.8049982E4,1.6067609E4,7.8187344E3,3.5744176E4,1.6168984E3,2.868461E3,0E0,0E0,2.3728404E4,2.4131885E3,1.0568115E3,2.5029648E3,0E0,1.1158555E4,9.997447E4,1.1017519E5,0E0,0E0,0E0,0E0,0E0,0E0,0E0,0E0,0E0,0E0,0E0,0E0,0E0,0E0,0E0,0E0,0E0,0E0,0E0,0E0,0E0,0E0,0E0,0E0,0E0,0E0],"parents":[2147483647,0,0,1,1,2,2,3,3,4,4,5,5,6,6,7,7,8,8,9,9,10,10,11,11,12,12,13,13,14,14,15,15,16,16,17,17,18,18,19,19,20,20,23,23,24,24,25,25,26,26,28,28,29,29,30,30],"right_children":[2,4,6,8,10,12,14,16,18,20,22,24,26,28,30,32,34,36,38,40,42,-1,-1,44,46,48,50,-1,52,54,56,-1,-1,-1,-1,-1,-1,-1,-1,-1,-1,-1,-1,-1,-1,-1,-1,-1,-1,-1,-1,-1,-1,-1,-1,-1,-1],"split_conditions":[2.1E1,2E1,2.7E1,1.3E1,5E0,2.5E1,2.8E1,1.2E1,1.5E1,2E0,6E0,2.4E1,2.6E1,1E0,3.5E1,1.1E1,5E0,1.4E1,1.7E1,1E0,4E0,1.5609177E1,9.357395E0,2.3E1,5E0,1E0,1E0,-8.873739E-1,6E0,3.4E1,3.6E1,-2.0128879E-1,2.337978E0,5.5897355E0,1.0789095E1,-4.3130126E0,-2.0757718E0,1.7796394E0,-1.2853767E0,1.1894585E1,7.780429E0,3.0697863E0,6.197124E0,-2.2412854E-1,-3.630592E0,2.5156689E0,5.104483E-1,-5.413503E-1,-2.3546143E0,-1.6582801E0,-4.311717E0,4.6146345E0,9.869704E0,-3.285602E-1,-6.463154E0,5.793333E0,-2.2787794E-1],"split_indices":[2,2,2,2,0,2,2,2,2,0,0,2,2,0,2,2,0,2,2,0,0,0,0,2,0,0,0,0,0,2,2,0,0,0,0,0,0,0,0,0,0,0,0,0,0,0,0,0,0,0,0,0,0,0,0,0,0],"split_type":[0,0,0,0,0,0,0,0,0,0,0,0,0,0,0,0,0,0,0,0,0,0,0,0,0,0,0,0,0,0,0,0,0,0,0,0,0,0,0,0,0,0,0,0,0,0,0,0,0,0,0,0,0,0,0,0,0],"sum_hessian":[6.331E3,2.789E3,3.542E3,2.653E3,1.36E2,7.75E2,2.767E3,1.724E3,9.29E2,9.9E1,3.7E1,5.13E2,2.62E2,1.41E2,2.626E3,1.588E3,1.36E2,2.67E2,6.62E2,3.8E1,6.1E1,1.9E1,1.8E1,3.78E2,1.35E2,1.29E2,1.33E2,2.2E1,1.19E2,9.19E2,1.707E3,1.462E3,1.26E2,1.01E2,3.5E1,1.33E2,1.34E2,2.62E2,4E2,2E1,1.8E1,4.1E1,2E1,2.49E2,1.29E2,1.01E2,3.4E1,1.6E1,1.13E2,1.9E1,1.14E2,9.8E1,2.1E1,7.91E2,1.28E2,1.37E2,1.57E3],"tree_param":{"num_deleted":"0","num_feature":"3","num_nodes":"57","size_leaf_vector":"1"}},{"base_weights":[-7.421695E-3,6.2646747E-1,-3.6846523E0,-2.0203547E-1,1.6924307E1,-9.8466425E0,4.7602205E0,2.6122832E-1,-1.818157E1,3.4000584E1,-2.1454534E-2,-1.7534674E1,-7.278635E0,-2.5736013E-1,7.241372E0,-1.09378286E-1,1.3949233E1,-1.3868343E1,-2.2618954E1,2.8486012E1,5.069274E1,2.3717964E0,-2.1750739E0,-8.088701E0,-2.1189445E1,5.821689E0,-1.392349E1,-1.3305241E0,4.8396935E0,5.2149234E0,1.088956E1,6.74179E-2,-3.2489676E0,6.993911E-1,3.744356E0,-6.0730896E0,-2.422015E0,-5.2105513E0,-3.3132024E0,1.0780175E1,5.44552E0,1.1678139E1,4.1598344E0,-1.8495622E0,7.627366E-1,-9.417819E-1,8.461604E-1,-5.318721E0,-1.0816786E0,-3.823827E0,-5.178343E0,-7.729015E-2,1.9183424E0,-7.3430556E-1,-3.766253E0,3.5311326E-1,-1.603268E0,6.510882E-1,1.667736E0,1.3122535E0,-6.2723034E-3,1.1446474E0,3.303703E0],"categories":[],"categories_nodes":[],"categories_segments":[],"categories_sizes":[],"default_left":[0,0,0,0,0,0,0,0,0,0,0,0,0,0,0,0,0,0,0,0,0,0,0,0,0,0,0,0,0,0,0,0,0,0,0,0,0,0,0,0,0,0,0,0,0,0,0,0,0,0,0,0,0,0,0,0,0,0,0,0,0,0,0],"id":31,"left_children":[1,3,5,7,9,11,13,15,17,19,21,23,25,27,29,31,33,35,37,39,41,43,45,47,49,51,53,55,57,59,61,-1,-1,-1,-1,-1,-1,-1,-1,-1,-1,-1,-1,-1,-1,-1,-1,-1,-1,-1,-1,-1,-1,-1,-1,-1,-1,-1,-1,-1,-1,-1,-1],"loss_changes":[1.4743278E4,7.285107E4,4.8441484E4,4.277554E4,7.552644E4,1.0494059E4,4.8944688E3,2.5401361E4,2.1552969E3,1.0522484E4,6.855068E2,4.454672E3,3.5336203E4,7.23006E2,1.8875371E3,3.383736E4,6.0193594E3,1.8190469E3,7.312285E2,3.0440547E3,4.915758E3,1.0136353E3,1.0955012E3,1.8177463E3,5.126094E2,3.0338262E3,1.2466121E4,2.1862737E3,1.0032153E2,1.0836372E3,2.5057383E3,0E0,0E0,0E0,0E0,0E0,0E0,0E0,0E0,0E0,0E0,0E0,0E0,0E0,0E0,0E0,0E0,0E0,0E0,0E0,0E0,0E0,0E0,0E0,0E0,0E0,0E0,0E0,0E0,0E0,0E0,0E0,0E0],"parents":[2147483647,0,0,1,1,2,2,3,3,4,4,5,5,6,6,7,7,8,8,9,9,10,10,11,11,12,12,13,13,14,14,15,15,16,16,17,17,18,18,19,19,20,20,21,21,22,22,23,23,24,24,25,25,26,26,27,27,28,28,29,29,30,30],"right_children":[2,4,6,8,10,12,14,16,18,20,22,24,26,28,30,32,34,36,38,40,42,44,46,48,50,52,54,56,58,60,62,-1,-1,-1,-1,-1,-1,-1,-1,-1,-1,-1,-1,-1,-1,-1,-1,-1,-1,-1,-1,-1,-1,-1,-1,-1,-1,-1,-1,-1,-1,-1,-1],"split_conditions":[4.1E1,3.9E1,4.5E1,3.8E1,4E1,4.2E1,4.6E1,3.7E1,1.3E1,1.8E1,1.1E1,7E0,4.3E1,2E1,1.6E1,3.6E1,7E0,1E0,2E1,1E0,2.3E1,1E0,2E1,1E0,1.8E1,8E0,7E0,1.4E1,2.3E1,1.3E1,4.7E1,6.74179E-2,-3.2489676E0,6.993911E-1,3.744356E0,-6.0730896E0,-2.422015E0,-5.2105513E0,-3.3132024E0,1.0780175E1,5.44552E0,1.1678139E1,4.1598344E0,-1.8495622E0,7.627366E-1,-9.417819E-1,8.461604E-1,-5.318721E0,-1.0816786E0,-3.823827E0,-5.178343E0,-7.729015E-2,1.9183424E0,-7.3430556E-1,-3.766253E0,3.5311326E-1,-1.603268E0,6.510882E-1,1.667736E0,1.3122535E0,-6.2723034E-3,1.1446474E0,3.303703E0],"split_indices":[2,2,2,2,2,2,2,2,1,1,1,1,2,1,1,2,1,1,1,1,1,1,1,1,1,1,1,1,1,1,2,0,0,0,0,0,0,0,0,0,0,0,0,0,0,0,0,0,0,0,0,0,0,0,0,0,0,0,0,0,0,0,0],"split_type":[0,0,0,0,0,0,0,0,0,0,0,0,0,0,0,0,0,0,0,0,0,0,0,0,0,0,0,0,0,0,0,0,0,0,0,0,0,0,0,0,0,0,0,0,0,0,0,0,0,0,0,0,0,0,0,0,0,0,0,0,0,0,0],"sum_hessian":[6.323E3,5.394E3,9.29E2,5.134E3,2.6E2,5.37E2,3.92E2,5.006E3,1.28E2,1.29E2,1.31E2,1.33E2,4.04E2,1.3E2,2.62E2,4.875E3,1.31E2,6.7E1,6.1E1,9.9E1,3E1,6.2E1,6.9E1,3.8E1,9.5E1,1.36E2,2.68E2,1.08E2,2.2E1,1.7E2,9.2E1,4.744E3,1.31E2,3.9E1,9.2E1,6E0,6.1E1,4E1,2.1E1,5E0,9.4E1,2.4E1,6E0,6E0,5.6E1,5E1,1.9E1,4E0,3.4E1,6.3E1,3.2E1,5E1,8.6E1,8.2E1,1.86E2,7.4E1,3.4E1,1.6E1,6E0,1.38E2,3.2E1,4.7E1,4.5E1],"tree_param":{"num_deleted":"0","num_feature":"3","num_nodes":"63","size_leaf_vector":"1"}},{"base_weights":[-1.8259136E-2,-9.819177E0,1.9027396E-1,-7.4839926E0,-1.4644951E1,1.0046698E1,-2.4601512E-1,-4.9220924E0,-6.238343E0,-1.6333244E1,2.2782305E-1,-1.1640948E1,3.266519E1,-6.294215E0,3.5113496E-1,-3.6682454E-1,-8.505272E0,-1.6978401E1,-1.7733387E0,3.3060394E1,-1.5481539E1,2.9788077E0,6.3717926E1,-1.1174933E0,-1.1544859E1,1.4847698E1,-4.1042596E-1,-4.9902073E-1,8.523537E-2,-3.441243E0,-1.1208445E0,-2.1398463E0,-3.73422E0,1.5191892E0,9.529328E0,-5.0346017E0,-6.895939E-1,-2.3139691E0,2.7662015E0,1.7491074E1,5.021464E0,2.756121E-1,-3.9849117E0,-2.6467366E0,7.8631383E-1,1.9790326E-1,4.335379E0,-4.463249E0,4.326565E-2],"categories":[],"categories_nodes":[],"categories_segments":[],"categories_sizes":[],"default_left":[0,0,0,0,0,0,0,0,0,0,0,0,0,0,0,0,0,0,0,0,0,0,0,0,0,0,0,0,0,0,0,0,0,0,0,0,0,0,0,0,0,0,0,0,0,0,0,0,0],"id":32,"left_children":[1,3,5,7,9,11,13,-1,15,17,-1,19,21,23,25,27,29,31,-1,33,35,37,39,41,43,45,47,-1,-1,-1,-1,-1,-1,-1,-1,-1,-1,-1,-1,-1,-1,-1,-1,-1,-1,-1,-1,-1,-1],"loss_changes":[1.2949439E4,1.3779141E3,2.6681223E4,1.7321826E3,1.1357295E3,1.29392766E5,2.146283E4,0E0,1.1415669E3,4.0273438E1,0E0,2.3688564E4,1.18728E5,1.4501816E4,5.9721543E4,4.1701206E1,1.4684219E3,9.578613E1,0E0,3.48117E3,1.3778768E4,1.0274251E4,5.1877E4,1.2270711E4,5.799504E3,2.385618E4,6.855397E4,0E0,0E0,0E0,0E0,0E0,0E0,0E0,0E0,0E0,0E0,0E0,0E0,0E0,0E0,0E0,0E0,0E0,0E0,0E0,0E0,0E0,0E0],"parents":[2147483647,0,0,1,1,2,2,3,3,4,4,5,5,6,6,8,8,9,9,11,11,12,12,13,13,14,14,15,15,16,16,17,17,19,19,20,20,21,21,22,22,23,23,24,24,25,25,26,26],"right_children":[2,4,6,8,10,12,14,-1,16,18,-1,20,22,24,26,28,30,32,-1,34,36,38,40,42,44,46,48,-1,-1,-1,-1,-1,-1,-1,-1,-1,-1,-1,-1,-1,-1,-1,-1,-1,-1,-1,-1,-1,-1],"split_conditions":[1E0,1.6E1,3E0,1E0,2.3E1,1.2E1,7E0,-4.9220924E0,5E0,2.2E1,2.2782305E-1,1E0,2E0,5E0,9E0,2E0,8E0,1.7E1,-1.7733387E0,2E0,7E0,1.7E1,1.9E1,2.1E1,2.2E1,8E0,1E1,-4.9902073E-1,8.523537E-2,-3.441243E0,-1.1208445E0,-2.1398463E0,-3.73422E0,1.5191892E0,9.529328E0,-5.0346017E0,-6.895939E-1,-2.3139691E0,2.7662015E0,1.7491074E1,5.021464E0,2.756121E-1,-3.9849117E0,-2.6467366E0,7.8631383E-1,1.9790326E-1,4.335379E0,-4.463249E0,4.326565E-2],"split_indices":[2,1,2,1,1,1,2,0,1,1,0,1,2,2,2,1,1,1,0,2,1,1,1,1,1,1,2,0,0,0,0,0,0,0,0,0,0,0,0,0,0,0,0,0,0,0,0,0,0],"split_type":[0,0,0,0,0,0,0,0,0,0,0,0,0,0,0,0,0,0,0,0,0,0,0,0,0,0,0,0,0,0,0,0,0,0,0,0,0,0,0,0,0,0,0,0,0,0,0,0,0],"sum_hessian":[6.334E3,1.31E2,6.203E3,9E1,4.1E1,2.62E2,5.941E3,5E0,8.5E1,3.7E1,4E0,1.34E2,1.28E2,5.33E2,5.408E3,2.4E1,6.1E1,3.3E1,4E0,1E1,1.24E2,6.6E1,6.2E1,2.69E2,2.64E2,2.69E2,5.139E3,6E0,1.8E1,1.5E1,4.6E1,7E0,2.6E1,4E0,6E0,7E1,5.4E1,2.8E1,3.8E1,3.9E1,2.3E1,2.38E2,3.1E1,2.42E2,2.2E1,8.5E1,1.84E2,1.44E2,4.995E3],"tree_param":{"num_deleted":"0","num_feature":"3","num_nodes":"49","size_leaf_vector":"1"}},{"base_weights":[4.434231E-2,-5.789321E-1,1.546664E0,1.9809893E0,-9.152111E-1,3.369172E0,-9.6270585E-1,1.2714496E0,1.3319066E0,-3.2811484E0,-3.1279215E-1,-2.966952E0,4.4743314E0,-1.9254565E-1,-2.431002E0,2.7157184E-1,3.5223851E0,7.2658725E0,-5.0469565E0,-4.526284E0,3.7770388E-1,-4.4604707E0,-1.4736785E0,6.7603703E0,-1.3477963E-1,-6.835929E-1,2.7497041E0,-3.0319235E0,-1.040589E0,3.990683E-1,-2.79643E-1,1.275892E0,1.6126485E-1,1.5713084E0,1.2803105E0,-7.2882646E-1,-2.4493375E0,9.3909794E-1,-1.3101655E0,-3.0636457E-1,2.027952E-1,-1.1055589E0,-6.9961256E-1,-3.6383003E-1,-2.225887E-1,1.0565302E0,2.3547888E0,-2.028842E0,1.9870278E0,3.3154267E-1,-3.6771253E-1,7.7944446E-1,3.5731518E-1,-3.4247708E-1,-8.002683E-1,-1.7269358E-1,