{"learner":{"attributes":{"best_iteration":"179","best_score":"28.007134345152597"},"feature_names":["dia","franja","barrio"],"feature_types":["int","float","int"],"gradient_booster":{"model":{"gbtree_model_param":{"num_parallel_tree":"1","num_trees":"210"},"iteration_indptr":[0,1,2,3,4,5,6,7,8,9,10,11,12,13,14,15,16,17,18,19,20,21,22,23,24,25,26,27,28,29,30,31,32,33,34,35,36,37,38,39,40,41,42,43,44,45,46,47,48,49,50,51,52,53,54,55,56,57,58,59,60,61,62,63,64,65,66,67,68,69,70,71,72,73,74,75,76,77,78,79,80,81,82,83,84,85,86,87,88,89,90,91,92,93,94,95,96,97,98,99,100,101,102,103,104,105,106,107,108,109,110,111,112,113,114,115,116,117,118,119,120,121,122,123,124,125,126,127,128,129,130,131,132,133,134,135,136,137,138,139,140,141,142,143,144,145,146,147,148,149,150,151,152,153,154,155,156,157,158,159,160,161,162,163,164,165,166,167,168,169,170,171,172,173,174,175,176,177,178,179,180,181,182,183,184,185,186,187,188,189,190,191,192,193,194,195,196,197,198,199,200,201,202,203,204,205,206,207,208,209,210],"tree_info":[0,0,0,0,0,0,0,0,0,0,0,0,0,0,0,0,0,0,0,0,0,0,0,0,0,0,0,0,0,0,0,0,0,0,0,0,0,0,0,0,0,0,0,0,0,0,0,0,0,0,0,0,0,0,0,0,0,0,0,0,0,0,0,0,0,0,0,0,0,0,0,0,0,0,0,0,0,0,0,0,0,0,0,0,0,0,0,0,0,0,0,0,0,0,0,0,0,0,0,0,0,0,0,0,0,0,0,0,0,0,0,0,0,0,0,0,0,0,0,0,0,0,0,0,0,0,0,0,0,0,0,0,0,0,0,0,0,0,0,0,0,0,0,0,0,0,0,0,0,0,0,0,0,0,0,0,0,0,0,0,0,0,0,0,0,0,0,0,0,0,0,0,0,0,0,0,0,0,0,0,0,0,0,0,0,0,0,0,0,0,0,0,0,0,0,0,0,0,0,0,0,0,0,0,0,0,0,0,0,0],"trees":[{"base_weights":[-4.394609E-1,3.7184544E1,-3.0010782E1,2.1252037E1,2.8924366E1,-1.4494136E1,-6.706473E1,8.410859E1,8.6557066E-1,-2.204663E1,1.07877594E2,-8.5665436E1,-8.168283E0,-8.723523E0,1.3517935E2,1.0744407E1,-3.6847958E1,-5.9319763E1,-3.7563424E0,6.479973E0,1.1318224E2,-8.821602E1,-7.09043E1,-2.5178883E0,-4.017061E0,2.0024135E2,7.073959E1,-2.0487408E1,4.0962852E1,-6.1542983E0,-1.8529444E1,-1.1586223E1,-8.08007E1,5.3269375E1,-4.393014E1,1.0494845E1,8.757158E1,-8.042164E1,-8.276977E0,-6.146911E0,-4.529494E0,-1.5026934E1,6.6514864E0,1.1504996E2,2.7082242E2,3.019891E1,7.881255E1,3.1977E1,-6.9222595E1,1.3820885E2,-5.2452507E0,4.552287E0,-3.9041523E1,-2.1129902E1,-1.8177558E0,-6.0415478E1,-1.0003552E2,1.4446895E2,2.7993132E1,-6.935291E1,-2.5017561E1,5.1214423E0,8.598134E0,-8.455394E1,-6.021401E0,-1.4430232E0,-1.2362644E1,1.8331408E1,2.281809E0,5.842207E0,1.0166783E1,1.4025136E1,2.4327286E1,2.0124989E0,2.8475626E0,6.891904E0,5.7063346E0,-2.315279E0,1.2618965E1,-3.6207225E0,-6.817957E0,4.905173E0,1.7760937E1,-2.4778867E0,1.5375617E0,-1.7970465E0,7.4308085E-1,-5.0898147E0,-2.9153903E0,-1.5553168E0,-2.1903589E0,-1.3592569E0,1.13206714E-1,-8.43085E0,-1.9631732E0,-7.1998973E0,-9.255515E0,5.9875326E0,1.3196566E1,-3.634489E-1,1.0316207E1,-4.4946246E0,-8.326551E0,2.6742198E0,-3.754301E0,-6.179572E0,-7.831495E0,-2.1813674E-1,-1.2887971E0,1.0352128E0,1.8340003E0,-1.5988071E-1,1.5511934E0],"categories":[],"categories_nodes":[],"categories_segments":[],"categories_sizes":[],"default_left":[0,0,0,0,0,0,0,0,0,0,0,0,0,0,0,0,0,0,0,0,0,0,0,0,0,0,0,0,0,0,0,0,0,0,0,0,0,0,0,0,0,0,0,0,0,0,0,0,0,0,0,0,0,0,0,0,0,0,0,0,0,0,0,0,0,0,0,0,0,0,0,0,0,0,0,0,0,0,0,0,0,0,0,0,0,0,0,0,0,0,0,0,0,0,0,0,0,0,0,0,0,0,0,0,0,0,0,0,0,0,0,0,0],"id":0,"left_children":[1,3,5,7,-1,9,11,13,15,17,19,21,23,-1,25,27,29,31,33,-1,35,37,39,-1,41,43,45,47,49,-1,51,53,55,57,59,-1,61,63,-1,-1,-1,65,67,69,71,73,75,77,79,81,83,85,87,89,91,93,95,97,99,101,103,-1,-1,105,-1,-1,107,109,111,-1,-1,-1,-1,-1,-1,-1,-1,-1,-1,-1,-1,-1,-1,-1,-1,-1,-1,-1,-1,-1,-1,-1,-1,-1,-1,-1,-1,-1,-1,-1,-1,-1,-1,-1,-1,-1,-1,-1,-1,-1,-1,-1,-1],"loss_changes":[5.468391E6,1.0640725E7,1.5812985E6,2.6370962E6,0E0,1.7962735E6,8.88859E5,4.866326E6,5.797357E5,1.246673E6,9.400375E3,1.69755E4,1.7751055E4,0E0,1.6502895E6,1.1645162E6,2.1641344E5,6.1633125E5,2.8156142E6,0E0,1.889925E4,3.614725E4,2.7790625E2,0E0,1.9598203E4,1.1533825E6,6.3403938E4,1.5542291E6,2.8181828E6,0E0,1.029173E5,1.7488293E4,1.5668025E5,1.1669885E6,3.4492912E5,0E0,7.3899844E3,4.578625E3,0E0,0E0,0E0,2.7654492E2,4.2963574E3,1.87025E4,1.750665E5,9.501953E0,8.13125E2,2.0860626E6,9.7380625E4,1.1816152E6,2.4643878E5,1.1842546E4,8.314359E3,7.272617E2,4.331312E3,3.0254756E5,2.2012E4,9.6539E4,1.2325652E6,1.3938838E5,4.7268103E5,0E0,0E0,1.2606875E4,0E0,0E0,1.1838545E3,2.224961E2,4.33907E3,0E0,0E0,0E0,0E0,0E0,0E0,0E0,0E0,0E0,0E0,0E0,0E0,0E0,0E0,0E0,0E0,0E0,0E0,0E0,0E0,0E0,0E0,0E0,0E0,0E0,0E0,0E0,0E0,0E0,0E0,0E0,0E0,0E0,0E0,0E0,0E0,0E0,0E0,0E0,0E0,0E0,0E0,0E0,0E0],"parents":[2147483647,0,0,1,1,2,2,3,3,5,5,6,6,7,7,8,8,9,9,10,10,11,11,12,12,14,14,15,15,16,16,17,17,18,18,20,20,21,21,22,22,24,24,25,25,26,26,27,27,28,28,30,30,31,31,32,32,33,33,34,34,36,36,37,37,41,41,42,42,43,43,44,44,45,45,46,46,47,47,48,48,49,49,50,50,51,51,52,52,53,53,54,54,55,55,56,56,57,57,58,58,59,59,60,60,63,63,66,66,67,67,68,68],"right_children":[2,4,6,8,-1,10,12,14,16,18,20,22,24,-1,26,28,30,32,34,-1,36,38,40,-1,42,44,46,48,50,-1,52,54,56,58,60,-1,62,64,-1,-1,-1,66,68,70,72,74,76,78,80,82,84,86,88,90,92,94,96,98,100,102,104,-1,-1,106,-1,-1,108,110,112,-1,-1,-1,-1,-1,-1,-1,-1,-1,-1,-1,-1,-1,-1,-1,-1,-1,-1,-1,-1,-1,-1,-1,-1,-1,-1,-1,-1,-1,-1,-1,-1,-1,-1,-1,-1,-1,-1,-1,-1,-1,-1,-1,-1],"split_conditions":[2.1E1,2E1,4E1,5E0,2.8924366E1,3.9E1,4.6E1,1E0,1.7E1,2.7E1,1E0,4.5E1,1E0,-8.723523E0,3E0,1.1E1,1.8E1,2.3E1,3.2E1,6.479973E0,5E0,4.3E1,6E0,-2.5178883E0,4.7E1,2E0,1E0,8E0,1.3E1,-6.1542983E0,1.9E1,2.2E1,2.5E1,2.8E1,3.5E1,1.0494845E1,6E0,4.2E1,-8.276977E0,-6.146911E0,-4.529494E0,4E0,3E0,1E0,1E0,4E0,5E0,7E0,9E0,1.2E1,1.5E1,1E0,1E0,5E0,1E0,2.4E1,2.6E1,1E0,3.1E1,3.4E1,3.6E1,5.1214423E0,8.598134E0,4.1E1,-6.021401E0,-1.4430232E0,5E0,2E0,6E0,5.842207E0,1.0166783E1,1.4025136E1,2.4327286E1,2.0124989E0,2.8475626E0,6.891904E0,5.7063346E0,-2.315279E0,1.2618965E1,-3.6207225E0,-6.817957E0,4.905173E0,1.7760937E1,-2.4778867E0,1.5375617E0,-1.7970465E0,7.4308085E-1,-5.0898147E0,-2.9153903E0,-1.5553168E0,-2.1903589E0,-1.3592569E0,1.13206714E-1,-8.43085E0,-1.9631732E0,-7.1998973E0,-9.255515E0,5.9875326E0,1.3196566E1,-3.634489E-1,1.0316207E1,-4.4946246E0,-8.326551E0,2.6742198E0,-3.754301E0,-6.179572E0,-7.831495E0,-2.1813674E-1,-1.2887971E0,1.0352128E0,1.8340003E0,-1.5988071E-1,1.5511934E0],"split_indices":[2,2,2,2,0,2,2,2,2,2,0,2,0,0,2,2,2,2,2,0,0,2,0,0,2,2,0,2,2,0,2,2,2,2,2,0,0,2,0,0,0,0,0,0,0,2,0,2,2,2,2,0,0,0,0,2,2,0,2,2,2,0,0,2,0,0,0,0,0,0,0,0,0,0,0,0,0,0,0,0,0,0,0,0,0,0,0,0,0,0,0,0,0,0,0,0,0,0,0,0,0,0,0,0,0,0,0,0,0,0,0,0,0],"split_type":[0,0,0,0,0,0,0,0,0,0,0,0,0,0,0,0,0,0,0,0,0,0,0,0,0,0,0,0,0,0,0,0,0,0,0,0,0,0,0,0,0,0,0,0,0,0,0,0,0,0,0,0,0,0,0,0,0,0,0,0,0,0,0,0,0,0,0,0,0,0,0,0,0,0,0,0,0,0,0,0,0,0,0,0,0,0,0,0,0,0,0,0,0,0,0,0,0,0,0,0,0,0,0,0,0,0,0,0,0,0,0,0,0],"sum_hessian":[4.913E3,2.162E3,2.751E3,2.057E3,1.05E2,1.94E3,8.11E2,5.03E2,1.554E3,1.828E3,1.12E2,6.16E2,1.95E2,1.07E2,3.96E2,1.232E3,3.22E2,6.01E2,1.227E3,1.9E1,9.3E1,5.21E2,9.5E1,3E1,1.65E2,1.96E2,2E2,6.06E2,6.26E2,1.06E2,2.16E2,1.87E2,4.14E2,5.07E2,7.2E2,6E1,3.3E1,3.08E2,2.13E2,7.9E1,1.6E1,8.1E1,8.4E1,9E1,1.06E2,3.4E1,1.66E2,2.92E2,3.14E2,2.01E2,4.25E2,1.02E2,1.14E2,9.4E1,9.3E1,2.03E2,2.11E2,1.09E2,3.98E2,3.06E2,4.14E2,1.4E1,1.9E1,2E2,1.08E2,4.1E1,4E1,2.2E1,6.2E1,1.3E1,7.7E1,1.9E1,8.7E1,1.6E1,1.8E1,1.18E2,4.8E1,1.95E2,9.7E1,1.03E2,2.11E2,9.8E1,1.03E2,2.09E2,2.16E2,1.4E1,8.8E1,1.6E1,9.8E1,6.6E1,2.8E1,1.6E1,7.7E1,9.6E1,1.07E2,9.6E1,1.15E2,1.8E1,9.1E1,2.98E2,1E2,2.04E2,1.02E2,1.07E2,3.07E2,9.7E1,1.03E2,1E1,3E1,1E1,1.2E1,5E1,1.2E1],"tree_param":{"num_deleted":"0","num_feature":"3","num_nodes":"113","size_leaf_vector":"1"}},{"base_weights":[4.207866E-1,-5.042144E1,2.5516851E1,3.0388443E1,-6.1100754E1,-1.120537E1,3.1468048E1,9.403428E0,3.8651585E1,-7.228779E1,-3.348463E1,-2.9392279E1,1.0689938E1,1.04186325E1,3.832174E1,1.2765146E0,2.2946699E-1,5.2548725E1,2.9960823E1,-4.8006622E1,-7.610048E1,-4.7454323E1,-1.851929E1,-3.6143265E0,-1.844578E1,1.3971834E1,-7.1902215E-1,1.8249897E1,-5.121087E0,4.4728188E1,6.856134E0,3.41538E0,5.26861E0,3.007071E0,2.5909115E1,-2.7591748E0,-4.2445292E0,-8.2301056E1,-6.2612064E1,-4.3275766E0,-2.8652086E0,-3.6824336E0,-1.4325173E1,-2.1692465E1,-1.1049248E0,5.224758E0,1.9888284E0,2.7266556E1,1.5015887E1,-1.6411373E1,6.3094673E0,3.4908043E1,5.9095215E1,2.008153E1,-5.222022E0,1.6131288E0,2.6393108E0,-6.065377E0,-8.468333E1,-5.0143974E1,-7.429355E1,-2.488313E0,-1.9309145E1,-9.0136135E-1,-2.7051388E1,2.2028165E0,9.1303724E-1,2.5476205E0,2.402058E1,2.0412926E1,9.65662E0,-2.5472915E0,-2.2979884E0,1.1796561E0,3.3305845E0,3.286986E1,4.437754E1,6.501787E1,4.6567085E1,4.0501907E-2,2.3702276E1,-1.6457672E1,1.4274202E1,-7.34631E0,-6.205021E0,-4.72496E0,-2.0881724E0,-4.5582743E0,-6.485876E0,-1.7325133E0,1.3243837E0,-1.9614189E0,-6.823653E-1,-2.6990511E0,-1.6728818E0,6.5293074E-1,-2.7618024E-1,1.4526407E0,2.5683126E0,2.0634148E0,1.0491257E0,9.4690067E-1,5.2504355E-1,1.8996778E-1,-4.1815764E-1,-6.577917E-2,4.9376678E-1,2.416754E0,2.8943372E0,4.9956813E0,3.4247584E0,5.82522E0,4.1763954E0,2.1208048E0,5.643046E0,2.4873981E0,1.608121E0,-1.8502162E0,-8.092775E-1,6.1717075E-1,1.71912E0],"categories":[],"categories_nodes":[],"categories_segments":[],"categories_sizes":[],"default_left":[0,0,0,0,0,0,0,0,0,0,0,0,0,0,0,0,0,0,0,0,0,0,0,0,0,0,0,0,0,0,0,0,0,0,0,0,0,0,0,0,0,0,0,0,0,0,0,0,0,0,0,0,0,0,0,0,0,0,0,0,0,0,0,0,0,0,0,0,0,0,0,0,0,0,0,0,0,0,0,0,0,0,0,0,0,0,0,0,0,0,0,0,0,0,0,0,0,0,0,0,0,0,0,0,0,0,0,0,0,0,0,0,0,0,0,0,0,0,0,0,0],"id":1,"left_children":[1,3,5,7,9,11,13,15,17,19,21,23,25,27,29,-1,-1,31,33,35,37,39,41,-1,43,45,-1,47,49,51,53,-1,-1,-1,55,-1,-1,57,59,-1,-1,-1,61,63,-1,65,-1,67,69,71,73,75,77,79,81,-1,-1,-1,83,85,87,89,91,-1,93,95,-1,-1,97,99,101,-1,103,-1,105,107,109,111,113,-1,115,117,119,-1,-1,-1,-1,-1,-1,-1,-1,-1,-1,-1,-1,-1,-1,-1,-1,-1,-1,-1,-1,-1,-1,-1,-1,-1,-1,-1,-1,-1,-1,-1,-1,-1,-1,-1,-1,-1,-1],"loss_changes":[6.262323E6,1.4016335E6,7.1847875E5,3.2582953E4,4.40294E5,1.8309166E5,4.075855E5,2.108712E3,1.485125E4,9.0682E4,8.588159E4,3.7293688E4,1.335509E4,8.479364E4,4.296695E5,0E0,0E0,3.6772812E3,1.1678672E3,4.2209688E3,6.83625E4,1.04438125E4,2.1016469E4,0E0,2.1206914E3,1.526725E4,0E0,1.3091641E4,3.030224E4,2.4794175E5,5.7930168E4,0E0,0E0,0E0,1.4523242E3,0E0,0E0,7.71025E3,3.7201125E4,0E0,0E0,0E0,1.0276004E4,4.733961E3,0E0,1.6302344E3,0E0,5.335703E2,9.723867E3,2.336922E4,2.6744966E3,1.8903375E4,5.024775E4,1.2263734E4,4.185494E4,0E0,0E0,0E0,9.49475E3,2.0976844E4,5.16275E3,1.80629E4,5.5165938E3,0E0,1.4574102E3,2.0039629E3,0E0,0E0,2.362629E3,5.409242E3,9.1231445E2,0E0,7.537434E2,0E0,9.178841E2,5.0868125E3,7.162625E3,3.0772875E4,1.0223494E5,0E0,3.3742969E3,4.444574E3,2.885667E3,0E0,0E0,0E0,0E0,0E0,0E0,0E0,0E0,0E0,0E0,0E0,0E0,0E0,0E0,0E0,0E0,0E0,0E0,0E0,0E0,0E0,0E0,0E0,0E0,0E0,0E0,0E0,0E0,0E0,0E0,0E0,0E0,0E0,0E0,0E0,0E0,0E0,0E0],"parents":[2147483647,0,0,1,1,2,2,3,3,4,4,5,5,6,6,7,7,8,8,9,9,10,10,11,11,12,12,13,13,14,14,17,17,18,18,19,19,20,20,21,21,22,22,24,24,25,25,27,27,28,28,29,29,30,30,34,34,37,37,38,38,42,42,43,43,45,45,47,47,48,48,49,49,50,50,51,51,52,52,53,53,54,54,58,58,59,59,60,60,61,61,62,62,64,64,65,65,68,68,69,69,70,70,72,72,74,74,75,75,76,76,77,77,78,78,80,80,81,81,82,82],"right_children":[2,4,6,8,10,12,14,16,18,20,22,24,26,28,30,-1,-1,32,34,36,38,40,42,-1,44,46,-1,48,50,52,54,-1,-1,-1,56,-1,-1,58,60,-1,-1,-1,62,64,-1,66,-1,68,70,72,74,76,78,80,82,-1,-1,-1,84,86,88,90,92,-1,94,96,-1,-1,98,100,102,-1,104,-1,106,108,110,112,114,-1,116,118,120,-1,-1,-1,-1,-1,-1,-1,-1,-1,-1,-1,-1,-1,-1,-1,-1,-1,-1,-1,-1,-1,-1,-1,-1,-1,-1,-1,-1,-1,-1,-1,-1,-1,-1,-1,-1,-1,-1],"split_conditions":[8E0,1E0,1E0,2E0,6E0,1.7E1,1.2E1,1E0,4E0,1E0,7E0,1.2E1,2.3E1,5E0,2.2E1,1.2765146E0,2.2946699E-1,3E0,5E0,2E0,5E0,5E0,1E0,-3.6143265E0,1.5E1,2E1,-7.1902215E-1,9E0,6E0,1.8E1,2.3E1,3.41538E0,5.26861E0,3.007071E0,6E0,-2.7591748E0,-4.2445292E0,2E0,6E0,-4.3275766E0,-2.8652086E0,-3.6824336E0,3E0,1.3E1,-1.1049248E0,1.9E1,1.9888284E0,3E0,3E0,1E1,9E0,6E0,5E0,2E0,5E0,1.6131288E0,2.6393108E0,-6.065377E0,5E0,5E0,2E0,2E0,6E0,-9.0136135E-1,1.4E1,1.8E1,9.1303724E-1,2.5476205E0,4E0,1.1E1,1.1E1,-2.5472915E0,1.1E1,1.1796561E0,1E1,1.4E1,1.3E1,2.1E1,6E0,4.0501907E-2,4E0,3E0,6E0,-7.34631E0,-6.205021E0,-4.72496E0,-2.0881724E0,-4.5582743E0,-6.485876E0,-1.7325133E0,1.3243837E0,-1.9614189E0,-6.823653E-1,-2.6990511E0,-1.6728818E0,6.5293074E-1,-2.7618024E-1,1.4526407E0,2.5683126E0,2.0634148E0,1.0491257E0,9.4690067E-1,5.2504355E-1,1.8996778E-1,-4.1815764E-1,-6.577917E-2,4.9376678E-1,2.416754E0,2.8943372E0,4.9956813E0,3.4247584E0,5.82522E0,4.1763954E0,2.1208048E0,5.643046E0,2.4873981E0,1.608121E0,-1.8502162E0,-8.092775E-1,6.1717075E-1,1.71912E0],"split_indices":[1,1,0,0,1,1,1,0,0,0,1,1,1,0,1,0,0,0,0,1,0,0,0,0,1,1,0,1,0,1,1,0,0,0,0,0,0,1,0,0,0,0,0,1,0,1,0,0,0,1,1,0,0,0,0,0,0,0,1,1,1,0,0,0,1,1,0,0,0,1,1,0,1,0,1,1,1,1,0,0,0,0,0,0,0,0,0,0,0,0,0,0,0,0,0,0,0,0,0,0,0,0,0,0,0,0,0,0,0,0,0,0,0,0,0,0,0,0,0,0,0],"split_type":[0,0,0,0,0,0,0,0,0,0,0,0,0,0,0,0,0,0,0,0,0,0,0,0,0,0,0,0,0,0,0,0,0,0,0,0,0,0,0,0,0,0,0,0,0,0,0,0,0,0,0,0,0,0,0,0,0,0,0,0,0,0,0,0,0,0,0,0,0,0,0,0,0,0,0,0,0,0,0,0,0,0,0,0,0,0,0,0,0,0,0,0,0,0,0,0,0,0,0,0,0,0,0,0,0,0,0,0,0,0,0,0,0,0,0,0,0,0,0,0,0],"sum_hessian":[4.906E3,1.621E3,3.285E3,1.89E2,1.432E3,4.58E2,2.827E3,5.4E1,1.35E2,1.018E3,4.14E2,2.5E2,2.08E2,6.95E2,2.132E3,2.8E1,2.6E1,5E1,8.5E1,1.4E2,8.78E2,2.13E2,2.01E2,1.09E2,1.41E2,1.78E2,3E1,4.62E2,2.33E2,1.771E3,3.61E2,2.6E1,2.4E1,3.1E1,5.4E1,2.4E1,1.16E2,5.98E2,2.8E2,1.58E2,5.5E1,2.7E1,1.74E2,8.5E1,5.6E1,9.5E1,8.3E1,1.2E2,3.42E2,1.17E2,1.16E2,1.054E3,7.17E2,1.72E2,1.89E2,2.7E1,2.7E1,1.24E2,4.74E2,1.38E2,1.42E2,5.2E1,1.22E2,2.9E1,5.6E1,6.3E1,3.2E1,5.6E1,6.4E1,1.69E2,1.73E2,5.8E1,5.9E1,3.1E1,8.5E1,8.71E2,1.83E2,4.84E2,2.33E2,2.7E1,1.45E2,1.2E2,6.9E1,3.56E2,1.18E2,1.09E2,2.9E1,2.3E1,1.19E2,2.6E1,2.6E1,8.8E1,3.4E1,3E1,2.6E1,3.1E1,3.2E1,3.4E1,3E1,1.08E2,6.1E1,1.14E2,5.9E1,2.2E1,3.7E1,3.3E1,5.2E1,2.75E2,5.96E2,3E1,1.53E2,3.66E2,1.18E2,1.17E2,1.16E2,5.9E1,8.6E1,6.4E1,5.6E1,3.4E1,3.5E1],"tree_param":{"num_deleted":"0","num_feature":"3","num_nodes":"121","size_leaf_vector":"1"}},{"base_weights":[3.821788E-1,-4.3996624E1,2.2140863E1,3.2193714E1,-5.5142906E1,-1.0226159E1,2.7364218E1,4.2081914E0,2.8707226E1,-6.2069843E1,-1.43223915E1,-3.547606E0,5.4726315E-1,1.226875E1,3.6212246E1,6.502663E-1,3.2613403E1,-3.1790901E1,-6.687226E1,-7.3287206E0,-3.292457E1,-1.0415621E1,1.2710053E1,7.301323E0,2.1743053E1,4.01235E1,-1.1231951E-1,2.9313656E1,3.1596577E0,-1.2825283E0,-3.485216E1,-7.105029E1,-4.678541E1,-2.56412E1,6.0727262E0,-4.48718E0,-1.2062261E0,-1.4596819E1,-2.2861066E0,2.0904408E1,-4.3692665E0,1.2527297E1,-3.7955642E0,1.6625616E1,4.568544E1,3.0033226E1,4.815778E1,-6.3881207E0,9.793631E-1,3.140296E0,2.0981727E0,-3.0980299E0,-3.0500492E1,-7.6794205E1,-5.8506577E1,-4.280593E1,-5.474734E0,-2.5753243E0,-1.629181E0,9.4061106E-1,3.1970289E0,-3.3207923E-1,-1.841439E1,1.3595004E-1,-4.7390357E-1,9.5009775E0,2.980755E0,2.1397471E-2,-7.2471845E-1,2.479819E1,8.61909E0,-1.991616E1,1.4357063E1,8.678422E0,1.8421356E1,4.8523173E0,2.6630342E0,2.7169971E1,4.409922E1,6.0366566E1,2.999782E1,-3.3263595E0,-7.556863E-1,-1.6626298E0,-3.340017E0,-5.769854E0,-6.574296E0,-4.0485454E0,-5.6753783E0,-3.9343336E0,-2.0424194E0,-2.6721564E-1,9.831617E-1,-1.7866755E0,-1.3493901E0,1.3780795E0,3.578818E-1,1.6058357E0,3.3671029E0,1.3033555E0,4.9845344E-1,-2.7370026E0,-5.448617E-1,1.7493417E0,9.8691475E-1,1.2949368E0,2.0547326E-1,1.7601163E0,9.07249E-1,3.449153E0,1.9527273E0,2.5072348E0,4.7459197E0,3.3355935E0,5.381299E0,3.258629E0,2.3407705E0,-7.821178E-1,2.738796E-1],"categories":[],"categories_nodes":[],"categories_segments":[],"categories_sizes":[],"default_left":[0,0,0,0,0,0,0,0,0,0,0,0,0,0,0,0,0,0,0,0,0,0,0,0,0,0,0,0,0,0,0,0,0,0,0,0,0,0,0,0,0,0,0,0,0,0,0,0,0,0,0,0,0,0,0,0,0,0,0,0,0,0,0,0,0,0,0,0,0,0,0,0,0,0,0,0,0,0,0,0,0,0,0,0,0,0,0,0,0,0,0,0,0,0,0,0,0,0,0,0,0,0,0,0,0,0,0,0,0,0,0,0,0,0,0,0,0,0,0],"id":2,"left_children":[1,3,5,7,9,11,13,-1,15,17,19,-1,21,23,25,-1,27,29,31,33,35,37,39,41,43,45,47,49,-1,-1,51,53,55,57,59,-1,-1,61,63,65,67,69,71,73,75,77,79,81,-1,-1,-1,-1,83,85,87,89,-1,-1,-1,-1,91,-1,93,-1,-1,95,-1,-1,-1,97,99,101,103,105,107,-1,-1,109,111,113,115,117,-1,-1,-1,-1,-1,-1,-1,-1,-1,-1,-1,-1,-1,-1,-1,-1,-1,-1,-1,-1,-1,-1,-1,-1,-1,-1,-1,-1,-1,-1,-1,-1,-1,-1,-1,-1,-1],"loss_changes":[4.746053E6,1.3749948E6,5.5785425E5,1.1667281E4,3.980865E5,1.5940725E5,3.788805E5,0E0,1.4131766E4,1.73241E5,2.655879E4,0E0,4.613443E4,4.930436E4,2.54318E5,0E0,1.4315938E3,7.870547E3,8.39565E4,3.7213184E4,2.0737105E4,6.1530137E3,2.3043793E4,4.012005E4,4.3471484E4,1.2955975E5,1.3070942E4,2.3579297E3,0E0,0E0,2.2457812E2,5.73985E4,1.0765031E4,1.4357031E3,1.2759927E3,0E0,0E0,4.793084E3,8.43859E2,1.8355465E4,1.0772549E3,2.2326148E4,6.525006E4,4.1071875E3,8.929484E3,2.775925E4,1.9728562E5,9.050586E2,0E0,0E0,0E0,0E0,4.5274414E3,3.12475E3,2.2647688E4,1.087325E4,0E0,0E0,0E0,0E0,3.2161226E3,0E0,2.463418E2,0E0,0E0,2.2642231E3,0E0,0E0,0E0,8.997734E3,6.5373613E3,2.0082035E4,1.5112832E3,2.3793423E3,4.630008E3,0E0,0E0,3.1203281E4,1.9772469E4,4.166575E4,5.3889062E3,2.2223838E3,0E0,0E0,0E0,0E0,0E0,0E0,0E0,0E0,0E0,0E0,0E0,0E0,0E0,0E0,0E0,0E0,0E0,0E0,0E0,0E0,0E0,0E0,0E0,0E0,0E0,0E0,0E0,0E0,0E0,0E0,0E0,0E0,0E0,0E0,0E0,0E0,0E0],"parents":[2147483647,0,0,1,1,2,2,3,3,4,4,5,5,6,6,8,8,9,9,10,10,12,12,13,13,14,14,16,16,17,17,18,18,19,19,20,20,21,21,22,22,23,23,24,24,25,25,26,26,27,27,30,30,31,31,32,32,33,33,34,34,37,37,38,38,39,39,40,40,41,41,42,42,43,43,44,44,45,45,46,46,47,47,52,52,53,53,54,54,55,55,60,60,62,62,65,65,69,69,70,70,71,71,72,72,73,73,74,74,77,77,78,78,79,79,80,80,81,81],"right_children":[2,4,6,8,10,12,14,-1,16,18,20,-1,22,24,26,-1,28,30,32,34,36,38,40,42,44,46,48,50,-1,-1,52,54,56,58,60,-1,-1,62,64,66,68,70,72,74,76,78,80,82,-1,-1,-1,-1,84,86,88,90,-1,-1,-1,-1,92,-1,94,-1,-1,96,-1,-1,-1,98,100,102,104,106,108,-1,-1,110,112,114,116,118,-1,-1,-1,-1,-1,-1,-1,-1,-1,-1,-1,-1,-1,-1,-1,-1,-1,-1,-1,-1,-1,-1,-1,-1,-1,-1,-1,-1,-1,-1,-1,-1,-1,-1,-1,-1,-1],"split_conditions":[8E0,1E0,1E0,1E0,7E0,1.2E1,1.4E1,4.2081914E0,2E0,1E0,5E0,-3.547606E0,1.8E1,1.2E1,2.3E1,6.502663E-1,5E0,2E0,6E0,2E0,6E0,1.6E1,2.2E1,5E0,6E0,1.8E1,5E0,3E0,3.1596577E0,-1.2825283E0,5E0,5E0,6E0,1E0,3E0,-4.48718E0,-1.2062261E0,1.3E1,1.7E1,2E1,2.3E1,9E0,6E0,2E0,1.3E1,6E0,2.1E1,3E0,9.793631E-1,3.140296E0,2.0981727E0,-3.0980299E0,6E0,2E0,6E0,5E0,-5.474734E0,-2.5753243E0,-1.629181E0,9.4061106E-1,4E0,-3.3207923E-1,1.4E1,1.3595004E-1,-4.7390357E-1,1.9E1,2.980755E0,2.1397471E-2,-7.2471845E-1,4E0,2E0,1E1,9E0,1.3E1,5E0,4.8523173E0,2.6630342E0,2E0,1.6E1,2E0,2E0,2E0,-7.556863E-1,-1.6626298E0,-3.340017E0,-5.769854E0,-6.574296E0,-4.0485454E0,-5.6753783E0,-3.9343336E0,-2.0424194E0,-2.6721564E-1,9.831617E-1,-1.7866755E0,-1.3493901E0,1.3780795E0,3.578818E-1,1.6058357E0,3.3671029E0,1.3033555E0,4.9845344E-1,-2.7370026E0,-5.448617E-1,1.7493417E0,9.8691475E-1,1.2949368E0,2.0547326E-1,1.7601163E0,9.07249E-1,3.449153E0,1.9527273E0,2.5072348E0,4.7459197E0,3.3355935E0,5.381299E0,3.258629E0,2.3407705E0,-7.821178E-1,2.738796E-1],"split_indices":[1,1,0,0,1,1,1,0,0,0,0,0,1,1,1,0,0,1,1,0,0,1,1,0,0,1,0,0,0,0,1,0,0,0,0,0,0,1,1,1,1,1,0,0,1,0,1,0,0,0,0,0,1,1,0,0,0,0,0,0,0,0,1,0,0,1,0,0,0,0,0,1,1,1,0,0,0,0,1,0,0,0,0,0,0,0,0,0,0,0,0,0,0,0,0,0,0,0,0,0,0,0,0,0,0,0,0,0,0,0,0,0,0,0,0,0,0,0,0],"split_type":[0,0,0,0,0,0,0,0,0,0,0,0,0,0,0,0,0,0,0,0,0,0,0,0,0,0,0,0,0,0,0,0,0,0,0,0,0,0,0,0,0,0,0,0,0,0,0,0,0,0,0,0,0,0,0,0,0,0,0,0,0,0,0,0,0,0,0,0,0,0,0,0,0,0,0,0,0,0,0,0,0,0,0,0,0,0,0,0,0,0,0,0,0,0,0,0,0,0,0,0,0,0,0,0,0,0,0,0,0,0,0,0,0,0,0,0,0,0,0],"sum_hessian":[4.913E3,1.616E3,3.297E3,2.06E2,1.41E3,4.58E2,2.839E3,3.1E1,1.75E2,1.205E3,2.05E2,1.14E2,3.44E2,1.05E3,1.789E3,2.8E1,1.47E2,1.66E2,1.039E3,1.5E2,5.5E1,1.81E2,1.63E2,6.9E2,3.6E2,1.615E3,1.74E2,9.4E1,5.3E1,2.7E1,1.39E2,8.58E2,1.81E2,6.3E1,8.7E1,2.5E1,3E1,1.19E2,6.2E1,1.1E2,5.3E1,4.69E2,2.21E2,2.98E2,6.2E1,7.18E2,8.97E2,1.14E2,6E1,2.9E1,6.5E1,8.7E1,5.2E1,5.85E2,2.73E2,1.52E2,2.9E1,3.2E1,3.1E1,3E1,5.7E1,3.2E1,8.7E1,2.9E1,3.3E1,6.3E1,4.7E1,2.6E1,2.7E1,1.12E2,3.57E2,1.17E2,1.04E2,5.6E1,2.42E2,3.1E1,3.1E1,5.99E2,1.19E2,5.35E2,3.62E2,5.4E1,6E1,2.6E1,2.6E1,1.22E2,4.63E2,1.35E2,1.38E2,1.22E2,3E1,3.3E1,2.4E1,3.4E1,5.3E1,2.6E1,3.7E1,8.4E1,2.8E1,9.7E1,2.6E2,5.9E1,5.8E1,2.7E1,7.7E1,2.6E1,3E1,1.78E2,6.4E1,1.25E2,4.74E2,5.8E1,6.1E1,9E1,4.45E2,6.2E1,3E2,2.8E1,2.6E1],"tree_param":{"num_deleted":"0","num_feature":"3","num_nodes":"119","size_leaf_vector":"1"}},{"base_weights":[-2.1994771E-1,3.3204464E1,-2.6258678E1,1.8934256E1,2.6021929E1,-1.2548635E1,-5.9514282E1,7.611917E1,-4.5399994E-1,-1.913626E1,9.61712E1,-7.730623E1,-4.3824077E0,-7.9348383E0,1.2133003E2,-1.9982855E1,1.302968E1,-5.22547E1,-3.414924E0,8.467601E0,8.148559E1,-7.9638794E1,-5.372135E0,-1.9464674E1,-1.3208394E0,1.8003433E2,6.2030983E1,2.2927359E1,-6.214376E1,1.1862297E2,-1.623697E1,-1.0082862E1,-7.358447E1,1.3211322E2,-1.6307985E1,4.8668656E0,8.26432E0,-7.244492E1,-7.4853263E0,-1.0234522E0,-2.2817128E0,-9.764563E0,5.7302723E0,1.0384575E2,2.5088028E2,3.2999622E1,6.7440544E1,-2.742858E1,1.3111282E2,-3.3566492E0,-7.227047E1,5.0565628E1,1.8546988E2,-4.942134E0,-3.1971464E1,-2.046415E1,1.2685634E0,-5.5437675E1,-9.135584E1,6.0368376E0,1.2107176E1,2.1537537E1,-3.8569042E1,-7.623369E1,-5.3564034E0,-9.351675E-2,-1.1139841E0,1.1834392E1,-4.20004E0,5.9388375E0,9.053692E0,1.3542626E1,2.2048916E1,2.0627546E0,3.2601466E0,6.262818E0,4.941868E0,-1.5560129E0,-2.953317E0,7.355347E0,1.14194E1,-7.9396615E0,-3.9699557E0,2.7963061E0,4.4496174E0,1.2120903E1,1.7101528E1,-3.91512E0,7.7094424E-1,-5.7260165E0,-1.184433E0,-2.3016236E0,-1.4024787E0,-6.0788566E-1,3.9415216E-1,-7.744195E0,-1.5048207E0,-6.6860356E0,-8.458261E0,-4.7425818E-1,8.735071E0,-5.3372955E0,-1.7503603E0,-5.4843717E0,-7.1429563E0,6.943655E-1,1.0453947E0,-1.5694859E0,1.0316055E0],"categories":[],"categories_nodes":[],"categories_segments":[],"categories_sizes":[],"default_left":[0,0,0,0,0,0,0,0,0,0,0,0,0,0,0,0,0,0,0,0,0,0,0,0,0,0,0,0,0,0,0,0,0,0,0,0,0,0,0,0,0,0,0,0,0,0,0,0,0,0,0,0,0,0,0,0,0,0,0,0,0,0,0,0,0,0,0,0,0,0,0,0,0,0,0,0,0,0,0,0,0,0,0,0,0,0,0,0,0,0,0,0,0,0,0,0,0,0,0,0,0,0,0,0,0,0,0,0,0],"id":3,"left_children":[1,3,5,7,-1,9,11,13,15,17,19,21,23,-1,25,27,29,31,33,-1,35,37,-1,39,41,43,45,47,49,51,53,55,57,59,61,-1,-1,63,-1,-1,-1,65,67,69,71,73,75,77,79,-1,81,83,85,87,89,91,93,95,97,-1,-1,99,101,103,-1,-1,-1,105,107,-1,-1,-1,-1,-1,-1,-1,-1,-1,-1,-1,-1,-1,-1,-1,-1,-1,-1,-1,-1,-1,-1,-1,-1,-1,-1,-1,-1,-1,-1,-1,-1,-1,-1,-1,-1,-1,-1,-1,-1],"loss_changes":[4.2393755E6,8.46279E6,1.2476056E6,2.2507278E6,0E0,1.3912791E6,7.83403E5,3.9872082E6,3.9971806E5,9.526407E5,1.67375E2,1.321325E4,9.024666E3,0E0,1.405644E6,1.1230875E6,2.7770712E6,5.290729E5,2.1723915E6,0E0,8.0041875E3,2.985425E4,0E0,1.5331084E3,9.820125E3,1.075069E6,2.9812062E4,1.6815128E6,6.6739375E4,8.77759E5,1.2495581E5,2.34766E4,1.210305E5,7.2189E4,9.5704706E5,0E0,0E0,4.592375E3,0E0,0E0,0E0,2.2982686E3,5.505128E3,7.072125E3,7.8444E4,7.375508E2,6.225E3,1.405175E4,1.141925E4,0E0,1.15462375E5,2.7207812E3,4.63415E4,2.4451088E5,1.9029897E5,2.2474375E3,2.862861E3,2.7155156E5,1.3837875E4,0E0,0E0,9.5154875E5,3.1750688E5,1.4097375E4,0E0,0E0,0E0,2.9606934E1,8.677444E3,0E0,0E0,0E0,0E0,0E0,0E0,0E0,0E0,0E0,0E0,0E0,0E0,0E0,0E0,0E0,0E0,0E0,0E0,0E0,0E0,0E0,0E0,0E0,0E0,0E0,0E0,0E0,0E0,0E0,0E0,0E0,0E0,0E0,0E0,0E0,0E0,0E0,0E0,0E0,0E0],"parents":[2147483647,0,0,1,1,2,2,3,3,5,5,6,6,7,7,8,8,9,9,10,10,11,11,12,12,14,14,15,15,16,16,17,17,18,18,20,20,21,21,23,23,24,24,25,25,26,26,27,27,28,28,29,29,30,30,31,31,32,32,33,33,34,34,37,37,41,41,42,42,43,43,44,44,45,45,46,46,47,47,48,48,50,50,51,51,52,52,53,53,54,54,55,55,56,56,57,57,58,58,61,61,62,62,63,63,67,67,68,68],"right_children":[2,4,6,8,-1,10,12,14,16,18,20,22,24,-1,26,28,30,32,34,-1,36,38,-1,40,42,44,46,48,50,52,54,56,58,60,62,-1,-1,64,-1,-1,-1,66,68,70,72,74,76,78,80,-1,82,84,86,88,90,92,94,96,98,-1,-1,100,102,104,-1,-1,-1,106,108,-1,-1,-1,-1,-1,-1,-1,-1,-1,-1,-1,-1,-1,-1,-1,-1,-1,-1,-1,-1,-1,-1,-1,-1,-1,-1,-1,-1,-1,-1,-1,-1,-1,-1,-1,-1,-1,-1,-1,-1],"split_conditions":[2.1E1,2E1,4E1,5E0,2.6021929E1,3.9E1,4.6E1,1E0,1.1E1,2.7E1,5E0,4.5E1,1E0,-7.9348383E0,3E0,8E0,1.3E1,2.3E1,2.8E1,8.467601E0,6E0,4.3E1,-5.372135E0,4.7E1,4.7E1,2E0,1E0,7E0,9E0,1.2E1,1.7E1,2.2E1,2.5E1,1E0,3.2E1,4.8668656E0,8.26432E0,4.2E1,-7.4853263E0,-1.0234522E0,-2.2817128E0,3E0,5E0,1E0,1E0,4E0,4E0,6E0,1E0,-3.3566492E0,1E1,1E0,2E0,1.4E1,1.8E1,2E0,2E0,2.4E1,2.6E1,6.0368376E0,1.2107176E1,3.1E1,3.5E1,4.1E1,-5.3564034E0,-9.351675E-2,-1.1139841E0,2E0,6E0,5.9388375E0,9.053692E0,1.3542626E1,2.2048916E1,2.0627546E0,3.2601466E0,6.262818E0,4.941868E0,-1.5560129E0,-2.953317E0,7.355347E0,1.14194E1,-7.9396615E0,-3.9699557E0,2.7963061E0,4.4496174E0,1.2120903E1,1.7101528E1,-3.91512E0,7.7094424E-1,-5.7260165E0,-1.184433E0,-2.3016236E0,-1.4024787E0,-6.0788566E-1,3.9415216E-1,-7.744195E0,-1.5048207E0,-6.6860356E0,-8.458261E0,-4.7425818E-1,8.735071E0,-5.3372955E0,-1.7503603E0,-5.4843717E0,-7.1429563E0,6.943655E-1,1.0453947E0,-1.5694859E0,1.0316055E0],"split_indices":[2,2,2,2,0,2,2,2,2,2,0,2,0,0,2,2,2,2,2,0,0,2,0,2,2,2,0,2,2,2,2,2,2,0,2,0,0,2,0,0,0,0,0,0,0,2,2,2,0,0,2,0,0,2,2,0,0,2,2,0,0,2,2,2,0,0,0,0,0,0,0,0,0,0,0,0,0,0,0,0,0,0,0,0,0,0,0,0,0,0,0,0,0,0,0,0,0,0,0,0,0,0,0,0,0,0,0,0,0],"split_type":[0,0,0,0,0,0,0,0,0,0,0,0,0,0,0,0,0,0,0,0,0,0,0,0,0,0,0,0,0,0,0,0,0,0,0,0,0,0,0,0,0,0,0,0,0,0,0,0,0,0,0,0,0,0,0,0,0,0,0,0,0,0,0,0,0,0,0,0,0,0,0,0,0,0,0,0,0,0,0,0,0,0,0,0,0,0,0,0,0,0,0,0,0,0,0,0,0,0,0,0,0,0,0,0,0,0,0,0,0],"sum_hessian":[4.869E3,2.132E3,2.737E3,2.029E3,1.03E2,1.939E3,7.98E2,5.13E2,1.516E3,1.829E3,1.1E2,6.03E2,1.95E2,1.07E2,4.06E2,6.19E2,8.97E2,5.88E2,1.241E3,7.7E1,3.3E1,5.07E2,9.6E1,3.2E1,1.63E2,2.03E2,2.03E2,3.07E2,3.12E2,1.94E2,7.03E2,1.98E2,3.9E2,1.07E2,1.134E3,1.6E1,1.7E1,2.99E2,2.08E2,1.8E1,1.4E1,7.4E1,8.9E1,9.9E1,1.04E2,3.3E1,1.7E2,2.1E2,9.7E1,1E2,2.12E2,9.7E1,9.7E1,4.1E2,2.93E2,1.03E2,9.5E1,1.95E2,1.95E2,2E1,8.7E1,4.2E2,7.14E2,2E2,9.9E1,2.2E1,5.2E1,5.5E1,3.4E1,1.4E1,8.5E1,1.5E1,8.9E1,1.6E1,1.7E1,8.5E1,8.5E1,1.01E2,1.09E2,1.3E1,8.4E1,1.09E2,1.03E2,1.5E1,8.2E1,3.4E1,6.3E1,1.03E2,3.07E2,9.5E1,1.98E2,3.3E1,7E1,2.7E1,6.8E1,9.7E1,9.8E1,9.5E1,1E2,3.17E2,1.03E2,2.92E2,4.22E2,9.7E1,1.03E2,1.1E1,4.4E1,1.8E1,1.6E1],"tree_param":{"num_deleted":"0","num_feature":"3","num_nodes":"109","size_leaf_vector":"1"}},{"base_weights":[1.4622264E-2,3.335136E1,-2.6333546E1,1.9570747E1,2.5186275E1,-1.376953E1,-5.5413174E1,7.444057E1,1.6239512E0,-1.9497643E1,9.290349E1,-7.102636E1,-9.429041E0,-7.314527E0,1.1575781E2,9.401536E0,-2.9567415E1,-5.0173702E1,-4.5854006E0,5.3911905E0,9.812817E1,-7.318188E1,-4.962944E0,-2.0163513E1,-7.301762E0,1.7258292E2,5.8640953E1,-1.6873072E1,3.670121E1,-5.118069E0,-1.2876738E1,-9.438259E0,-6.934966E1,4.3823143E1,-3.7028786E1,8.914584E0,6.1587243E0,-6.693765E1,-6.850493E0,-1.059394E0,-2.247879E0,-1.0832504E1,-3.3058004E0,1.01437904E2,2.4485922E2,2.304791E0,5.3568096E0,2.157401E1,-5.5388645E1,1.1522829E2,-2.5560048E0,4.835795E0,-3.0812521E1,-2.0988201E1,2.3326113E0,-5.4767056E1,-8.387689E1,1.22048965E2,2.3092247E1,-5.8884953E1,-2.0402603E1,-7.056163E1,-4.994496E0,-6.0986624E0,-1.0946804E0,8.9978284E-1,-5.801087E0,6.009643E0,8.76526E0,1.1591156E1,2.2029541E1,-2.0483296E0,9.672424E0,-3.0120044E0,-5.387847E0,3.42934E0,1.5209695E1,-2.0163774E0,1.5551002E0,-1.247559E0,7.22149E-1,-3.253179E0,-2.1487076E0,-2.4947243E0,-1.4720474E0,-9.1830486E-1,3.8258848E-1,-7.1288705E0,-1.8755603E0,-6.1966276E0,-7.7348466E0,5.6450534E0,1.0799609E1,-1.88757E-1,8.534203E0,-2.6746886E0,-6.1693387E0,3.1863484E0,-3.2067385E0,-5.1151657E0,-6.5587378E0,-6.877169E-1,-2.618515E-1,-6.7324567E-1,3.4440753E-1],"categories":[],"categories_nodes":[],"categories_segments":[],"categories_sizes":[],"default_left":[0,0,0,0,0,0,0,0,0,0,0,0,0,0,0,0,0,0,0,0,0,0,0,0,0,0,0,0,0,0,0,0,0,0,0,0,0,0,0,0,0,0,0,0,0,0,0,0,0,0,0,0,0,0,0,0,0,0,0,0,0,0,0,0,0,0,0,0,0,0,0,0,0,0,0,0,0,0,0,0,0,0,0,0,0,0,0,0,0,0,0,0,0,0,0,0,0,0,0,0,0,0,0,0,0],"id":4,"left_children":[1,3,5,7,-1,9,11,13,15,17,19,21,23,-1,25,27,29,31,33,-1,35,37,-1,39,41,43,45,47,49,-1,51,53,55,57,59,-1,-1,61,-1,-1,-1,63,65,67,69,-1,-1,71,73,75,77,79,81,83,85,87,89,91,93,95,97,99,-1,101,-1,-1,103,-1,-1,-1,-1,-1,-1,-1,-1,-1,-1,-1,-1,-1,-1,-1,-1,-1,-1,-1,-1,-1,-1,-1,-1,-1,-1,-1,-1,-1,-1,-1,-1,-1,-1,-1,-1,-1,-1],"loss_changes":[4.2758665E6,7.933057E6,9.926424E5,2.0136672E6,0E0,1.1627778E6,5.8805675E5,3.383194E6,3.7435716E5,8.250077E5,8.0525E3,1.099575E4,4.62533E3,0E0,1.2946395E6,8.8647025E5,1.6209672E5,4.6021888E5,1.9098251E6,0E0,8.8615625E3,2.266E4,0E0,1.3738496E3,2.4473232E3,1.0087235E6,3.254175E4,9.341061E5,1.8684438E6,0E0,6.46397E4,2.5880006E4,8.0356125E4,7.8856706E5,2.6334256E5,0E0,0E0,3.7005E3,0E0,0E0,0E0,9.1882715E2,3.0125078E3,2.98625E3,1.60851E5,0E0,0E0,1.3745369E6,5.3072938E4,9.9357225E5,1.8541406E5,7.8795625E3,3.1795547E3,2.3438516E3,2.893242E3,1.9853031E5,9.943375E3,3.1285125E4,7.75732E5,1.23787125E5,4.381348E5,9.796875E3,0E0,1.764696E2,0E0,0E0,1.6452063E3,0E0,0E0,0E0,0E0,0E0,0E0,0E0,0E0,0E0,0E0,0E0,0E0,0E0,0E0,0E0,0E0,0E0,0E0,0E0,0E0,0E0,0E0,0E0,0E0,0E0,0E0,0E0,0E0,0E0,0E0,0E0,0E0,0E0,0E0,0E0,0E0,0E0,0E0],"parents":[2147483647,0,0,1,1,2,2,3,3,5,5,6,6,7,7,8,8,9,9,10,10,11,11,12,12,14,14,15,15,16,16,17,17,18,18,20,20,21,21,23,23,24,24,25,25,26,26,27,27,28,28,30,30,31,31,32,32,33,33,34,34,37,37,41,41,42,42,43,43,44,44,47,47,48,48,49,49,50,50,51,51,52,52,53,53,54,54,55,55,56,56,57,57,58,58,59,59,60,60,61,61,63,63,66,66],"right_children":[2,4,6,8,-1,10,12,14,16,18,20,22,24,-1,26,28,30,32,34,-1,36,38,-1,40,42,44,46,48,50,-1,52,54,56,58,60,-1,-1,62,-1,-1,-1,64,66,68,70,-1,-1,72,74,76,78,80,82,84,86,88,90,92,94,96,98,100,-1,102,-1,-1,104,-1,-1,-1,-1,-1,-1,-1,-1,-1,-1,-1,-1,-1,-1,-1,-1,-1,-1,-1,-1,-1,-1,-1,-1,-1,-1,-1,-1,-1,-1,-1,-1,-1,-1,-1,-1,-1,-1],"split_conditions":[2.1E1,2E1,4E1,5E0,2.5186275E1,3.9E1,4.6E1,1E0,1.7E1,2.7E1,1E0,4.5E1,1E0,-7.314527E0,3E0,1.1E1,1.8E1,2.3E1,3.2E1,5.3911905E0,5E0,4.3E1,-4.962944E0,4.7E1,4.7E1,2E0,1E0,8E0,1.3E1,-5.118069E0,1.9E1,2.2E1,2.5E1,2.8E1,3.5E1,8.914584E0,6.1587243E0,4.2E1,-6.850493E0,-1.059394E0,-2.247879E0,3E0,2E0,1E0,1E0,2.304791E0,5.3568096E0,7E0,9E0,1.2E1,1.5E1,1E0,3E0,2E0,1E0,2.4E1,2.6E1,1E0,3.1E1,3.3E1,3.6E1,4.1E1,-4.994496E0,2E0,-1.0946804E0,8.9978284E-1,6E0,6.009643E0,8.76526E0,1.1591156E1,2.2029541E1,-2.0483296E0,9.672424E0,-3.0120044E0,-5.387847E0,3.42934E0,1.5209695E1,-2.0163774E0,1.5551002E0,-1.247559E0,7.22149E-1,-3.253179E0,-2.1487076E0,-2.4947243E0,-1.4720474E0,-9.1830486E-1,3.8258848E-1,-7.1288705E0,-1.8755603E0,-6.1966276E0,-7.7348466E0,5.6450534E0,1.0799609E1,-1.88757E-1,8.534203E0,-2.6746886E0,-6.1693387E0,3.1863484E0,-3.2067385E0,-5.1151657E0,-6.5587378E0,-6.877169E-1,-2.618515E-1,-6.7324567E-1,3.4440753E-1],"split_indices":[2,2,2,2,0,2,2,2,2,2,0,2,0,0,2,2,2,2,2,0,0,2,0,2,2,2,0,2,2,0,2,2,2,2,2,0,0,2,0,0,0,0,0,0,0,0,0,2,2,2,2,0,0,0,0,2,2,0,2,2,2,2,0,0,0,0,0,0,0,0,0,0,0,0,0,0,0,0,0,0,0,0,0,0,0,0,0,0,0,0,0,0,0,0,0,0,0,0,0,0,0,0,0,0,0],"split_type":[0,0,0,0,0,0,0,0,0,0,0,0,0,0,0,0,0,0,0,0,0,0,0,0,0,0,0,0,0,0,0,0,0,0,0,0,0,0,0,0,0,0,0,0,0,0,0,0,0,0,0,0,0,0,0,0,0,0,0,0,0,0,0,0,0,0,0,0,0,0,0,0,0,0,0,0,0,0,0,0,0,0,0,0,0,0,0,0,0,0,0,0,0,0,0,0,0,0,0,0,0,0,0,0,0],"sum_hessian":[4.866E3,2.148E3,2.718E3,2.044E3,1.04E2,1.899E3,8.19E2,5.03E2,1.541E3,1.803E3,9.6E1,6.11E2,2.08E2,1.02E2,4.01E2,1.234E3,3.07E2,5.89E2,1.214E3,1.7E1,7.9E1,5.11E2,1E2,3.3E1,1.75E2,2E2,2.01E2,6.29E2,6.05E2,1.05E2,2.02E2,1.89E2,4E2,4.87E2,7.27E2,5.6E1,2.3E1,3.04E2,2.07E2,1.7E1,1.6E1,9.2E1,8.3E1,1.02E2,9.8E1,3.1E1,1.7E2,3.15E2,3.14E2,2.01E2,4.04E2,1.02E2,1E2,9.5E1,9.4E1,2.02E2,1.98E2,1.01E2,3.86E2,3.13E2,4.14E2,1.96E2,1.08E2,3.1E1,6.1E1,1.2E1,7.1E1,1.3E1,8.9E1,1.6E1,8.2E1,2.12E2,1.03E2,1.02E2,2.12E2,9.6E1,1.05E2,2E2,2.04E2,1.6E1,8.6E1,3.6E1,6.4E1,2.4E1,7.1E1,1.3E1,8.1E1,1.03E2,9.9E1,9.8E1,1E2,1.3E1,8.8E1,2.93E2,9.3E1,1.13E2,2E2,9.7E1,3.17E2,9.4E1,1.02E2,1.7E1,1.4E1,5.8E1,1.3E1],"tree_param":{"num_deleted":"0","num_feature":"3","num_nodes":"105","size_leaf_vector":"1"}},{"base_weights":[8.5231215E-1,-4.5553085E1,1.9705917E1,2.5888937E1,-5.7335014E1,2.4147701E0,3.1356236E1,2.216411E1,3.4334957E1,-3.2099583E1,-6.1470154E1,-2.941231E1,7.395555E0,3.5156147E1,-1.1200825E0,2.771435E0,1.9073837E1,3.2562497E0,2.4533277E0,-1.339944E0,-3.468713E1,-6.51649E1,-4.2406162E1,-3.5284027E1,-1.6004324E1,2.5139945E0,1.9189035E1,7.169579E0,3.9706028E1,-7.496534E0,1.1590881E0,-6.853378E-2,2.438803E1,-3.7978947E0,-2.299725E0,-6.9524124E1,-5.607014E1,-4.9728134E1,-2.9972582E0,-2.0540283E0,-3.1692064E0,-9.1234493E-1,-1.7053453E0,9.496639E0,-1.2556286E1,2.8193724E1,1.0473137E1,-1.5671188E0,2.7911325E1,3.6788376E1,5.4243927E1,6.280336E-1,-1.1777123E1,2.6081505E0,1.7519385E0,-5.2074265E0,-7.129515E1,-3.9260416E0,-6.514264E1,-4.7665243E0,-4.4831738E1,1.8394E-1,1.172193E1,-2.2678223E1,-2.5624747E0,-2.677335E-1,3.2729404E1,6.9427047E0,2.2489605E0,-8.2361144E-1,1.8988391E0,2.6765785E0,1.6215802E0,4.126777E1,1.6924112E1,6.2942707E1,1.9916443E0,-9.392463E0,-1.6486899E0,-6.209627E0,-5.204778E0,-3.950444E0,-5.728278E0,-2.909561E0,-4.3590145E0,-2.111567E-1,9.421143E-2,1.7805665E0,6.929871E-1,-2.5831363E0,-6.2025625E-1,-1.5367891E0,1.6402686E-1,2.4393444E0,3.7350729E0,1.0650892E0,-1.0121908E0,5.4959025E-2,1.8994564E-1,2.714087E0,4.0663114E0,9.8102677E-1,2.2235808E0,4.495591E0,6.129508E0,-1.3196975E0,2.1367665E-1],"categories":[],"categories_nodes":[],"categories_segments":[],"categories_sizes":[],"default_left":[0,0,0,0,0,0,0,0,0,0,0,0,0,0,0,0,0,0,0,0,0,0,0,0,0,0,0,0,0,0,0,0,0,0,0,0,0,0,0,0,0,0,0,0,0,0,0,0,0,0,0,0,0,0,0,0,0,0,0,0,0,0,0,0,0,0,0,0,0,0,0,0,0,0,0,0,0,0,0,0,0,0,0,0,0,0,0,0,0,0,0,0,0,0,0,0,0,0,0,0,0,0,0,0,0,0,0],"id":5,"left_children":[1,3,5,7,9,11,13,15,17,19,21,23,25,27,29,-1,31,-1,-1,-1,33,35,37,39,41,43,45,47,49,51,-1,-1,53,-1,-1,55,57,59,-1,-1,-1,-1,-1,61,63,65,67,69,71,73,75,-1,77,-1,-1,-1,79,-1,81,-1,83,85,87,89,91,-1,93,95,-1,-1,97,-1,-1,99,101,103,-1,105,-1,-1,-1,-1,-1,-1,-1,-1,-1,-1,-1,-1,-1,-1,-1,-1,-1,-1,-1,-1,-1,-1,-1,-1,-1,-1,-1,-1,-1],"loss_changes":[4.306325E6,1.1984168E6,7.0499E5,5.5938906E3,1.25441E5,2.2373612E5,2.5808362E5,4.2302188E3,2.3914844E2,6.6759375E3,7.105475E4,1.4472344E4,7.018788E4,2.380875E5,2.1135016E4,0E0,1.2072176E4,0E0,0E0,0E0,1.0241094E4,3.083175E4,6.4943438E3,2.8037031E3,1.1212734E3,9.103831E4,2.7723484E4,4.7703117E4,6.629525E4,1.004938E4,0E0,0E0,1.4472031E3,0E0,0E0,3.0565E3,2.075575E4,2.7301562E2,0E0,0E0,0E0,0E0,0E0,1.2245406E4,2.7658832E4,2.5026797E4,1.0435977E4,5.362891E3,2.1124766E3,1.188905E5,6.912475E4,0E0,2.109836E3,0E0,0E0,0E0,8.0215E3,0E0,5.4165E3,0E0,2.0024219E3,2.9702863E2,1.5502172E4,1.685882E4,9.993778E3,0E0,5.1708438E3,1.696685E4,0E0,0E0,5.9843384E1,0E0,0E0,6.9651875E4,1.2190594E4,1.57573125E4,0E0,7.307625E3,0E0,0E0,0E0,0E0,0E0,0E0,0E0,0E0,0E0,0E0,0E0,0E0,0E0,0E0,0E0,0E0,0E0,0E0,0E0,0E0,0E0,0E0,0E0,0E0,0E0,0E0,0E0,0E0,0E0],"parents":[2147483647,0,0,1,1,2,2,3,3,4,4,5,5,6,6,7,7,8,8,9,9,10,10,11,11,12,12,13,13,14,14,16,16,20,20,21,21,22,22,23,23,24,24,25,25,26,26,27,27,28,28,29,29,32,32,35,35,36,36,37,37,43,43,44,44,45,45,46,46,47,47,48,48,49,49,50,50,52,52,56,56,58,58,60,60,61,61,62,62,63,63,64,64,66,66,67,67,70,70,73,73,74,74,75,75,77,77],"right_children":[2,4,6,8,10,12,14,16,18,20,22,24,26,28,30,-1,32,-1,-1,-1,34,36,38,40,42,44,46,48,50,52,-1,-1,54,-1,-1,56,58,60,-1,-1,-1,-1,-1,62,64,66,68,70,72,74,76,-1,78,-1,-1,-1,80,-1,82,-1,84,86,88,90,92,-1,94,96,-1,-1,98,-1,-1,100,102,104,-1,106,-1,-1,-1,-1,-1,-1,-1,-1,-1,-1,-1,-1,-1,-1,-1,-1,-1,-1,-1,-1,-1,-1,-1,-1,-1,-1,-1,-1,-1],"split_conditions":[7E0,1E0,1.4E1,5E0,1E0,1E0,2.3E1,1E0,6E0,2E0,6E0,1.2E1,1.2E1,1E0,5E0,2.771435E0,2E0,3.2562497E0,2.4533277E0,-1.339944E0,4E0,5E0,4E0,8E0,1.3E1,5E0,1.3E1,2E1,6E0,1E0,1.1590881E0,-6.853378E-2,3E0,-3.7978947E0,-2.299725E0,2E0,6E0,2E0,-2.9972582E0,-2.0540283E0,-3.1692064E0,-9.1234493E-1,-1.7053453E0,8E0,6E0,2E0,6E0,1.6E1,2.2E1,5E0,2.1E1,6.280336E-1,4E0,2.6081505E0,1.7519385E0,-5.2074265E0,5E0,-3.9260416E0,2E0,-4.7665243E0,3E0,2E0,9E0,1E1,8E0,-2.677335E-1,6E0,5E0,2.2489605E0,-8.2361144E-1,1.7E1,2.6765785E0,1.6215802E0,1.8E1,2E1,1.8E1,1.9916443E0,3E0,-1.6486899E0,-6.209627E0,-5.204778E0,-3.950444E0,-5.728278E0,-2.909561E0,-4.3590145E0,-2.111567E-1,9.421143E-2,1.7805665E0,6.929871E-1,-2.5831363E0,-6.2025625E-1,-1.5367891E0,1.6402686E-1,2.4393444E0,3.7350729E0,1.0650892E0,-1.0121908E0,5.4959025E-2,1.8994564E-1,2.714087E0,4.0663114E0,9.8102677E-1,2.2235808E0,4.495591E0,6.129508E0,-1.3196975E0,2.1367665E-1],"split_indices":[1,1,1,0,0,0,1,0,0,1,1,1,1,0,0,0,0,0,0,0,1,0,0,1,1,0,1,1,0,0,0,0,0,0,0,1,0,0,0,0,0,0,0,1,0,0,0,1,1,0,1,0,0,0,0,0,1,0,1,0,0,0,1,1,1,0,0,0,0,0,1,0,0,1,1,1,0,0,0,0,0,0,0,0,0,0,0,0,0,0,0,0,0,0,0,0,0,0,0,0,0,0,0,0,0,0,0],"split_type":[0,0,0,0,0,0,0,0,0,0,0,0,0,0,0,0,0,0,0,0,0,0,0,0,0,0,0,0,0,0,0,0,0,0,0,0,0,0,0,0,0,0,0,0,0,0,0,0,0,0,0,0,0,0,0,0,0,0,0,0,0,0,0,0,0,0,0,0,0,0,0,0,0,0,0,0,0,0,0,0,0,0,0,0,0,0,0,0,0,0,0,0,0,0,0,0,0,0,0,0,0,0,0,0,0,0,0],"sum_hessian":[4.92E3,1.421E3,3.499E3,2.01E2,1.22E3,1.409E3,2.09E3,1.42E2,5.9E1,1.73E2,1.047E3,1.9E2,1.219E3,1.871E3,2.19E2,2.9E1,1.13E2,2.7E1,3.2E1,2.5E1,1.48E2,8.75E2,1.72E2,1.31E2,5.9E1,8.63E2,3.56E2,2.62E2,1.609E3,1.54E2,6.5E1,2.4E1,8.9E1,5.7E1,9.1E1,5.87E2,2.88E2,7.8E1,9.4E1,2.8E1,1.03E2,2.9E1,3E1,5.9E2,2.73E2,1.74E2,1.82E2,1.85E2,7.7E1,1.343E3,2.66E2,3.4E1,1.2E2,2.7E1,6.2E1,1.23E2,4.64E2,1.47E2,1.41E2,2.7E1,5.1E1,1.14E2,4.76E2,1.35E2,1.38E2,2.2E1,1.52E2,1.51E2,3.1E1,5.4E1,1.31E2,5E1,2.7E1,1.095E3,2.48E2,2.06E2,6E1,9.4E1,2.6E1,3.42E2,1.22E2,2.5E1,1.16E2,2.4E1,2.7E1,2.9E1,8.5E1,1.24E2,3.52E2,8.7E1,4.8E1,3E1,1.08E2,1.2E2,3.2E1,1.16E2,3.5E1,3.1E1,1E2,5.03E2,5.92E2,1.63E2,8.5E1,1.13E2,9.3E1,6.1E1,3.3E1],"tree_param":{"num_deleted":"0","num_feature":"3","num_nodes":"107","size_leaf_vector":"1"}},{"base_weights":[-1.4970412E0,-3.8582165E1,1.7466492E1,2.0926088E1,-4.6687103E1,-6.2497944E-1,2.348975E1,2.934261E0,1.8081558E1,-5.3909153E1,-2.8501762E1,-2.758242E0,4.494312E0,1.0265626E0,2.7296572E1,1.1868439E1,2.3265356E1,-2.1905704E1,-5.917642E1,-3.6971237E1,-1.907561E1,8.96139E0,-4.3068986E0,-1.2350356E1,1.3949358E1,3.0143976E1,-2.8729773E0,1.510108E0,8.41867E0,2.3483298E0,1.0124582E0,-7.0917344E-1,-2.030993E0,-6.3961903E1,-4.912253E1,-3.9598732E1,-3.0359873E1,-2.103994E1,-6.5298337E-1,1.0543873E1,7.1879864E0,-1.5007847E1,7.3791504E0,-2.9140028E-1,-1.4185318E1,1.5751802E1,4.040816E-1,2.406153E1,3.7395077E1,-1.3573623E0,9.121543E0,8.419918E-1,5.905258E-1,-5.6242832E1,-6.579823E1,-3.8179996E1,-6.0027897E1,-3.1337147E0,-3.9160342E0,-1.8241841E0,-3.153784E0,-1.738228E1,-3.0618258E0,1.3210542E1,9.707645E0,4.157735E0,1.0557041E1,-1.8132347E0,-8.289275E0,9.966565E-1,5.8123527E0,-2.0952985E0,-1.0819637E1,1.00749445E1,1.7039851E0,2.7792538E1,2.0537378E1,4.8133007E1,2.0781927E1,8.3571315E-2,1.0166564E0,-4.220339E0,-5.095059E0,-5.724793E0,-4.7652135E0,-3.4130762E0,-2.1130784E0,-3.7919357E0,-5.331527E0,-2.4214966E0,-1.1370044E0,3.4438354E-1,1.7252195E0,1.0714977E0,5.662544E-1,-7.601044E-1,7.004108E-1,1.6763744E0,1.1563741E-1,-9.767842E-2,-1.2305235E0,2.1984626E-1,6.3910896E-1,-1.2005944E0,-6.123744E-1,1.359429E0,3.8380086E-1,1.1557802E0,2.5139494E0,1.4660999E0,2.1939938E0,4.5517077E0,2.840628E0,2.0589654E0,1.4037557E0],"categories":[],"categories_nodes":[],"categories_segments":[],"categories_sizes":[],"default_left":[0,0,0,0,0,0,0,0,0,0,0,0,0,0,0,0,0,0,0,0,0,0,0,0,0,0,0,0,0,0,0,0,0,0,0,0,0,0,0,0,0,0,0,0,0,0,0,0,0,0,0,0,0,0,0,0,0,0,0,0,0,0,0,0,0,0,0,0,0,0,0,0,0,0,0,0,0,0,0,0,0,0,0,0,0,0,0,0,0,0,0,0,0,0,0,0,0,0,0,0,0,0,0,0,0,0,0,0,0,0,0,0,0,0,0],"id":6,"left_children":[1,3,5,7,9,11,13,-1,15,17,19,-1,21,23,25,27,29,31,33,35,37,39,41,43,45,47,49,-1,51,-1,-1,-1,-1,53,55,57,59,61,-1,63,65,67,69,-1,71,73,-1,75,77,-1,79,-1,-1,81,83,85,87,-1,-1,-1,-1,89,-1,91,93,95,97,-1,99,-1,101,-1,103,105,-1,107,109,111,113,-1,-1,-1,-1,-1,-1,-1,-1,-1,-1,-1,-1,-1,-1,-1,-1,-1,-1,-1,-1,-1,-1,-1,-1,-1,-1,-1,-1,-1,-1,-1,-1,-1,-1,-1,-1],"loss_changes":[3.421355E6,7.948605E5,3.5078775E5,7.357617E3,1.887685E5,1.3360981E5,2.0648675E5,0E0,5.102543E3,1.73343E5,3.234625E4,0E0,2.7402316E4,6.0848668E4,1.7748025E5,1.5173496E3,4.514957E3,4.5620547E3,3.963E4,2.567375E3,4.2153125E3,1.2207578E3,2.949792E4,2.764039E3,2.864129E3,8.2325375E4,2.8857775E4,0E0,4.5302734E1,0E0,0E0,0E0,0E0,4.78975E3,3.2433812E4,5.563906E2,3.3323516E3,8.951367E3,0E0,4.114004E2,2.2123145E3,5.350961E3,7.360215E2,0E0,4.9704707E3,3.720457E3,0E0,1.29591875E4,1.522375E5,0E0,2.3377031E3,0E0,0E0,2.321875E2,7.475125E3,4.0560938E3,5.0754688E3,0E0,0E0,0E0,0E0,5.6471406E3,0E0,3.632496E3,1.6299355E3,6.6839243E3,9.040691E3,0E0,2.8705176E3,0E0,4.8230713E2,0E0,1.2698486E3,2.268276E3,0E0,1.55018125E4,8.659016E3,4.4854375E4,4.7959688E3,0E0,0E0,0E0,0E0,0E0,0E0,0E0,0E0,0E0,0E0,0E0,0E0,0E0,0E0,0E0,0E0,0E0,0E0,0E0,0E0,0E0,0E0,0E0,0E0,0E0,0E0,0E0,0E0,0E0,0E0,0E0,0E0,0E0,0E0,0E0,0E0],"parents":[2147483647,0,0,1,1,2,2,3,3,4,4,5,5,6,6,8,8,9,9,10,10,12,12,13,13,14,14,15,15,16,16,17,17,18,18,19,19,20,20,21,21,22,22,23,23,24,24,25,25,26,26,28,28,33,33,34,34,35,35,36,36,37,37,39,39,40,40,41,41,42,42,44,44,45,45,47,47,48,48,50,50,53,53,54,54,55,55,56,56,61,61,63,63,64,64,65,65,66,66,68,68,70,70,72,72,73,73,75,75,76,76,77,77,78,78],"right_children":[2,4,6,8,10,12,14,-1,16,18,20,-1,22,24,26,28,30,32,34,36,38,40,42,44,46,48,50,-1,52,-1,-1,-1,-1,54,56,58,60,62,-1,64,66,68,70,-1,72,74,-1,76,78,-1,80,-1,-1,82,84,86,88,-1,-1,-1,-1,90,-1,92,94,96,98,-1,100,-1,102,-1,104,106,-1,108,110,112,114,-1,-1,-1,-1,-1,-1,-1,-1,-1,-1,-1,-1,-1,-1,-1,-1,-1,-1,-1,-1,-1,-1,-1,-1,-1,-1,-1,-1,-1,-1,-1,-1,-1,-1,-1,-1],"split_conditions":[8E0,1E0,1.2E1,1E0,6E0,1E0,1E0,2.934261E0,4E0,1E0,7E0,-2.758242E0,5E0,1.8E1,2.3E1,2E0,6E0,2E0,5E0,5E0,6E0,3E0,6E0,1.3E1,2.3E1,1.8E1,4E0,1.510108E0,3E0,2.3483298E0,1.0124582E0,-7.0917344E-1,-2.030993E0,2E0,6E0,4E0,6E0,5E0,-6.5298337E-1,9E0,4E0,1E1,9E0,-2.9140028E-1,1.4E1,2E1,4.040816E-1,4E0,2.1E1,-1.3573623E0,5E0,8.419918E-1,5.905258E-1,3E0,5E0,5E0,2E0,-3.1337147E0,-3.9160342E0,-1.8241841E0,-3.153784E0,1E0,-3.0618258E0,2E0,2E0,9E0,1E1,-1.8132347E0,1.1E1,9.966565E-1,1E1,-2.0952985E0,1.6E1,1.9E1,1.7039851E0,1.3E1,6E0,5E0,2.2E1,8.3571315E-2,1.0166564E0,-4.220339E0,-5.095059E0,-5.724793E0,-4.7652135E0,-3.4130762E0,-2.1130784E0,-3.7919357E0,-5.331527E0,-2.4214966E0,-1.1370044E0,3.4438354E-1,1.7252195E0,1.0714977E0,5.662544E-1,-7.601044E-1,7.004108E-1,1.6763744E0,1.1563741E-1,-9.767842E-2,-1.2305235E0,2.1984626E-1,6.3910896E-1,-1.2005944E0,-6.123744E-1,1.359429E0,3.8380086E-1,1.1557802E0,2.5139494E0,1.4660999E0,2.1939938E0,4.5517077E0,2.840628E0,2.0589654E0,1.4037557E0],"split_indices":[1,1,1,0,1,0,0,0,0,0,1,0,0,1,1,0,0,1,0,0,0,0,0,1,1,1,0,0,0,0,0,0,0,1,0,0,0,0,0,1,0,1,1,0,1,1,0,0,1,0,0,0,0,0,1,1,1,0,0,0,0,0,0,0,0,1,1,0,1,0,1,0,1,1,0,1,0,0,1,0,0,0,0,0,0,0,0,0,0,0,0,0,0,0,0,0,0,0,0,0,0,0,0,0,0,0,0,0,0,0,0,0,0,0,0],"split_type":[0,0,0,0,0,0,0,0,0,0,0,0,0,0,0,0,0,0,0,0,0,0,0,0,0,0,0,0,0,0,0,0,0,0,0,0,0,0,0,0,0,0,0,0,0,0,0,0,0,0,0,0,0,0,0,0,0,0,0,0,0,0,0,0,0,0,0,0,0,0,0,0,0,0,0,0,0,0,0,0,0,0,0,0,0,0,0,0,0,0,0,0,0,0,0,0,0,0,0,0,0,0,0,0,0,0,0,0,0,0,0,0,0,0,0],"sum_hessian":[4.863E3,1.645E3,3.218E3,1.97E2,1.448E3,8.04E2,2.414E3,3.1E1,1.66E2,1.035E3,4.13E2,1.09E2,6.95E2,3.5E2,2.064E3,7.7E1,8.9E1,1.47E2,8.88E2,2.16E2,1.97E2,4.61E2,2.34E2,1.72E2,1.78E2,1.886E3,1.78E2,2.6E1,5.1E1,6.1E1,2.8E1,2.3E1,1.24E2,5.98E2,2.9E2,1.51E2,6.5E1,1.67E2,3E1,2.41E2,2.2E2,1.22E2,1.12E2,3E1,1.42E2,1.48E2,3E1,1.028E3,8.58E2,8.4E1,9.4E1,2E1,3.1E1,1.21E2,4.77E2,1.47E2,1.43E2,1.22E2,2.9E1,3.2E1,3.3E1,1.37E2,3E1,5.4E1,1.87E2,1.17E2,1.03E2,6E1,6.2E1,2.7E1,8.5E1,3.2E1,1.1E2,6.8E1,8E1,4.96E2,5.32E2,5.2E2,3.38E2,2.6E1,6.8E1,6E1,6.1E1,3.59E2,1.18E2,1.2E2,2.7E1,3.2E1,1.11E2,3.2E1,1.05E2,2.5E1,2.9E1,8.9E1,9.8E1,2.8E1,8.9E1,5E1,5.3E1,3E1,3.2E1,3.2E1,5.3E1,5.3E1,5.7E1,3.1E1,3.7E1,7.1E1,4.25E2,3.52E2,1.8E2,3.57E2,1.63E2,1.69E2,1.69E2],"tree_param":{"num_deleted":"0","num_feature":"3","num_nodes":"115","size_leaf_vector":"1"}},{"base_weights":[1.5963669E-1,-3.5444077E1,1.819954E1,1.828176E1,-4.3062084E1,-6.3715506E0,2.2169788E1,2.4213762E0,1.6332363E1,-5.0898552E1,-2.3959618E1,-2.036498E1,1.2392426E1,7.666388E0,2.7028542E1,1.7461903E1,1.1397494E0,-3.077436E1,-5.423254E1,-3.3945015E1,-1.3060161E1,-3.1543798E1,-1.19188E1,1.1659684E0,3.713682E-1,1.2464384E1,-1.7384526E0,3.0694992E1,8.766122E0,1.5805897E1,1.8255334E0,-3.399711E1,-1.6362315E0,-5.825947E1,-4.5596676E1,-1.6639545E0,-3.5918304E1,-3.3022852E0,-8.002374E0,-3.0837586E0,-2.5299326E1,-3.233884E-1,-1.1432855E0,1.6900417E1,8.012866E0,-1.2887739E1,9.906393E0,2.3808939E1,4.0851353E1,1.5291807E1,2.4478166E0,1.6903633E0,1.1524988E0,-1.6496562E0,-3.706957E1,-4.485919E0,-6.245468E1,-4.8810963E1,-2.9044043E1,-3.6517916E0,-3.4114048E1,3.7678635E-1,-2.2239628E1,-1.8075154E0,-2.4216273E0,2.8479382E1,1.3357802E1,1.3977595E1,9.1409224E-1,-2.045013E1,-4.2731482E-1,7.100508E0,1.268616E1,2.2314638E1,3.1245876E1,4.8522717E1,2.4682924E1,1.9996353E1,6.9094706E0,-4.722318E0,1.4508771E0,-3.3843377E0,-2.4011738E0,-4.593513E0,-5.3685274E0,-2.8243632E0,-4.4779906E0,-9.280316E-1,-3.886945E0,-2.2272813E0,-2.9791105E0,2.179235E-1,-1.5899312E-1,-2.5959804E0,-1.1526909E0,1.6009082E0,3.0177631E0,5.229093E-1,1.4209511E0,1.054195E0,1.2616206E0,-1.695517E-1,3.4974396E-1,-2.051346E0,-1.3341563E0,9.2424154E-1,2.7483338E-1,1.635271E0,4.4820252E-1,2.2571535E0,1.3134041E0,2.3486226E0,3.8565357E0,4.522349E0,2.6479425E0,1.446975E0,2.6335616E0,1.4591844E0,2.204355E0,-7.0773697E-1,1.7670232E0,-1.6223197E-1,-1.0939652E0],"categories":[],"categories_nodes":[],"categories_segments":[],"categories_sizes":[],"default_left":[0,0,0,0,0,0,0,0,0,0,0,0,0,0,0,0,0,0,0,0,0,0,0,0,0,0,0,0,0,0,0,0,0,0,0,0,0,0,0,0,0,0,0,0,0,0,0,0,0,0,0,0,0,0,0,0,0,0,0,0,0,0,0,0,0,0,0,0,0,0,0,0,0,0,0,0,0,0,0,0,0,0,0,0,0,0,0,0,0,0,0,0,0,0,0,0,0,0,0,0,0,0,0,0,0,0,0,0,0,0,0,0,0,0,0,0,0,0,0,0,0,0,0],"id":7,"left_children":[1,3,5,7,9,11,13,-1,15,17,19,21,23,25,27,29,-1,31,33,35,37,39,41,-1,-1,43,45,47,49,51,-1,53,-1,55,57,-1,59,-1,61,-1,63,-1,-1,65,67,69,71,73,75,77,79,-1,-1,-1,81,-1,83,85,87,-1,89,91,93,-1,-1,95,97,99,101,103,-1,105,107,109,111,113,115,117,119,121,-1,-1,-1,-1,-1,-1,-1,-1,-1,-1,-1,-1,-1,-1,-1,-1,-1,-1,-1,-1,-1,-1,-1,-1,-1,-1,-1,-1,-1,-1,-1,-1,-1,-1,-1,-1,-1,-1,-1,-1,-1,-1,-1],"loss_changes":[3.1112432E6,6.675109E5,3.1377512E5,3.7598438E3,2.123965E5,1.1788481E5,1.948495E5,0E0,2.908828E2,6.616275E4,4.4941047E4,2.388954E4,2.321295E3,3.1428238E4,1.3853525E5,5.189922E2,0E0,4.6003594E3,2.74595E4,5.292828E3,2.6584754E4,2.7496953E3,2.0482402E3,0E0,0E0,8.967984E3,3.0767955E4,1.19738875E5,1.4311055E4,5.2245703E2,0E0,4.173211E3,0E0,7.906625E3,1.34796875E4,0E0,1.1641719E3,0E0,2.0288738E4,0E0,1.0228906E2,0E0,0E0,9.054141E3,9.810632E3,7.008703E3,8.146875E2,1.07603125E4,8.5129875E4,6.6052305E3,1.911928E4,0E0,0E0,0E0,1.4398594E3,0E0,4.96875E2,1.49094375E4,1.4528945E4,0E0,8.64E2,5.543046E2,4.268289E3,0E0,0E0,3.0803281E3,4.503754E3,1.8164062E0,1.0388263E3,7.292754E2,0E0,8.6935913E2,2.7683975E3,2.6291344E4,6.6552656E3,4.268525E4,1.0832547E4,1.3021836E3,1.3974686E4,2.790889E3,0E0,0E0,0E0,0E0,0E0,0E0,0E0,0E0,0E0,0E0,0E0,0E0,0E0,0E0,0E0,0E0,0E0,0E0,0E0,0E0,0E0,0E0,0E0,0E0,0E0,0E0,0E0,0E0,0E0,0E0,0E0,0E0,0E0,0E0,0E0,0E0,0E0,0E0,0E0,0E0,0E0,0E0,0E0],"parents":[2147483647,0,0,1,1,2,2,3,3,4,4,5,5,6,6,8,8,9,9,10,10,11,11,12,12,13,13,14,14,15,15,17,17,18,18,19,19,20,20,21,21,22,22,25,25,26,26,27,27,28,28,29,29,31,31,33,33,34,34,36,36,38,38,40,40,43,43,44,44,45,45,46,46,47,47,48,48,49,49,50,50,54,54,56,56,57,57,58,58,60,60,61,61,62,62,65,65,66,66,67,67,68,68,69,69,71,71,72,72,73,73,74,74,75,75,76,76,77,77,78,78,79,79],"right_children":[2,4,6,8,10,12,14,-1,16,18,20,22,24,26,28,30,-1,32,34,36,38,40,42,-1,-1,44,46,48,50,52,-1,54,-1,56,58,-1,60,-1,62,-1,64,-1,-1,66,68,70,72,74,76,78,80,-1,-1,-1,82,-1,84,86,88,-1,90,92,94,-1,-1,96,98,100,102,104,-1,106,108,110,112,114,116,118,120,122,-1,-1,-1,-1,-1,-1,-1,-1,-1,-1,-1,-1,-1,-1,-1,-1,-1,-1,-1,-1,-1,-1,-1,-1,-1,-1,-1,-1,-1,-1,-1,-1,-1,-1,-1,-1,-1,-1,-1,-1,-1,-1,-1],"split_conditions":[8E0,1E0,1E0,1E0,6E0,1.7E1,1.2E1,2.4213762E0,5E0,1E0,7E0,1.2E1,2.3E1,5E0,2.2E1,4E0,1.1397494E0,5E0,5E0,1E0,1E0,1E1,1.3E1,1.1659684E0,3.713682E-1,3E0,6E0,1.8E1,2.3E1,2E0,1.8255334E0,2E0,-1.6362315E0,3E0,5E0,-1.6639545E0,2E0,-3.3022852E0,5E0,-3.0837586E0,1.1E1,-3.233884E-1,-1.1432855E0,9E0,1E1,1E1,1E1,6E0,5E0,5E0,5E0,1.6903633E0,1.1524988E0,-1.6496562E0,4E0,-4.485919E0,2E0,2E0,6E0,-3.6517916E0,3E0,3E0,6E0,-1.8075154E0,-2.4216273E0,2E0,1E1,9E0,4E0,9E0,-4.2731482E-1,9E0,1.1E1,4E0,1.7E1,2.1E1,6E0,4E0,6E0,4E0,1.4508771E0,-3.3843377E0,-2.4011738E0,-4.593513E0,-5.3685274E0,-2.8243632E0,-4.4779906E0,-9.280316E-1,-3.886945E0,-2.2272813E0,-2.9791105E0,2.179235E-1,-1.5899312E-1,-2.5959804E0,-1.1526909E0,1.6009082E0,3.0177631E0,5.229093E-1,1.4209511E0,1.054195E0,1.2616206E0,-1.695517E-1,3.4974396E-1,-2.051346E0,-1.3341563E0,9.2424154E-1,2.7483338E-1,1.635271E0,4.4820252E-1,2.2571535E0,1.3134041E0,2.3486226E0,3.8565357E0,4.522349E0,2.6479425E0,1.446975E0,2.6335616E0,1.4591844E0,2.204355E0,-7.0773697E-1,1.7670232E0,-1.6223197E-1,-1.0939652E0],"split_indices":[1,1,0,0,1,1,1,0,0,0,1,1,1,0,1,0,0,1,0,0,0,1,1,0,0,0,0,1,1,0,0,1,0,0,1,0,0,0,0,0,1,0,0,1,1,1,1,0,0,0,0,0,0,0,1,0,1,1,0,0,0,0,0,0,0,0,1,1,0,1,0,1,1,0,1,1,0,0,0,0,0,0,0,0,0,0,0,0,0,0,0,0,0,0,0,0,0,0,0,0,0,0,0,0,0,0,0,0,0,0,0,0,0,0,0,0,0,0,0,0,0,0,0],"split_type":[0,0,0,0,0,0,0,0,0,0,0,0,0,0,0,0,0,0,0,0,0,0,0,0,0,0,0,0,0,0,0,0,0,0,0,0,0,0,0,0,0,0,0,0,0,0,0,0,0,0,0,0,0,0,0,0,0,0,0,0,0,0,0,0,0,0,0,0,0,0,0,0,0,0,0,0,0,0,0,0,0,0,0,0,0,0,0,0,0,0,0,0,0,0,0,0,0,0,0,0,0,0,0,0,0,0,0,0,0,0,0,0,0,0,0,0,0,0,0,0,0,0,0],"sum_hessian":[4.842E3,1.628E3,3.214E3,2.02E2,1.426E3,4.47E2,2.767E3,2.9E1,1.73E2,1.01E3,4.16E2,2.56E2,1.91E2,6.95E2,2.072E3,1.18E2,5.5E1,1.45E2,8.65E2,2.16E2,2E2,1.09E2,1.47E2,1.59E2,3.2E1,4.6E2,2.35E2,1.725E3,3.47E2,8.9E1,2.9E1,1.11E2,3.4E1,5.86E2,2.79E2,2.8E1,1.88E2,3.1E1,1.69E2,5.6E1,5.3E1,2.7E1,1.2E2,2.29E2,2.31E2,1.2E2,1.15E2,1.03E3,6.95E2,1.7E2,1.77E2,2.5E1,6.4E1,2.1E1,9E1,2.87E2,2.99E2,2.32E2,4.7E1,3.1E1,1.57E2,1.07E2,6.2E1,3E1,2.3E1,5.2E1,1.77E2,1.25E2,1.06E2,6E1,6E1,5.9E1,5.6E1,8.61E2,1.69E2,4.7E2,2.25E2,1.08E2,6.2E1,1.2E2,5.7E1,6.1E1,2.9E1,6.4E1,2.35E2,5.8E1,1.74E2,2.4E1,2.3E1,3E1,1.27E2,5.4E1,5.3E1,2.9E1,3.3E1,2.5E1,2.7E1,6.1E1,1.16E2,6.2E1,6.3E1,5.6E1,5E1,2.9E1,3.1E1,2.8E1,3.1E1,2.8E1,2.8E1,5.01E2,3.6E2,1.42E2,2.7E1,3.51E2,1.19E2,1.1E2,1.15E2,8E1,2.8E1,3E1,3.2E1,9.1E1,2.9E1],"tree_param":{"num_deleted":"0","num_feature":"3","num_nodes":"123","size_leaf_vector":"1"}},{"base_weights":[-2.547565E-1,2.8111082E1,-2.2553335E1,1.618041E1,2.3435556E1,-1.0495012E1,-4.9668343E1,6.608906E1,-2.7066115E-1,-4.586981E1,5.030201E0,-6.46221E1,-6.112277E0,-6.673161E0,1.01070145E2,7.18541E0,-2.8598207E1,-1.1631831E1,-6.1561657E1,1.1818473E2,-4.9776473E0,-6.632107E1,-4.6243396E0,-1.0559781E1,-1.7311057E0,1.4362228E2,5.674496E1,-1.6079075E1,3.0785767E1,-4.8556676E0,-1.321606E1,-1.9812164E0,5.293602E-2,-4.820824E1,-7.624246E1,4.595849E0,1.0831879E1,-1.3522974E1,8.3263535E1,-6.0550972E1,-6.261229E0,-8.53311E0,-1.1138638E0,-1.0700326E0,1.7241174E-1,9.0096985E1,1.9999338E2,3.025644E0,5.958885E1,2.3564495E1,-5.2441105E1,9.828393E1,-2.289349E0,5.9125466E0,-3.0502304E1,3.5386677E0,-6.8226683E-1,-6.5285993E0,-1.6343086E1,-5.5912232E0,-7.05003E0,2.146505E1,-3.3482388E1,5.378383E0,7.219046E0,-6.385992E1,-4.5367384E0,-7.876943E-1,-7.2773757E0,-1.7303567E0,6.9372505E-1,6.989101E0,1.0930152E1,1.2260252E1,1.803081E1,5.56187E0,4.200395E0,-1.8690895E0,9.743493E0,-2.7873924E0,-5.0971146E0,3.286376E0,1.3518391E1,-3.2621386E0,7.217454E-1,-8.829393E-1,7.444687E-1,-3.5974538E0,-2.3728366E0,-4.5002562E-1,8.923133E-1,-9.8336285E-1,-2.3405805E0,-4.0943113E-1,8.190517E0,-4.5759063E0,-1.4813715E0,-4.611466E0,-5.980435E0,-4.5272306E-1,-7.254183E-1,1.2033663E-1,-1.086671E0],"categories":[],"categories_nodes":[],"categories_segments":[],"categories_sizes":[],"default_left":[0,0,0,0,0,0,0,0,0,0,0,0,0,0,0,0,0,0,0,0,0,0,0,0,0,0,0,0,0,0,0,0,0,0,0,0,0,0,0,0,0,0,0,0,0,0,0,0,0,0,0,0,0,0,0,0,0,0,0,0,0,0,0,0,0,0,0,0,0,0,0,0,0,0,0,0,0,0,0,0,0,0,0,0,0,0,0,0,0,0,0,0,0,0,0,0,0,0,0,0,0,0,0],"id":8,"left_children":[1,3,5,7,-1,9,11,13,15,17,19,21,23,-1,25,27,29,31,33,35,37,39,-1,41,43,45,47,49,51,-1,53,-1,55,57,59,-1,-1,61,63,65,-1,67,-1,-1,69,71,73,-1,75,77,79,81,83,85,87,89,-1,-1,91,-1,-1,93,95,-1,-1,97,-1,-1,99,101,-1,-1,-1,-1,-1,-1,-1,-1,-1,-1,-1,-1,-1,-1,-1,-1,-1,-1,-1,-1,-1,-1,-1,-1,-1,-1,-1,-1,-1,-1,-1,-1,-1],"loss_changes":[3.0582252E6,6.402599E6,8.845634E5,1.669214E6,0E0,1.02998306E6,5.4216025E5,2.5812912E6,3.2336016E5,3.06595E5,1.4772814E6,6.10275E3,4.1515703E3,0E0,7.595055E5,6.6594375E5,1.440548E5,2.5548139E4,7.3171875E4,6.9556625E4,9.0523156E5,2.12555E4,0E0,4.8150586E2,2.3000803E3,6.06558E5,9.5800625E3,8.820049E5,1.3441958E6,0E0,6.9949984E4,0E0,2.6930322E3,1.9706831E5,8.385625E3,0E0,0E0,7.6470306E5,7.149375E2,3.07375E3,0E0,3.2402344E0,0E0,0E0,1.4685074E3,1.7428312E4,5.248325E4,0E0,8.029E3,1.254859E6,5.0075438E4,7.3488825E5,1.6298169E5,5.0827837E3,1.7092422E3,4.2633994E3,0E0,0E0,5.114717E3,0E0,0E0,8.0383225E5,2.3270575E5,0E0,0E0,9.492375E3,0E0,0E0,3.3903442E1,2.7712737E3,0E0,0E0,0E0,0E0,0E0,0E0,0E0,0E0,0E0,0E0,0E0,0E0,0E0,0E0,0E0,0E0,0E0,0E0,0E0,0E0,0E0,0E0,0E0,0E0,0E0,0E0,0E0,0E0,0E0,0E0,0E0,0E0,0E0],"parents":[2147483647,0,0,1,1,2,2,3,3,5,5,6,6,7,7,8,8,9,9,10,10,11,11,12,12,14,14,15,15,16,16,17,17,18,18,19,19,20,20,21,21,23,23,24,24,25,25,26,26,27,27,28,28,30,30,32,32,33,33,34,34,37,37,38,38,39,39,41,41,44,44,45,45,46,46,48,48,49,49,50,50,51,51,52,52,53,53,54,54,55,55,58,58,61,61,62,62,65,65,68,68,69,69],"right_children":[2,4,6,8,-1,10,12,14,16,18,20,22,24,-1,26,28,30,32,34,36,38,40,-1,42,44,46,48,50,52,-1,54,-1,56,58,60,-1,-1,62,64,66,-1,68,-1,-1,70,72,74,-1,76,78,80,82,84,86,88,90,-1,-1,92,-1,-1,94,96,-1,-1,98,-1,-1,100,102,-1,-1,-1,-1,-1,-1,-1,-1,-1,-1,-1,-1,-1,-1,-1,-1,-1,-1,-1,-1,-1,-1,-1,-1,-1,-1,-1,-1,-1,-1,-1,-1,-1],"split_conditions":[2.1E1,2E1,4E1,5E0,2.3435556E1,2.7E1,4.6E1,1E0,1.7E1,2.3E1,2.8E1,4.5E1,4.7E1,-6.673161E0,3E0,1.1E1,1.8E1,2.2E1,2.5E1,1E0,3.9E1,4.3E1,-4.6243396E0,4E0,1E0,2E0,1E0,8E0,1.3E1,-4.8556676E0,1.9E1,-1.9812164E0,5E0,2.4E1,2.6E1,4.595849E0,1.0831879E1,3.2E1,1E0,4.2E1,-6.261229E0,2E0,-1.1138638E0,-1.0700326E0,6E0,6E0,2E0,3.025644E0,4E0,7E0,9E0,1.2E1,1.4E1,1E0,1E0,2E0,-6.8226683E-1,-6.5285993E0,5E0,-5.5912232E0,-7.05003E0,3.1E1,3.5E1,5.378383E0,7.219046E0,4.1E1,-4.5367384E0,-7.876943E-1,3E0,5E0,6.9372505E-1,6.989101E0,1.0930152E1,1.2260252E1,1.803081E1,5.56187E0,4.200395E0,-1.8690895E0,9.743493E0,-2.7873924E0,-5.0971146E0,3.286376E0,1.3518391E1,-3.2621386E0,7.217454E-1,-8.829393E-1,7.444687E-1,-3.5974538E0,-2.3728366E0,-4.5002562E-1,8.923133E-1,-9.8336285E-1,-2.3405805E0,-4.0943113E-1,8.190517E0,-4.5759063E0,-1.4813715E0,-4.611466E0,-5.980435E0,-4.5272306E-1,-7.254183E-1,1.2033663E-1,-1.086671E0],"split_indices":[2,2,2,2,0,2,2,2,2,2,2,2,2,0,2,2,2,2,2,0,2,2,0,0,0,2,0,2,2,0,2,0,0,2,2,0,0,2,0,2,0,0,0,0,0,0,0,0,2,2,2,2,2,0,0,0,0,0,0,0,0,2,2,0,0,2,0,0,0,0,0,0,0,0,0,0,0,0,0,0,0,0,0,0,0,0,0,0,0,0,0,0,0,0,0,0,0,0,0,0,0,0,0],"split_type":[0,0,0,0,0,0,0,0,0,0,0,0,0,0,0,0,0,0,0,0,0,0,0,0,0,0,0,0,0,0,0,0,0,0,0,0,0,0,0,0,0,0,0,0,0,0,0,0,0,0,0,0,0,0,0,0,0,0,0,0,0,0,0,0,0,0,0,0,0,0,0,0,0,0,0,0,0,0,0,0,0,0,0,0,0,0,0,0,0,0,0,0,0,0,0,0,0,0,0,0,0,0,0],"sum_hessian":[4.833E3,2.127E3,2.706E3,2.032E3,9.5E1,1.874E3,8.32E2,5.03E2,1.529E3,5.71E2,1.303E3,6.19E2,2.13E2,9.7E1,4.06E2,1.211E3,3.18E2,1.8E2,3.91E2,1.05E2,1.198E3,5.18E2,1.01E2,1.05E2,1.08E2,2.06E2,2E2,6.1E2,6.01E2,1.08E2,2.1E2,8.8E1,9.2E1,2.07E2,1.84E2,1.7E1,8.8E1,1.093E3,1.05E2,3.15E2,2.03E2,6.3E1,4.2E1,1.5E1,9.3E1,1.07E2,9.9E1,2.6E1,1.74E2,2.92E2,3.18E2,1.97E2,4.04E2,1E2,1.1E2,6.5E1,2.7E1,1.06E2,1.01E2,9E1,9.4E1,3.97E2,6.96E2,1.8E1,8.7E1,2E2,1.15E2,3.3E1,3E1,7.6E1,1.7E1,9.5E1,1.2E1,2.5E1,7.4E1,9.6E1,7.8E1,1.96E2,9.6E1,1E2,2.18E2,1.03E2,9.4E1,9.2E1,3.12E2,1.5E1,8.5E1,1.3E1,9.7E1,2.9E1,3.6E1,7.4E1,2.7E1,2.96E2,1.01E2,2.95E2,4.01E2,9.8E1,1.02E2,1.5E1,1.5E1,6E1,1.6E1],"tree_param":{"num_deleted":"0","num_feature":"3","num_nodes":"103","size_leaf_vector":"1"}},{"base_weights":[1.3393478E0,2.9651283E1,-2.1189466E1,1.8161156E1,2.3903561E2,-1.0526128E1,-4.6705482E1,6.873854E1,1.301192E0,1.82577E1,2.379794E1,-1.5507022E1,7.69058E1,-5.9509193E1,-6.965867E0,-6.110243E0,1.0227254E2,7.8480663E0,-2.4517498E1,-4.029698E1,-2.8247814E0,4.2394695E0,6.8296432E0,-4.142467E0,-6.134512E1,-1.1340995E1,-2.0568748E0,1.4850616E2,5.3298096E1,-1.3597825E1,2.9178461E1,-4.434835E0,-1.0854875E1,-7.965157E0,-5.5565063E1,7.153553E1,-1.8194199E1,-6.3632633E1,-4.291568E0,-1.1308566E0,-1.0326106E1,-1.4089156E0,7.1017265E-1,6.59772E0,2.160508E2,2.7886562E0,5.6905647E1,2.2880917E1,-4.6576756E1,9.344602E1,-2.8713748E0,7.8238235E0,-3.0136026E1,-1.7679878E1,1.0852528E0,-4.229567E1,-7.001039E1,9.755885E1,4.1064632E1,1.3004825E1,-3.1128345E1,-5.862822E1,-5.711415E0,-3.6529702E-1,-9.692654E-1,8.850616E0,-3.5239494E0,1.4252869E1,2.0133816E1,4.991575E0,4.2128296E0,-1.7357354E0,8.97141E0,-2.6417463E0,-4.5219536E0,3.084608E0,1.2237768E1,-2.8583052E0,6.142971E-1,-7.1589583E-1,9.1179234E-1,-3.2856073E0,-2.3655517E0,-1.7673905E0,-1.363215E0,3.0542678E-1,-4.5636758E-1,-5.959608E0,-1.3642167E0,-5.13194E0,-6.5376406E0,4.807887E0,8.658908E0,2.1099236E0,3.608481E0,-2.0290627E0,7.338539E0,-4.275E0,-1.3665267E0,-5.5425124E0,-4.11966E0,7.173459E-2,1.235889E0,-5.823973E-1,5.6985885E-1],"categories":[],"categories_nodes":[],"categories_segments":[],"categories_sizes":[],"default_left":[0,0,0,0,0,0,0,0,0,0,0,0,0,0,0,0,0,0,0,0,0,0,0,0,0,0,0,0,0,0,0,0,0,0,0,0,0,0,0,0,0,0,0,0,0,0,0,0,0,0,0,0,0,0,0,0,0,0,0,0,0,0,0,0,0,0,0,0,0,0,0,0,0,0,0,0,0,0,0,0,0,0,0,0,0,0,0,0,0,0,0,0,0,0,0,0,0,0,0,0,0,0,0,0,0],"id":9,"left_children":[1,3,5,7,9,11,13,15,17,-1,-1,19,21,23,25,-1,27,29,31,33,35,-1,-1,-1,37,39,41,43,45,47,49,-1,51,53,55,57,59,61,-1,-1,63,-1,65,-1,67,-1,69,71,73,75,77,79,81,83,85,87,89,91,93,95,97,99,-1,-1,-1,101,103,-1,-1,-1,-1,-1,-1,-1,-1,-1,-1,-1,-1,-1,-1,-1,-1,-1,-1,-1,-1,-1,-1,-1,-1,-1,-1,-1,-1,-1,-1,-1,-1,-1,-1,-1,-1,-1,-1],"loss_changes":[3.1566325E6,5.271694E6,7.4937725E5,1.773595E6,4.48965E4,8.4821925E5,4.12743E5,2.4812842E6,2.6405094E5,0E0,0E0,5.7868225E5,9.1265E3,8.155E3,4.2506895E3,0E0,9.453405E5,5.703786E5,1.2272117E5,3.0709838E5,1.3944658E6,0E0,0E0,0E0,8.470625E3,9.394238E1,3.90374E3,9.97578E5,1.2907125E4,7.493503E5,1.2876214E6,0E0,7.766734E4,1.7691553E4,7.811975E4,1.6172125E5,4.083765E5,5.774125E3,0E0,0E0,5.257993E2,0E0,2.8230674E3,0E0,8.23635E4,0E0,1.675E2,1.0939551E6,3.51835E4,6.179495E5,1.3416275E5,5.662198E3,6.6403906E2,1.1463867E2,1.786731E3,1.6694097E5,9.4099375E3,2.1244875E4,2.1970312E3,8.307664E5,2.1079438E5,1.16716875E4,0E0,0E0,0E0,1.3166416E3,1.9724645E3,0E0,0E0,0E0,0E0,0E0,0E0,0E0,0E0,0E0,0E0,0E0,0E0,0E0,0E0,0E0,0E0,0E0,0E0,0E0,0E0,0E0,0E0,0E0,0E0,0E0,0E0,0E0,0E0,0E0,0E0,0E0,0E0,0E0,0E0,0E0,0E0,0E0,0E0],"parents":[2147483647,0,0,1,1,2,2,3,3,4,4,5,5,6,6,7,7,8,8,11,11,12,12,13,13,14,14,16,16,17,17,18,18,19,19,20,20,24,24,25,25,26,26,27,27,28,28,29,29,30,30,32,32,33,33,34,34,35,35,36,36,37,37,40,40,42,42,44,44,46,46,47,47,48,48,49,49,50,50,51,51,52,52,53,53,54,54,55,55,56,56,57,57,58,58,59,59,60,60,61,61,65,65,66,66],"right_children":[2,4,6,8,10,12,14,16,18,-1,-1,20,22,24,26,-1,28,30,32,34,36,-1,-1,-1,38,40,42,44,46,48,50,-1,52,54,56,58,60,62,-1,-1,64,-1,66,-1,68,-1,70,72,74,76,78,80,82,84,86,88,90,92,94,96,98,100,-1,-1,-1,102,104,-1,-1,-1,-1,-1,-1,-1,-1,-1,-1,-1,-1,-1,-1,-1,-1,-1,-1,-1,-1,-1,-1,-1,-1,-1,-1,-1,-1,-1,-1,-1,-1,-1,-1,-1,-1,-1,-1],"split_conditions":[2.1E1,2E1,4E1,5E0,5E0,3.9E1,4.6E1,1E0,1.7E1,1.82577E1,2.379794E1,2.7E1,1E0,4.1E1,4.7E1,-6.110243E0,3E0,1.1E1,1.8E1,2.3E1,2.9E1,4.2394695E0,6.8296432E0,-4.142467E0,4.5E1,2E0,1E0,2E0,1E0,8E0,1.3E1,-4.434835E0,1.9E1,2.2E1,2.5E1,2.8E1,3.2E1,4.3E1,-4.291568E0,-1.1308566E0,3E0,-1.4089156E0,3E0,6.59772E0,3E0,2.7886562E0,5E0,7E0,9E0,1.2E1,1.4E1,1E0,1E0,2E0,5E0,2.4E1,2.6E1,1E0,1E0,3.1E1,3.5E1,4.2E1,-5.711415E0,-3.6529702E-1,-9.692654E-1,2E0,6E0,1.4252869E1,2.0133816E1,4.991575E0,4.2128296E0,-1.7357354E0,8.97141E0,-2.6417463E0,-4.5219536E0,3.084608E0,1.2237768E1,-2.8583052E0,6.142971E-1,-7.1589583E-1,9.1179234E-1,-3.2856073E0,-2.3655517E0,-1.7673905E0,-1.363215E0,3.0542678E-1,-4.5636758E-1,-5.959608E0,-1.3642167E0,-5.13194E0,-6.5376406E0,4.807887E0,8.658908E0,2.1099236E0,3.608481E0,-2.0290627E0,7.338539E0,-4.275E0,-1.3665267E0,-5.5425124E0,-4.11966E0,7.173459E-2,1.235889E0,-5.823973E-1,5.6985885E-1],"split_indices":[2,2,2,2,0,2,2,2,2,0,0,2,0,2,2,0,2,2,2,2,2,0,0,0,2,0,0,2,0,2,2,0,2,2,2,2,2,2,0,0,0,0,0,0,0,0,0,2,2,2,2,0,0,0,0,2,2,0,0,2,2,2,0,0,0,0,0,0,0,0,0,0,0,0,0,0,0,0,0,0,0,0,0,0,0,0,0,0,0,0,0,0,0,0,0,0,0,0,0,0,0,0,0,0,0],"split_type":[0,0,0,0,0,0,0,0,0,0,0,0,0,0,0,0,0,0,0,0,0,0,0,0,0,0,0,0,0,0,0,0,0,0,0,0,0,0,0,0,0,0,0,0,0,0,0,0,0,0,0,0,0,0,0,0,0,0,0,0,0,0,0,0,0,0,0,0,0,0,0,0,0,0,0,0,0,0,0,0,0,0,0,0,0,0,0,0,0,0,0,0,0,0,0,0,0,0,0,0,0,0,0,0,0],"sum_hessian":[4.947E3,2.192E3,2.755E3,2.079E3,1.13E2,1.944E3,8.11E2,5.19E2,1.56E3,8.2E1,3.1E1,1.84E3,1.04E2,6.13E2,1.98E2,9.9E1,4.2E2,1.245E3,3.15E2,6.22E2,1.218E3,1.8E1,8.6E1,1E2,5.13E2,1.04E2,9.4E1,2.15E2,2.05E2,6.21E2,6.24E2,1.01E2,2.14E2,2E2,4.22E2,2.08E2,1.01E3,4.13E2,1E2,2.9E1,7.5E1,1.4E1,8E1,1.07E2,1.08E2,3.3E1,1.72E2,2.95E2,3.26E2,2.07E2,4.17E2,1.09E2,1.05E2,9.6E1,1.04E2,2.22E2,2E2,1.11E2,9.7E1,2.96E2,7.14E2,2.07E2,2.06E2,1.4E1,6.1E1,2.7E1,5.3E1,4.1E1,6.7E1,1.14E2,5.8E1,1.95E2,1E2,1.11E2,2.15E2,1.01E2,1.06E2,1.02E2,3.15E2,1.7E1,9.2E1,1.4E1,9.1E1,2.3E1,7.3E1,7.5E1,2.9E1,1.04E2,1.18E2,1.02E2,9.8E1,1.6E1,9.5E1,1.3E1,8.4E1,1.98E2,9.8E1,3.02E2,4.12E2,1.1E2,9.7E1,1.2E1,1.5E1,4E1,1.3E1],"tree_param":{"num_deleted":"0","num_feature":"3","num_nodes":"105","size_leaf_vector":"1"}},{"base_weights":[2.4251852E-2,2.4350494E1,-1.913568E1,1.3957657E1,2.2672943E2,-8.977065E0,-4.279926E1,5.2019016E1,1.5571252E0,1.9887222E2,2.396505E1,-3.8412907E1,4.285913E0,-5.41012E1,-6.297656E0,-5.6268783E0,8.367796E1,1.3034606E1,-1.1784615E1,1.8009691E1,1.392787E1,-8.042017E0,-5.3010265E1,6.231801E1,-6.5728655E0,-5.575267E1,-3.8155322E0,-1.2990984E0,-3.1715267E0,1.2678576E2,4.1222942E1,-6.1449656E0,1.3621547E2,-3.143019E0,-2.250226E1,-1.6269472E1,-1.455153E-1,-4.103192E1,-6.508386E1,8.798649E1,3.4780308E1,-1.4547996E1,5.990483E0,-5.1061367E1,-5.224093E0,-9.669195E0,3.731172E0,7.06031E1,1.8168774E2,5.817378E0,4.6886955E1,1.8372202E1,-2.4414076E1,8.013872E0,1.2687081E1,-3.116773E1,5.0562243E0,-4.0256476E0,-8.945556E0,-1.4368893E1,-1.5091931E0,1.9818401E0,-5.686638E0,-5.5566726E0,-1.5902142E1,-4.728016E0,-6.0472975E0,4.192883E0,8.472589E0,1.6125933E0,3.7649437E1,1.7185652E1,-2.7790743E1,-5.3629158E1,-3.7876487E0,-1.267791E-1,-1.164889E1,1.0652944E0,5.837242E0,5.4386926E0,8.1165E0,8.906147E0,1.6283566E1,8.9235485E-1,-8.2592264E-2,4.090392E0,3.43393E0,-1.6582209E0,8.604352E0,-3.642172E0,2.945517E0,-2.800464E0,-1.9480529E0,-5.7933694E-1,9.510556E-1,5.9468114E-1,-2.1743817E0,-1.5710958E0,-7.524736E-1,-2.3523529E-1,4.2022938E-1,-8.345741E-1,-1.5343204E-1,-9.036716E-1,-2.3470829E0,3.3588085E0,2.6188276E0,-1.967503E0,7.6193266E0,-3.7415867E0,-1.2271436E0,-3.8585477E0,-5.066848E0,-7.1102166E-1,-1.1888503E0,5.4491156E-1,-3.2117638E-1,1.0188662E0,1.2831007E-1],"categories":[],"categories_nodes":[],"categories_segments":[],"categories_sizes":[],"default_left":[0,0,0,0,0,0,0,0,0,0,0,0,0,0,0,0,0,0,0,0,0,0,0,0,0,0,0,0,0,0,0,0,0,0,0,0,0,0,0,0,0,0,0,0,0,0,0,0,0,0,0,0,0,0,0,0,0,0,0,0,0,0,0,0,0,0,0,0,0,0,0,0,0,0,0,0,0,0,0,0,0,0,0,0,0,0,0,0,0,0,0,0,0,0,0,0,0,0,0,0,0,0,0,0,0,0,0,0,0,0,0,0,0,0,0,0,0,0,0],"id":10,"left_children":[1,3,5,7,9,11,13,15,17,19,-1,21,23,25,27,-1,29,31,33,-1,-1,35,37,39,41,43,-1,-1,45,47,49,51,53,55,57,59,61,63,65,67,69,71,-1,73,-1,75,77,79,81,83,85,87,89,-1,-1,91,93,-1,95,97,-1,99,101,-1,103,-1,-1,-1,-1,-1,105,107,109,111,-1,-1,113,115,117,-1,-1,-1,-1,-1,-1,-1,-1,-1,-1,-1,-1,-1,-1,-1,-1,-1,-1,-1,-1,-1,-1,-1,-1,-1,-1,-1,-1,-1,-1,-1,-1,-1,-1,-1,-1,-1,-1,-1,-1],"loss_changes":[2.2754472E6,4.521016E6,6.561186E5,9.660645E5,1.18703E5,7.466227E5,3.3794125E5,1.9063948E6,2.367388E5,4.30275E3,0E0,2.629145E5,8.315876E5,6.1765E3,5.589364E3,0E0,7.2317E5,1.9641215E6,6.615083E4,0E0,0E0,1.2601446E4,5.5322875E4,1.4396481E5,6.951378E5,1.32885E4,0E0,0E0,6.6292397E3,5.948265E5,4.0235812E4,3.229415E5,5.5962125E4,9.138082E4,1.1060894E5,6.410547E1,1.1900638E3,1.295135E5,8.1724375E3,4.9170562E4,3.8038984E3,4.249207E5,0E0,2.1604375E3,0E0,1.2088364E3,3.980274E2,8.1601562E3,7.7315E4,9.702178E2,7.01875E1,9.979221E5,4.7405128E5,0E0,0E0,8.782422E2,2.3439516E4,0E0,5.778964E4,1.0434697E3,0E0,1.0813397E3,4.4540454E2,0E0,6.1441055E3,0E0,0E0,0E0,0E0,0E0,1.0649219E2,9.0040556E5,1.5807125E5,8.1681875E3,0E0,0E0,3.7285547E2,9.0897046E2,1.0750054E3,0E0,0E0,0E0,0E0,0E0,0E0,0E0,0E0,0E0,0E0,0E0,0E0,0E0,0E0,0E0,0E0,0E0,0E0,0E0,0E0,0E0,0E0,0E0,0E0,0E0,0E0,0E0,0E0,0E0,0E0,0E0,0E0,0E0,0E0,0E0,0E0,0E0,0E0,0E0,0E0],"parents":[2147483647,0,0,1,1,2,2,3,3,4,4,5,5,6,6,7,7,8,8,9,9,11,11,12,12,13,13,14,14,16,16,17,17,18,18,21,21,22,22,23,23,24,24,25,25,28,28,29,29,30,30,31,31,32,32,33,33,34,34,35,35,36,36,37,37,38,38,39,39,40,40,41,41,43,43,45,45,46,46,47,47,48,48,49,49,50,50,51,51,52,52,55,55,56,56,58,58,59,59,61,61,62,62,64,64,70,70,71,71,72,72,73,73,76,76,77,77,78,78],"right_children":[2,4,6,8,10,12,14,16,18,20,-1,22,24,26,28,-1,30,32,34,-1,-1,36,38,40,42,44,-1,-1,46,48,50,52,54,56,58,60,62,64,66,68,70,72,-1,74,-1,76,78,80,82,84,86,88,90,-1,-1,92,94,-1,96,98,-1,100,102,-1,104,-1,-1,-1,-1,-1,106,108,110,112,-1,-1,114,116,118,-1,-1,-1,-1,-1,-1,-1,-1,-1,-1,-1,-1,-1,-1,-1,-1,-1,-1,-1,-1,-1,-1,-1,-1,-1,-1,-1,-1,-1,-1,-1,-1,-1,-1,-1,-1,-1,-1,-1,-1],"split_conditions":[2.1E1,2E1,4E1,5E0,5E0,2.7E1,4.6E1,1E0,1.3E1,3E0,2.396505E1,2.3E1,2.9E1,4.5E1,2E0,-5.6268783E0,3E0,1.2E1,1.7E1,1.8009691E1,1.392787E1,2.2E1,2.5E1,2.8E1,3.9E1,4.3E1,-3.8155322E0,-1.2990984E0,4.7E1,2E0,1E0,8E0,2E0,1.4E1,1.8E1,4E0,5E0,2.4E1,2.6E1,2E0,1E0,3.2E1,5.990483E0,4.2E1,-5.224093E0,3E0,4E0,6E0,1E0,4E0,5E0,7E0,1.1E1,8.013872E0,1.2687081E1,5E0,1.5E1,-4.0256476E0,1.9E1,2E0,-1.5091931E0,2E0,6E0,-5.5566726E0,5E0,-4.728016E0,-6.0472975E0,4.192883E0,8.472589E0,1.6125933E0,5E0,3.1E1,3.5E1,4.1E1,-3.7876487E0,-1.267791E-1,5E0,3E0,5E0,5.4386926E0,8.1165E0,8.906147E0,1.6283566E1,8.9235485E-1,-8.2592264E-2,4.090392E0,3.43393E0,-1.6582209E0,8.604352E0,-3.642172E0,2.945517E0,-2.800464E0,-1.9480529E0,-5.7933694E-1,9.510556E-1,5.9468114E-1,-2.1743817E0,-1.5710958E0,-7.524736E-1,-2.3523529E-1,4.2022938E-1,-8.345741E-1,-1.5343204E-1,-9.036716E-1,-2.3470829E0,3.3588085E0,2.6188276E0,-1.967503E0,7.6193266E0,-3.7415867E0,-1.2271436E0,-3.8585477E0,-5.066848E0,-7.1102166E-1,-1.1888503E0,5.4491156E-1,-3.2117638E-1,1.0188662E0,1.2831007E-1],"split_indices":[2,2,2,2,0,2,2,2,2,0,0,2,2,2,0,0,2,2,2,0,0,2,2,2,2,2,0,0,2,2,0,2,0,2,2,0,0,2,2,0,0,2,0,2,0,0,0,0,0,2,0,2,2,0,0,0,2,0,2,0,0,0,0,0,0,0,0,0,0,0,0,2,2,2,0,0,0,0,0,0,0,0,0,0,0,0,0,0,0,0,0,0,0,0,0,0,0,0,0,0,0,0,0,0,0,0,0,0,0,0,0,0,0,0,0,0,0,0,0],"split_type":[0,0,0,0,0,0,0,0,0,0,0,0,0,0,0,0,0,0,0,0,0,0,0,0,0,0,0,0,0,0,0,0,0,0,0,0,0,0,0,0,0,0,0,0,0,0,0,0,0,0,0,0,0,0,0,0,0,0,0,0,0,0,0,0,0,0,0,0,0,0,0,0,0,0,0,0,0,0,0,0,0,0,0,0,0,0,0,0,0,0,0,0,0,0,0,0,0,0,0,0,0,0,0,0,0,0,0,0,0,0,0,0,0,0,0,0,0,0,0],"sum_hessian":[4.88E3,2.15E3,2.73E3,2.046E3,1.04E2,1.911E3,8.19E2,5.02E2,1.544E3,7.4E1,3E1,5.93E2,1.318E3,6.25E2,1.94E2,1.05E2,3.97E2,8.3E2,7.14E2,4.5E1,2.9E1,1.93E2,4E2,2.07E2,1.111E3,5.18E2,1.07E2,4.8E1,1.46E2,1.96E2,2.01E2,7.19E2,1.11E2,3.96E2,3.18E2,9.4E1,9.9E1,2.03E2,1.97E2,1.06E2,1.01E2,1.009E3,1.02E2,3.11E2,2.07E2,7.5E1,7.1E1,9.8E1,9.8E1,2.8E1,1.73E2,3.07E2,4.12E2,3.3E1,7.8E1,8.9E1,3.07E2,1.09E2,2.09E2,5E1,4.4E1,7.2E1,2.7E1,1E2,1.03E2,9.5E1,1.02E2,2.9E1,7.7E1,1.7E1,8.4E1,2.97E2,7.12E2,2.09E2,1.02E2,1.5E1,6E1,3.2E1,3.9E1,8.4E1,1.4E1,1.6E1,8.2E1,1.6E1,1.2E1,1.22E2,5.1E1,2.12E2,9.5E1,3.12E2,1E2,6.6E1,2.3E1,1.06E2,2.01E2,1.08E2,1.01E2,2.6E1,2.4E1,2.8E1,4.4E1,1.2E1,1.5E1,7.4E1,2.9E1,5.6E1,2.8E1,1.92E2,1.05E2,3.09E2,4.03E2,1.05E2,1.04E2,2.9E1,3.1E1,1.5E1,1.7E1,1.5E1,2.4E1],"tree_param":{"num_deleted":"0","num_feature":"3","num_nodes":"119","size_leaf_vector":"1"}},{"base_weights":[-5.071152E-1,-3.354388E1,1.5981206E1,1.2037755E1,-3.9680317E1,9.005378E1,7.6087E0,9.07319E1,4.975843E0,-4.4327503E1,-1.0910579E1,-5.4522047E0,1.2796461E2,2.2981651E1,-1.857879E1,-4.61617E0,1.6210786E2,2.0207998E1,-1.9249088E1,-3.988549E1,-5.1391994E1,7.562705E0,-2.8390816E1,1.8645003E2,7.475607E1,1.8314037E1,1.3686353E2,-3.1492953E0,-3.4432625E1,6.293491E0,1.6789942E1,6.6741295E0,7.465528E1,-2.3517803E1,3.421457E0,-5.0599113E1,-3.333826E1,-5.2232566E0,-4.9255558E1,-1.9188433E1,3.4162586E1,-3.9832227E0,-2.3801128E1,1.0469708E2,2.7599585E2,3.6512672E1,8.510772E1,2.9477428E1,-5.937984E-1,1.529168E2,6.459648E1,-1.6199436E1,8.306053E1,-4.895635E1,8.857769E0,1.4284175E1,-3.5657845E1,7.363951E0,4.967098E1,-6.371278E0,-4.2671257E1,-4.1364136E1,-5.57223E1,-3.953391E1,-2.163361E1,-2.625104E0,-5.0349342E1,-8.2635355E0,-4.148312E0,9.817085E0,1.7865297E1,6.902945E0,-2.7479565E1,6.296871E1,1.5247066E2,8.132377E0,3.0561716E2,2.536014E1,3.7484648E0,6.766637E1,1.0359567E2,1.4676031E1,2.5192308E2,-3.2585907E1,4.4778988E1,7.97713E1,1.5092331E1,6.978089E0,3.142156E0,-3.78457E1,9.395389E-2,5.7237762E1,1.2493495E2,-4.374606E1,-5.3874138E1,1.4138738E0,1.8844147E1,7.617105E-1,4.0106077E0,-4.410909E0,-1.9657744E0,-2.162198E-1,8.5601425E0,-1.5480502E0,7.9801517E0,-4.383776E0,-1.3357866E-1,-4.0174575E0,-2.1331372E0,-6.0807886E0,-4.3703847E0,-9.6071136E-1,-3.4952016E0,-6.3583565E-1,-3.2875364E0,-4.487865E0,-4.013816E0,-4.1046476E0,-4.879082E-2,-8.030343E-2,4.7569966E0,9.166643E-1,1.9742447E-1,-3.3499115E0,-1.6931778E0,4.104888E0,6.2019715E0,1.4003601E1,6.4068475E0,2.7692862E1,8.024921E0,3.4095032E0,7.3645574E-1,5.783013E0,3.077938E0,9.77836E0,3.584214E0,1.81219E0,-1.1655107E0,1.3289784E1,2.687733E1,4.394749E-1,-4.014368E0,1.1039742E1,1.0986879E0,2.6085396E0,7.6382065E0,-2.037142E0,-5.8217664E0,5.4311438E0,-2.0057874E0,3.6061103E0,5.388478E0,1.1133567E1,3.6628196E0,-4.0064473E0,-2.893127E0,-5.032633E0,-3.241455E0,-6.8624574E-1,8.0753577E-1,1.8393326E0,1.1968038E-1],"categories":[],"categories_nodes":[],"categories_segments":[],"categories_sizes":[],"default_left":[0,0,0,0,0,0,0,0,0,0,0,0,0,0,0,0,0,0,0,0,0,0,0,0,0,0,0,0,0,0,0,0,0,0,0,0,0,0,0,0,0,0,0,0,0,0,0,0,0,0,0,0,0,0,0,0,0,0,0,0,0,0,0,0,0,0,0,0,0,0,0,0,0,0,0,0,0,0,0,0,0,0,0,0,0,0,0,0,0,0,0,0,0,0,0,0,0,0,0,0,0,0,0,0,0,0,0,0,0,0,0,0,0,0,0,0,0,0,0,0,0,0,0,0,0,0,0,0,0,0,0,0,0,0,0,0,0,0,0,0,0,0,0,0,0,0,0,0,0,0,0,0,0,0,0,0,0,0,0,0,0,0,0],"id":11,"left_children":[1,3,5,7,9,11,13,15,17,19,21,-1,23,25,27,-1,29,31,33,35,37,39,41,43,45,47,49,51,53,-1,-1,55,57,59,-1,61,63,-1,65,67,69,-1,71,73,75,77,79,81,83,85,87,89,91,93,95,97,99,-1,101,103,105,107,109,111,113,-1,115,117,-1,-1,119,121,123,125,127,-1,129,131,-1,133,135,137,139,141,143,145,-1,-1,-1,147,149,151,153,155,157,159,161,-1,-1,-1,-1,-1,-1,-1,-1,-1,-1,-1,-1,-1,-1,-1,-1,-1,-1,-1,-1,-1,-1,-1,-1,-1,-1,-1,-1,-1,-1,-1,-1,-1,-1,-1,-1,-1,-1,-1,-1,-1,-1,-1,-1,-1,-1,-1,-1,-1,-1,-1,-1,-1,-1,-1,-1,-1,-1,-1,-1,-1,-1,-1,-1,-1,-1],"loss_changes":[2.6783838E6,4.5836088E5,2.0334828E6,1.0791611E5,1.9244325E5,1.968973E6,1.18723E6,1.756648E5,6.680861E4,3.6925E4,6.5444023E4,0E0,8.20057E5,9.8512575E5,2.667683E5,0E0,2.1937688E4,8.129569E4,1.8950426E4,5.2114125E4,8.229E3,7.110166E4,8.0683047E3,9.00825E5,5.3107812E4,3.7699844E5,7.4811E4,6.2462344E5,3.3869456E5,0E0,0E0,2.9502688E4,3.0295781E3,2.1403531E4,0E0,1.1368375E4,3.3880875E4,0E0,6.300875E3,1.6227422E4,6.580172E4,0E0,9.902785E3,1.25958E5,2.87798E5,1.8418008E3,2.8782625E4,3.6937872E6,9.653025E5,1.05164125E5,4.518332E3,1.7000062E5,7.178484E4,7.96925E3,1.0083264E4,1.297885E4,1.6677344E3,0E0,2.784526E4,4.6351348E4,1.238568E4,1.01525625E4,6.8590625E3,1.9606562E4,4.142915E4,0E0,3.654375E2,1.1895469E4,0E0,0E0,3.168005E4,1.5875693E2,6.1949375E3,2.2740781E3,2.2683812E4,0E0,2.44026E5,3.7291562E3,0E0,3.0721875E2,3.7373938E4,2.1186228E5,4.0224E5,2.2840556E5,7.580009E5,7.3208516E3,0E0,0E0,0E0,8.701841E4,4.3326994E5,2.015375E3,1.2356875E4,6.0451562E3,1.7121812E4,6.354152E3,3.1686543E3,0E0,0E0,0E0,0E0,0E0,0E0,0E0,0E0,0E0,0E0,0E0,0E0,0E0,0E0,0E0,0E0,0E0,0E0,0E0,0E0,0E0,0E0,0E0,0E0,0E0,0E0,0E0,0E0,0E0,0E0,0E0,0E0,0E0,0E0,0E0,0E0,0E0,0E0,0E0,0E0,0E0,0E0,0E0,0E0,0E0,0E0,0E0,0E0,0E0,0E0,0E0,0E0,0E0,0E0,0E0,0E0,0E0,0E0,0E0,0E0,0E0,0E0,0E0,0E0,0E0,0E0],"parents":[2147483647,0,0,1,1,2,2,3,3,4,4,5,5,6,6,7,7,8,8,9,9,10,10,12,12,13,13,14,14,16,16,17,17,18,18,19,19,20,20,21,21,22,22,23,23,24,24,25,25,26,26,27,27,28,28,31,31,32,32,33,33,35,35,36,36,38,38,39,39,40,40,42,42,43,43,44,44,45,45,46,46,47,47,48,48,49,49,50,50,51,51,52,52,53,53,54,54,55,55,56,56,58,58,59,59,60,60,61,61,62,62,63,63,64,64,66,66,67,67,70,70,71,71,72,72,73,73,74,74,76,76,77,77,79,79,80,80,81,81,82,82,83,83,84,84,85,85,89,89,90,90,91,91,92,92,93,93,94,94,95,95,96,96],"right_children":[2,4,6,8,10,12,14,16,18,20,22,-1,24,26,28,-1,30,32,34,36,38,40,42,44,46,48,50,52,54,-1,-1,56,58,60,-1,62,64,-1,66,68,70,-1,72,74,76,78,80,82,84,86,88,90,92,94,96,98,100,-1,102,104,106,108,110,112,114,-1,116,118,-1,-1,120,122,124,126,128,-1,130,132,-1,134,136,138,140,142,144,146,-1,-1,-1,148,150,152,154,156,158,160,162,-1,-1,-1,-1,-1,-1,-1,-1,-1,-1,-1,-1,-1,-1,-1,-1,-1,-1,-1,-1,-1,-1,-1,-1,-1,-1,-1,-1,-1,-1,-1,-1,-1,-1,-1,-1,-1,-1,-1,-1,-1,-1,-1,-1,-1,-1,-1,-1,-1,-1,-1,-1,-1,-1,-1,-1,-1,-1,-1,-1,-1,-1,-1,-1,-1,-1],"split_conditions":[8E0,1E0,5E0,4E0,7E0,1E0,3.2E1,1E0,3.2E1,2.9E1,2.3E1,-5.4522047E0,3E0,3.1E1,4E1,-4.61617E0,2E0,2.7E1,4.7E1,1.1E1,3.2E1,1.1E1,2.7E1,2E0,1.2E1,2.1E1,2.1E1,3.9E1,4.6E1,6.293491E0,1.6789942E1,2.3E1,3E1,4E1,3.421457E0,4E0,5E0,-5.2232566E0,3.3E1,8E0,1.3E1,-3.9832227E0,2.9E1,1.7E1,1.1E1,1E1,4E0,2E1,2.7E1,1.2E1,2.2E1,3.5E1,1.7E1,4.3E1,1.7E1,2E1,2.4E1,7.363951E0,3.1E1,3.9E1,4.6E1,5E0,5E0,1.2E1,2.1E1,-2.625104E0,3.9E1,1E0,-4.148312E0,9.817085E0,2E1,2.8E1,3.5E1,1.2E1,2.3E1,8.132377E0,2.2E1,4E0,3.7484648E0,2.3E1,2.1E1,1.7E1,1.5E1,2.3E1,2.8E1,9E0,1.5092331E1,6.978089E0,3.142156E0,3.4E1,3.6E1,1.2E1,2.3E1,4.2E1,4.5E1,4.7E1,2.3E1,7.617105E-1,4.0106077E0,-4.410909E0,-1.9657744E0,-2.162198E-1,8.5601425E0,-1.5480502E0,7.9801517E0,-4.383776E0,-1.3357866E-1,-4.0174575E0,-2.1331372E0,-6.0807886E0,-4.3703847E0,-9.6071136E-1,-3.4952016E0,-6.3583565E-1,-3.2875364E0,-4.487865E0,-4.013816E0,-4.1046476E0,-4.879082E-2,-8.030343E-2,4.7569966E0,9.166643E-1,1.9742447E-1,-3.3499115E0,-1.6931778E0,4.104888E0,6.2019715E0,1.4003601E1,6.4068475E0,2.7692862E1,8.024921E0,3.4095032E0,7.3645574E-1,5.783013E0,3.077938E0,9.77836E0,3.584214E0,1.81219E0,-1.1655107E0,1.3289784E1,2.687733E1,4.394749E-1,-4.014368E0,1.1039742E1,1.0986879E0,2.6085396E0,7.6382065E0,-2.037142E0,-5.8217664E0,5.4311438E0,-2.0057874E0,3.6061103E0,5.388478E0,1.1133567E1,3.6628196E0,-4.0064473E0,-2.893127E0,-5.032633E0,-3.241455E0,-6.8624574E-1,8.0753577E-1,1.8393326E0,1.1968038E-1],"split_indices":[1,1,2,2,1,2,2,2,2,2,2,0,2,2,2,0,2,2,2,2,2,2,2,2,1,2,1,2,2,0,0,2,2,2,0,2,1,0,2,2,2,0,2,1,1,1,2,2,2,1,1,2,1,2,1,2,2,0,2,2,2,1,2,2,2,0,2,2,0,0,2,2,2,1,1,0,1,2,0,1,1,2,1,2,2,1,0,0,0,2,2,1,1,2,2,2,1,0,0,0,0,0,0,0,0,0,0,0,0,0,0,0,0,0,0,0,0,0,0,0,0,0,0,0,0,0,0,0,0,0,0,0,0,0,0,0,0,0,0,0,0,0,0,0,0,0,0,0,0,0,0,0,0,0,0,0,0,0,0,0,0,0,0],"split_type":[0,0,0,0,0,0,0,0,0,0,0,0,0,0,0,0,0,0,0,0,0,0,0,0,0,0,0,0,0,0,0,0,0,0,0,0,0,0,0,0,0,0,0,0,0,0,0,0,0,0,0,0,0,0,0,0,0,0,0,0,0,0,0,0,0,0,0,0,0,0,0,0,0,0,0,0,0,0,0,0,0,0,0,0,0,0,0,0,0,0,0,0,0,0,0,0,0,0,0,0,0,0,0,0,0,0,0,0,0,0,0,0,0,0,0,0,0,0,0,0,0,0,0,0,0,0,0,0,0,0,0,0,0,0,0,0,0,0,0,0,0,0,0,0,0,0,0,0,0,0,0,0,0,0,0,0,0,0,0,0,0,0,0],"sum_hessian":[4.915E3,1.636E3,3.279E3,1.94E2,1.442E3,3.32E2,2.947E3,1.5E1,1.79E2,1.241E3,2.01E2,6.5E1,2.67E2,1.857E3,1.09E3,5E0,1E1,1.1E2,6.9E1,7.66E2,4.75E2,9.8E1,1.03E2,1.26E2,1.41E2,1.785E3,7.2E1,5.53E2,5.37E2,4E0,6E0,8.9E1,2.1E1,6.5E1,4E0,2.88E2,4.78E2,7.2E1,4.03E2,4.9E1,4.9E1,1.8E1,8.5E1,6.7E1,5.9E1,3.1E1,1.1E2,1.122E3,6.63E2,5.8E1,1.4E1,4.81E2,7.2E1,4.02E2,1.35E2,7.6E1,1.3E1,1.2E1,9E0,3.5E1,3E1,1.06E2,1.82E2,3.11E2,1.67E2,2.5E1,3.78E2,3.7E1,1.2E1,7E0,4.2E1,9E0,7.6E1,3.7E1,3E1,9E0,5E1,1.5E1,1.6E1,5.9E1,5.1E1,1.053E3,6.9E1,3.89E2,2.74E2,1.7E1,4.1E1,7E0,7E0,2.06E2,2.75E2,4.6E1,2.6E1,2E2,2.02E2,7.8E1,5.7E1,6.7E1,9E0,4E0,9E0,5E0,4E0,3.2E1,3E0,2.4E1,6E0,7.3E1,3.3E1,2.7E1,1.55E2,2.4E1,2.87E2,9.4E1,7.3E1,1.45E2,2.33E2,5E0,3.2E1,2.9E1,1.3E1,4E0,5E0,2.6E1,5E1,1.9E1,1.8E1,2.4E1,6E0,4.4E1,6E0,7E0,8E0,5.5E1,4E0,4.1E1,1E1,8.46E2,2.07E2,3.1E1,3.8E1,1.13E2,2.76E2,7.2E1,2.02E2,4E0,1.3E1,1.46E2,6E1,7.4E1,2.01E2,1.8E1,2.8E1,2.3E1,3E0,1.34E2,6.6E1,1.4E2,6.2E1,3.6E1,4.2E1,4.8E1,9E0],"tree_param":{"num_deleted":"0","num_feature":"3","num_nodes":"163","size_leaf_vector":"1"}},{"base_weights":[3.765993E-2,2.1068253E1,-1.6794546E1,1.3092601E1,1.8866637E2,-8.356463E0,-3.6455997E1,4.7602493E1,1.1649802E0,1.4292769E1,1.8531197E1,-3.298131E1,2.9096742E0,-4.6643814E1,-5.1572833E0,-4.676334E0,7.332331E1,-1.4093086E1,1.0852945E1,-6.538867E0,-4.396791E1,6.174142E1,-7.4346595E0,-3.1858292E0,-4.819779E1,-6.2557306E0,1.3490056E0,1.0947138E2,3.848505E1,1.39230175E1,-4.0703575E1,8.022107E1,-9.848975E0,-1.702139E1,3.3310888E0,-3.2482708E1,-5.5683464E1,8.529553E1,3.4737453E1,-1.399267E1,5.854371E1,-4.99843E1,-3.3695815E0,-1.0399952E1,-5.3837433E0,-3.9415735E-1,6.458712E-1,5.8526318E1,1.5796498E2,1.2542945E0,4.240073E1,-1.7047537E1,7.797736E1,-4.898727E1,-2.2368406E1,3.1502897E1,1.2776707E2,-2.064589E0,-2.0238142E1,-1.5191315E1,-1.9931156E1,6.8961E0,-4.2311385E-1,-4.6787734E0,-1.0149687E1,-4.0633416E0,-5.121626E0,3.0856543E0,9.179924E1,1.5892215E0,3.7053844E1,1.004543E1,-2.3902716E1,2.884679E0,6.2658974E1,-4.6366318E1,-4.4386826E0,-6.7943263E-1,-1.0808979E0,-4.224369E0,-7.1333385E-1,3.6743193E0,5.0856266E0,6.7713623E0,1.4337897E1,3.8791516E0,2.814048E0,-7.8958505E-1,-1.9739766E0,3.6403723E0,7.088149E0,-2.055834E0,-5.7938175E0,-2.4076064E0,-1.7804674E0,1.317403E0,3.1616075E0,7.726893E0,1.1735137E1,-2.4043376E0,5.1634794E-1,-3.703055E0,-7.1500516E-1,-1.6312592E0,-9.1316456E-1,-2.2434795E0,-1.1553429E0,2.5888965E-1,1.9561604E0,-1.8594104E0,-6.346324E-1,7.092497E0,1.0125821E1,3.7233696E0,2.706287E0,-1.7398558E0,5.93782E0,-3.3524847E0,-9.559642E-1,6.1379366E0,4.2552347E0,-4.342684E0,-3.3429492E0,-4.9759287E-1,5.8145955E-2],"categories":[],"categories_nodes":[],"categories_segments":[],"categories_sizes":[],"default_left":[0,0,0,0,0,0,0,0,0,0,0,0,0,0,0,0,0,0,0,0,0,0,0,0,0,0,0,0,0,0,0,0,0,0,0,0,0,0,0,0,0,0,0,0,0,0,0,0,0,0,0,0,0,0,0,0,0,0,0,0,0,0,0,0,0,0,0,0,0,0,0,0,0,0,0,0,0,0,0,0,0,0,0,0,0,0,0,0,0,0,0,0,0,0,0,0,0,0,0,0,0,0,0,0,0,0,0,0,0,0,0,0,0,0,0,0,0,0,0,0,0,0,0,0,0],"id":12,"left_children":[1,3,5,7,9,11,13,15,17,-1,-1,19,21,23,25,-1,27,29,31,33,35,37,39,-1,41,43,45,47,49,51,53,55,57,59,61,63,65,67,69,71,73,75,-1,77,79,-1,-1,81,83,-1,85,87,89,91,93,95,97,99,101,103,105,107,-1,-1,109,-1,-1,-1,111,-1,113,115,117,-1,119,121,-1,-1,-1,123,-1,-1,-1,-1,-1,-1,-1,-1,-1,-1,-1,-1,-1,-1,-1,-1,-1,-1,-1,-1,-1,-1,-1,-1,-1,-1,-1,-1,-1,-1,-1,-1,-1,-1,-1,-1,-1,-1,-1,-1,-1,-1,-1,-1,-1],"loss_changes":[1.7366809E6,2.9128815E6,4.517863E5,8.5735075E5,1.979825E4,5.294265E5,2.605915E5,1.4292729E6,2.2912555E5,0E0,0E0,1.737295E5,7.976925E5,6.3275E3,1.4520962E3,0E0,5.3604225E5,4.493711E5,1.3621688E6,1.8369482E4,5.510825E4,1.2170381E5,4.83265E5,0E0,5.268125E3,5.6918066E2,1.1976782E3,5.0956175E5,1.9584938E4,5.845662E5,4.5836062E4,5.0094E5,5.9076586E4,1.5517773E2,2.7882842E3,1.1285458E5,5.2526875E3,2.93245E4,2.6812344E3,2.4203208E5,7.8205625E3,2.281875E3,0E0,6.1660156E1,4.9404932E2,0E0,0E0,8.62125E2,9.828325E4,0E0,5.0362188E3,9.720801E3,1.894225E4,1.03502125E5,5.5523438E1,1.0269594E4,3.6231E4,9.244401E4,8.766014E4,8.390596E2,8.9570996E2,4.0042515E3,0E0,0E0,3.2938037E3,0E0,0E0,0E0,8.209625E3,0E0,1.3585312E3,5.608785E5,1.4486906E5,0E0,7.029E3,5.1215E3,0E0,0E0,0E0,9.2386365E2,0E0,0E0,0E0,0E0,0E0,0E0,0E0,0E0,0E0,0E0,0E0,0E0,0E0,0E0,0E0,0E0,0E0,0E0,0E0,0E0,0E0,0E0,0E0,0E0,0E0,0E0,0E0,0E0,0E0,0E0,0E0,0E0,0E0,0E0,0E0,0E0,0E0,0E0,0E0,0E0,0E0,0E0,0E0,0E0,0E0],"parents":[2147483647,0,0,1,1,2,2,3,3,4,4,5,5,6,6,7,7,8,8,11,11,12,12,13,13,14,14,16,16,17,17,18,18,19,19,20,20,21,21,22,22,24,24,25,25,26,26,27,27,28,28,29,29,30,30,31,31,32,32,33,33,34,34,35,35,36,36,37,37,38,38,39,39,40,40,41,41,43,43,44,44,47,47,48,48,50,50,51,51,52,52,53,53,54,54,55,55,56,56,57,57,58,58,59,59,60,60,61,61,64,64,68,68,70,70,71,71,72,72,74,74,75,75,79,79],"right_children":[2,4,6,8,10,12,14,16,18,-1,-1,20,22,24,26,-1,28,30,32,34,36,38,40,-1,42,44,46,48,50,52,54,56,58,60,62,64,66,68,70,72,74,76,-1,78,80,-1,-1,82,84,-1,86,88,90,92,94,96,98,100,102,104,106,108,-1,-1,110,-1,-1,-1,112,-1,114,116,118,-1,120,122,-1,-1,-1,124,-1,-1,-1,-1,-1,-1,-1,-1,-1,-1,-1,-1,-1,-1,-1,-1,-1,-1,-1,-1,-1,-1,-1,-1,-1,-1,-1,-1,-1,-1,-1,-1,-1,-1,-1,-1,-1,-1,-1,-1,-1,-1,-1,-1,-1],"split_conditions":[2.1E1,2E1,4E1,5E0,5E0,2.7E1,4.6E1,1E0,1.1E1,1.4292769E1,1.8531197E1,2.3E1,2.9E1,4.1E1,6E0,-4.676334E0,3E0,8E0,1.3E1,2.2E1,2.5E1,2.8E1,3.9E1,-3.1858292E0,4.5E1,1E0,4.7E1,2E0,1E0,7E0,1E1,1.2E1,1.7E1,5E0,5E0,2.4E1,2.6E1,1E0,1E0,3.2E1,1E0,4.3E1,-3.3695815E0,4.7E1,5E0,-3.9415735E-1,6.458712E-1,1E0,1E0,1.2542945E0,5E0,6E0,1E0,9E0,1E0,2E0,2E0,1.4E1,1.8E1,2E0,6E0,4E0,-4.2311385E-1,-4.6787734E0,1E0,-4.0633416E0,-5.121626E0,3.0856543E0,6E0,1.5892215E0,3E0,3.1E1,3.5E1,2.884679E0,4E0,4.2E1,-4.4386826E0,-6.7943263E-1,-1.0808979E0,4E0,-7.1333385E-1,3.6743193E0,5.0856266E0,6.7713623E0,1.4337897E1,3.8791516E0,2.814048E0,-7.8958505E-1,-1.9739766E0,3.6403723E0,7.088149E0,-2.055834E0,-5.7938175E0,-2.4076064E0,-1.7804674E0,1.317403E0,3.1616075E0,7.726893E0,1.1735137E1,-2.4043376E0,5.1634794E-1,-3.703055E0,-7.1500516E-1,-1.6312592E0,-9.1316456E-1,-2.2434795E0,-1.1553429E0,2.5888965E-1,1.9561604E0,-1.8594104E0,-6.346324E-1,7.092497E0,1.0125821E1,3.7233696E0,2.706287E0,-1.7398558E0,5.93782E0,-3.3524847E0,-9.559642E-1,6.1379366E0,4.2552347E0,-4.342684E0,-3.3429492E0,-4.9759287E-1,5.8145955E-2],"split_indices":[2,2,2,2,0,2,2,2,2,0,0,2,2,2,0,0,2,2,2,2,2,2,2,0,2,0,2,2,0,2,2,2,2,0,0,2,2,0,0,2,0,2,0,2,0,0,0,0,0,0,0,2,0,2,0,0,0,2,2,0,0,0,0,0,0,0,0,0,0,0,0,2,2,0,0,2,0,0,0,0,0,0,0,0,0,0,0,0,0,0,0,0,0,0,0,0,0,0,0,0,0,0,0,0,0,0,0,0,0,0,0,0,0,0,0,0,0,0,0,0,0,0,0,0,0],"split_type":[0,0,0,0,0,0,0,0,0,0,0,0,0,0,0,0,0,0,0,0,0,0,0,0,0,0,0,0,0,0,0,0,0,0,0,0,0,0,0,0,0,0,0,0,0,0,0,0,0,0,0,0,0,0,0,0,0,0,0,0,0,0,0,0,0,0,0,0,0,0,0,0,0,0,0,0,0,0,0,0,0,0,0,0,0,0,0,0,0,0,0,0,0,0,0,0,0,0,0,0,0,0,0,0,0,0,0,0,0,0,0,0,0,0,0,0,0,0,0,0,0,0,0,0,0],"sum_hessian":[4.904E3,2.18E3,2.724E3,2.082E3,9.8E1,1.907E3,8.17E2,5.34E2,1.548E3,6.8E1,3E1,5.98E2,1.309E3,6.16E2,2.01E2,1.06E2,4.28E2,6.01E2,9.47E2,1.76E2,4.22E2,1.95E2,1.114E3,9.9E1,5.17E2,1.72E2,2.9E1,2.09E2,2.19E2,2.93E2,3.08E2,2.17E2,7.3E2,8.5E1,9.1E1,2.15E2,2.07E2,1.03E2,9.2E1,1.014E3,1E2,4.17E2,1E2,2.8E1,1.44E2,1.5E1,1.4E1,1.03E2,1.06E2,3.2E1,1.87E2,1.98E2,9.5E1,2.11E2,9.7E1,1.08E2,1.09E2,4.18E2,3.12E2,5.6E1,2.9E1,6.4E1,2.7E1,1.04E2,1.11E2,9.6E1,1.11E2,1.3E1,9E1,1.3E1,7.9E1,2.96E2,7.18E2,1.6E1,8.4E1,2.01E2,2.16E2,1.7E1,1.1E1,1.07E2,3.7E1,1.7E1,8.6E1,1.7E1,8.9E1,1.25E2,6.2E1,9.3E1,1.05E2,1.7E1,7.8E1,9.7E1,1.14E2,1E1,8.7E1,3.2E1,7.6E1,3.1E1,7.8E1,9.8E1,3.2E2,1.01E2,2.11E2,2.6E1,3E1,1.2E1,1.7E1,5.3E1,1.1E1,1.8E1,9.3E1,7.6E1,1.4E1,2.7E1,5.2E1,1.97E2,9.9E1,3.11E2,4.07E2,4.1E1,4.3E1,1.03E2,9.8E1,7.9E1,2.8E1],"tree_param":{"num_deleted":"0","num_feature":"3","num_nodes":"125","size_leaf_vector":"1"}},{"base_weights":[8.611701E-1,2.1265337E1,-1.4921822E1,1.2072493E1,1.86875E2,-7.2940125E0,-3.260404E1,4.6085167E1,3.1173944E-1,1.7065443E2,1.8304554E1,-3.0497446E1,3.101585E0,-4.1935528E1,-4.6768055E0,-4.343573E0,6.961466E1,-1.14059305E1,8.404358E0,1.9107264E1,1.3105836E1,-7.9011827E0,-4.0490704E1,7.5465866E1,-4.2631035E0,-2.8551793E0,-4.3357605E1,-2.975781E0,-9.0540285E0,1.07267006E2,3.473916E1,1.3451988E1,-3.6964558E1,7.1113E1,-8.971786E0,-1.3386976E1,-1.0644091E0,-3.090544E1,-4.978913E1,2.9818444E0,8.150891E1,-9.045723E0,5.1279613E1,-4.501091E1,-3.5452637E1,-5.0063553E0,6.6104465E0,-1.3766675E0,-5.1363975E-1,6.335743E1,1.4761192E2,1.9295067E1,3.1393921E0,-1.7738274E1,7.784113E1,-1.8938513E0,-4.4215256E1,2.9754349E1,1.1090195E2,-1.234353E0,-1.846041E1,-1.3596799E0,-1.1897884E1,1.9180222E0,-8.06037E0,-4.3600874E0,-1.0341668E1,-3.6175659E0,-4.688672E0,9.229915E0,7.552238E1,1.3907789E1,-2.1974567E1,3.043356E0,5.3581238E1,-4.085476E1,-4.092282E0,-3.070509E0,-2.0435793E0,-9.262428E0,-3.0632505E0,-3.771447E-1,1.2149434E0,-1.0039392E-1,2.1728909E-2,2.4684854E0,5.6970196E0,7.5199933E0,1.3123766E1,1.0945868E0,2.0690644E0,-9.423821E-1,-1.9786088E0,3.839262E0,6.919476E0,-5.2735014E0,-1.8210479E0,1.0015793E0,2.7487328E0,5.8642616E0,9.763835E0,-1.2665824E0,1.0608399E0,-3.3213015E0,-5.7576525E-1,-5.254879E-1,-1.1209301E0,-9.7066903E-1,4.3965778E-1,-9.9958956E-1,-2.3693174E-1,-5.312314E-1,-1.6897122E0,5.695695E0,8.088174E0,-3.2131416E-1,5.361057E0,-2.8573647E0,-1.0020239E0,4.9228125E0,3.403251E0,-3.9551466E0,-2.8406172E0,-5.629027E-1,-9.664525E-1,-5.349811E-1,1.0438135E-2],"categories":[],"categories_nodes":[],"categories_segments":[],"categories_sizes":[],"default_left":[0,0,0,0,0,0,0,0,0,0,0,0,0,0,0,0,0,0,0,0,0,0,0,0,0,0,0,0,0,0,0,0,0,0,0,0,0,0,0,0,0,0,0,0,0,0,0,0,0,0,0,0,0,0,0,0,0,0,0,0,0,0,0,0,0,0,0,0,0,0,0,0,0,0,0,0,0,0,0,0,0,0,0,0,0,0,0,0,0,0,0,0,0,0,0,0,0,0,0,0,0,0,0,0,0,0,0,0,0,0,0,0,0,0,0,0,0,0,0,0,0,0,0,0,0,0,0],"id":13,"left_children":[1,3,5,7,9,11,13,15,17,19,-1,21,23,25,27,-1,29,31,33,-1,-1,35,37,39,41,-1,43,45,47,49,51,53,55,57,59,61,63,65,67,-1,69,71,73,75,77,79,81,-1,83,85,87,89,-1,91,93,-1,95,97,99,101,103,-1,105,107,109,-1,111,-1,-1,-1,113,115,117,-1,119,121,-1,-1,-1,123,125,-1,-1,-1,-1,-1,-1,-1,-1,-1,-1,-1,-1,-1,-1,-1,-1,-1,-1,-1,-1,-1,-1,-1,-1,-1,-1,-1,-1,-1,-1,-1,-1,-1,-1,-1,-1,-1,-1,-1,-1,-1,-1,-1,-1,-1,-1],"loss_changes":[1.573477E6,3.2420298E6,3.7134712E5,8.080152E5,2.109975E4,4.6467194E5,2.1610419E5,1.2012156E6,1.4252545E5,2.74075E4,0E0,1.34263E5,7.096654E5,5.386875E3,1.5292217E3,0E0,5.464811E5,3.9059253E5,9.693229E5,0E0,0E0,6.8866963E3,3.5271125E4,2.6659E4,3.2162222E5,0E0,5.226375E3,2.9918574E3,3.6678862E3,3.46725E5,8.8565625E3,6.279749E5,3.0412375E4,3.143043E5,5.1149273E4,2.4467383E2,1.7472528E3,8.9587516E4,6.1139688E3,0E0,1.00310625E4,3.308989E5,1.3311562E3,5.0525E3,4.539453E2,1.013646E3,2.4473826E3,0E0,1.5213951E1,1.3972094E4,4.2501E4,8.949678E2,0E0,7.831547E3,1.23650625E4,0E0,8.336566E4,4.9654297E3,1.5546E4,7.486987E4,7.6819125E4,0E0,5.198789E2,2.7313296E3,4.7584082E2,0E0,4.0440107E3,0E0,0E0,0E0,7.6453125E3,3.588926E5,8.658078E4,0E0,3.1535156E3,7.94625E3,0E0,0E0,0E0,1.490249E2,9.3768976E2,0E0,0E0,0E0,0E0,0E0,0E0,0E0,0E0,0E0,0E0,0E0,0E0,0E0,0E0,0E0,0E0,0E0,0E0,0E0,0E0,0E0,0E0,0E0,0E0,0E0,0E0,0E0,0E0,0E0,0E0,0E0,0E0,0E0,0E0,0E0,0E0,0E0,0E0,0E0,0E0,0E0,0E0,0E0,0E0,0E0,0E0],"parents":[2147483647,0,0,1,1,2,2,3,3,4,4,5,5,6,6,7,7,8,8,9,9,11,11,12,12,13,13,14,14,16,16,17,17,18,18,21,21,22,22,23,23,24,24,26,26,27,27,28,28,29,29,30,30,31,31,32,32,33,33,34,34,35,35,36,36,37,37,38,38,40,40,41,41,42,42,43,43,44,44,45,45,46,46,48,48,49,49,50,50,51,51,53,53,54,54,56,56,57,57,58,58,59,59,60,60,62,62,63,63,64,64,66,66,70,70,71,71,72,72,74,74,75,75,79,79,80,80],"right_children":[2,4,6,8,10,12,14,16,18,20,-1,22,24,26,28,-1,30,32,34,-1,-1,36,38,40,42,-1,44,46,48,50,52,54,56,58,60,62,64,66,68,-1,70,72,74,76,78,80,82,-1,84,86,88,90,-1,92,94,-1,96,98,100,102,104,-1,106,108,110,-1,112,-1,-1,-1,114,116,118,-1,120,122,-1,-1,-1,124,126,-1,-1,-1,-1,-1,-1,-1,-1,-1,-1,-1,-1,-1,-1,-1,-1,-1,-1,-1,-1,-1,-1,-1,-1,-1,-1,-1,-1,-1,-1,-1,-1,-1,-1,-1,-1,-1,-1,-1,-1,-1,-1,-1,-1,-1,-1],"split_conditions":[2.1E1,2E1,4E1,5E0,5E0,2.7E1,4.6E1,1E0,1.1E1,1E0,1.8304554E1,2.3E1,2.8E1,4.1E1,5E0,-4.343573E0,3E0,8E0,1.3E1,1.9107264E1,1.3105836E1,2.2E1,2.5E1,1E0,3.9E1,-2.8551793E0,4.5E1,4E0,6E0,2E0,1E0,7E0,9E0,1.2E1,1.7E1,2E0,5E0,2.4E1,2.6E1,2.9818444E0,2E0,3.2E1,1E0,4.3E1,6E0,1E0,4.7E1,-1.3766675E0,4.7E1,1E0,1E0,4E0,3.1393921E0,6E0,1E0,-1.8938513E0,1E1,1E0,1E0,1.5E1,1.8E1,-1.3596799E0,3E0,1E0,6E0,-4.3600874E0,5E0,-3.6175659E0,-4.688672E0,9.229915E0,6E0,3.1E1,3.5E1,3.043356E0,5E0,4.2E1,-4.092282E0,-3.070509E0,-2.0435793E0,4.7E1,4.7E1,-3.771447E-1,1.2149434E0,-1.0039392E-1,2.1728909E-2,2.4684854E0,5.6970196E0,7.5199933E0,1.3123766E1,1.0945868E0,2.0690644E0,-9.423821E-1,-1.9786088E0,3.839262E0,6.919476E0,-5.2735014E0,-1.8210479E0,1.0015793E0,2.7487328E0,5.8642616E0,9.763835E0,-1.2665824E0,1.0608399E0,-3.3213015E0,-5.7576525E-1,-5.254879E-1,-1.1209301E0,-9.7066903E-1,4.3965778E-1,-9.9958956E-1,-2.3693174E-1,-5.312314E-1,-1.6897122E0,5.695695E0,8.088174E0,-3.2131416E-1,5.361057E0,-2.8573647E0,-1.0020239E0,4.9228125E0,3.403251E0,-3.9551466E0,-2.8406172E0,-5.629027E-1,-9.664525E-1,-5.349811E-1,1.0438135E-2],"split_indices":[2,2,2,2,0,2,2,2,2,0,0,2,2,2,0,0,2,2,2,0,0,2,2,0,2,0,2,0,0,2,0,2,2,2,2,0,0,2,2,0,0,2,0,2,0,0,2,0,2,0,0,2,0,2,0,0,2,0,0,2,2,0,0,0,0,0,0,0,0,0,0,2,2,0,0,2,0,0,0,2,2,0,0,0,0,0,0,0,0,0,0,0,0,0,0,0,0,0,0,0,0,0,0,0,0,0,0,0,0,0,0,0,0,0,0,0,0,0,0,0,0,0,0,0,0,0,0],"split_type":[0,0,0,0,0,0,0,0,0,0,0,0,0,0,0,0,0,0,0,0,0,0,0,0,0,0,0,0,0,0,0,0,0,0,0,0,0,0,0,0,0,0,0,0,0,0,0,0,0,0,0,0,0,0,0,0,0,0,0,0,0,0,0,0,0,0,0,0,0,0,0,0,0,0,0,0,0,0,0,0,0,0,0,0,0,0,0,0,0,0,0,0,0,0,0,0,0,0,0,0,0,0,0,0,0,0,0,0,0,0,0,0,0,0,0,0,0,0,0,0,0,0,0,0,0,0,0],"sum_hessian":[4.884E3,2.13E3,2.754E3,2.019E3,1.11E2,1.925E3,8.29E2,5.18E2,1.501E3,7.8E1,3.3E1,5.95E2,1.33E3,6.21E2,2.08E2,1E2,4.18E2,6.13E2,8.88E2,1.2E1,6.6E1,1.83E2,4.12E2,1.22E2,1.208E3,1E2,5.21E2,1.51E2,5.7E1,2E2,2.18E2,3.11E2,3.02E2,1.92E2,6.96E2,1.01E2,8.2E1,2.05E2,2.07E2,1.7E1,1.05E2,1.113E3,9.5E1,4.27E2,9.4E1,1.25E2,2.6E1,3E1,2.7E1,9.7E1,1.03E2,3.5E1,1.83E2,2.1E2,1.01E2,1.03E2,1.99E2,9.5E1,9.7E1,3.84E2,3.12E2,3.1E1,7E1,5.8E1,2.4E1,1E2,1.05E2,1.06E2,1.01E2,1.5E1,9E1,4.01E2,7.12E2,1.5E1,8E1,2.14E2,2.13E2,8.2E1,1.2E1,3.8E1,8.7E1,1.1E1,1.5E1,1.4E1,1.3E1,1.3E1,8.4E1,1.6E1,8.7E1,1.8E1,1.7E1,1.02E2,1.08E2,1.5E1,8.6E1,1.07E2,9.2E1,1.5E1,8E1,1.4E1,8.3E1,1.92E2,1.92E2,1.09E2,2.03E2,1.6E1,5.4E1,1.1E1,4.7E1,1.3E1,1.1E1,7.6E1,2.9E1,7E1,2E1,2.97E2,1.04E2,3.19E2,3.93E2,5.4E1,2.6E1,1.07E2,1.07E2,2E1,1.8E1,4.2E1,4.5E1],"tree_param":{"num_deleted":"0","num_feature":"3","num_nodes":"127","size_leaf_vector":"1"}},{"base_weights":[3.987774E-1,1.7933645E1,-1.31937475E1,9.997417E0,1.3734571E1,-6.2631717E0,-2.959974E1,4.1123726E1,-4.322701E-1,-9.611264E0,5.0712383E1,-3.897358E1,-3.2072694E0,-3.9865046E0,6.2906906E1,-1.2181232E1,7.6042385E0,-2.68162E1,-1.4429423E0,2.4145381E0,4.5513487E0,-2.66528E0,-4.0278355E1,-7.62267E0,1.3619021E0,9.062917E1,3.3912544E1,1.2120273E1,-3.4488865E1,6.963602E1,-9.30836E0,-4.3069315E0,-3.7388203E1,5.076862E1,-1.2380143E1,-4.18544E1,-2.808354E0,-6.4122295E0,-8.392484E0,-1.0863441E0,3.8450456E0,5.5068264E1,1.2213337E2,1.433235E1,3.7244366E1,-1.7261183E1,7.195875E1,-4.1395256E1,-1.8444159E1,2.6768549E1,1.0647548E2,-3.1186543E0,-1.7099453E1,-1.13189E1,2.5325737E0,-2.7594603E1,-4.6210945E1,6.862259E1,3.2612682E1,-8.301415E0,-4.09826E0,-3.8224895E1,-3.7677872E0,-6.506045E-1,-2.1866491E-1,-9.261971E0,-4.7258827E-1,2.5023694E0,8.411112E-1,3.270229E0,4.745669E0,5.814105E0,1.0837159E1,7.602611E-1,1.5129724E0,2.7530084E0,3.4638026E0,-8.919122E-1,-1.9028652E0,2.7351217E0,6.666736E0,-1.7956108E0,-4.848338E0,-2.0246508E0,-1.4640548E0,2.0252526E0,3.7468064E0,4.440876E0,9.429661E0,-2.183035E0,3.4103882E-1,-3.048624E0,-6.500175E-1,-7.919539E-1,-1.298127E0,-5.246278E-1,3.4211937E-1,-3.9646459E0,-7.232573E-1,-3.2796469E0,-4.370042E0,2.3443158E0,6.255367E0,1.681678E0,2.8864205E0,4.8581243E-1,-1.2569468E0,-3.5958405E0,-2.7294714E0,-6.6973585E-1,-9.183206E-1,4.1161144E-1,-3.8867843E-1],"categories":[],"categories_nodes":[],"categories_segments":[],"categories_sizes":[],"default_left":[0,0,0,0,0,0,0,0,0,0,0,0,0,0,0,0,0,0,0,0,0,0,0,0,0,0,0,0,0,0,0,0,0,0,0,0,0,0,0,0,0,0,0,0,0,0,0,0,0,0,0,0,0,0,0,0,0,0,0,0,0,0,0,0,0,0,0,0,0,0,0,0,0,0,0,0,0,0,0,0,0,0,0,0,0,0,0,0,0,0,0,0,0,0,0,0,0,0,0,0,0,0,0,0,0,0,0,0,0,0,0,0,0],"id":14,"left_children":[1,3,5,7,-1,9,11,13,15,17,19,21,23,-1,25,27,29,31,33,-1,-1,-1,35,37,39,41,43,45,47,49,51,53,55,57,59,61,-1,63,65,-1,67,69,71,73,75,77,79,81,83,85,87,89,91,93,95,97,99,101,103,105,-1,107,-1,-1,-1,109,-1,111,-1,-1,-1,-1,-1,-1,-1,-1,-1,-1,-1,-1,-1,-1,-1,-1,-1,-1,-1,-1,-1,-1,-1,-1,-1,-1,-1,-1,-1,-1,-1,-1,-1,-1,-1,-1,-1,-1,-1,-1,-1,-1,-1,-1,-1],"loss_changes":[1.1685948E6,2.4865995E6,3.138622E5,6.5968144E5,0E0,3.7113294E5,2.0274206E5,9.89895E5,1.4389527E5,2.5798439E5,7.2796562E3,4.3006875E3,4.368121E3,0E0,3.2648038E5,3.3598353E5,9.501005E5,1.404781E5,7.121548E5,0E0,0E0,0E0,3.9214375E3,4.868506E1,3.866239E3,2.2742075E5,1.2644234E4,5.2341016E5,3.502847E4,3.035175E5,3.428258E4,9.140761E3,3.346025E4,6.7779625E4,1.5378606E5,3.048125E3,0E0,2.2474219E2,9.989844E1,0E0,7.4330566E2,5.2925E2,3.470525E4,4.4767627E2,1.7455156E3,7.0184727E3,2.7480625E4,7.323153E4,1.03890625E2,3.074836E3,2.9375E4,6.603934E4,5.663093E4,5.82459E2,1.3606447E3,7.215909E4,6.8479062E3,2.5243094E4,1.9339766E3,8.849311E4,0E0,3.888125E3,0E0,0E0,0E0,1.3178711E1,0E0,1.3580756E3,0E0,0E0,0E0,0E0,0E0,0E0,0E0,0E0,0E0,0E0,0E0,0E0,0E0,0E0,0E0,0E0,0E0,0E0,0E0,0E0,0E0,0E0,0E0,0E0,0E0,0E0,0E0,0E0,0E0,0E0,0E0,0E0,0E0,0E0,0E0,0E0,0E0,0E0,0E0,0E0,0E0,0E0,0E0,0E0,0E0],"parents":[2147483647,0,0,1,1,2,2,3,3,5,5,6,6,7,7,8,8,9,9,10,10,11,11,12,12,14,14,15,15,16,16,17,17,18,18,22,22,23,23,24,24,25,25,26,26,27,27,28,28,29,29,30,30,31,31,32,32,33,33,34,34,35,35,37,37,38,38,40,40,41,41,42,42,43,43,44,44,45,45,46,46,47,47,48,48,49,49,50,50,51,51,52,52,53,53,54,54,55,55,56,56,57,57,58,58,59,59,61,61,65,65,67,67],"right_children":[2,4,6,8,-1,10,12,14,16,18,20,22,24,-1,26,28,30,32,34,-1,-1,-1,36,38,40,42,44,46,48,50,52,54,56,58,60,62,-1,64,66,-1,68,70,72,74,76,78,80,82,84,86,88,90,92,94,96,98,100,102,104,106,-1,108,-1,-1,-1,110,-1,112,-1,-1,-1,-1,-1,-1,-1,-1,-1,-1,-1,-1,-1,-1,-1,-1,-1,-1,-1,-1,-1,-1,-1,-1,-1,-1,-1,-1,-1,-1,-1,-1,-1,-1,-1,-1,-1,-1,-1,-1,-1,-1,-1,-1,-1],"split_conditions":[2.1E1,2E1,4E1,5E0,1.3734571E1,3.9E1,4.6E1,1E0,1.1E1,2.7E1,1E0,4.1E1,4.7E1,-3.9865046E0,3E0,8E0,1.3E1,2.3E1,2.9E1,2.4145381E0,4.5513487E0,-2.66528E0,4.5E1,3E0,1E0,2E0,1E0,7E0,1E1,1.2E1,1.7E1,2.2E1,2.5E1,2.8E1,3.8E1,4.3E1,-2.808354E0,2E0,6E0,-1.0863441E0,6E0,1E0,1E0,4E0,4E0,6E0,1E0,9E0,1E0,6E0,1E0,1.4E1,1.8E1,5E0,1E0,2.4E1,2.6E1,1E0,1E0,3.2E1,-4.09826E0,4.2E1,-3.7677872E0,-6.506045E-1,-2.1866491E-1,5E0,-4.7258827E-1,5E0,8.411112E-1,3.270229E0,4.745669E0,5.814105E0,1.0837159E1,7.602611E-1,1.5129724E0,2.7530084E0,3.4638026E0,-8.919122E-1,-1.9028652E0,2.7351217E0,6.666736E0,-1.7956108E0,-4.848338E0,-2.0246508E0,-1.4640548E0,2.0252526E0,3.7468064E0,4.440876E0,9.429661E0,-2.183035E0,3.4103882E-1,-3.048624E0,-6.500175E-1,-7.919539E-1,-1.298127E0,-5.246278E-1,3.4211937E-1,-3.9646459E0,-7.232573E-1,-3.2796469E0,-4.370042E0,2.3443158E0,6.255367E0,1.681678E0,2.8864205E0,4.8581243E-1,-1.2569468E0,-3.5958405E0,-2.7294714E0,-6.6973585E-1,-9.183206E-1,4.1161144E-1,-3.8867843E-1],"split_indices":[2,2,2,2,0,2,2,2,2,2,0,2,2,0,2,2,2,2,2,0,0,0,2,0,0,2,0,2,2,2,2,2,2,2,2,2,0,0,0,0,0,0,0,2,0,2,0,2,0,0,0,2,2,0,0,2,2,0,0,2,0,2,0,0,0,0,0,0,0,0,0,0,0,0,0,0,0,0,0,0,0,0,0,0,0,0,0,0,0,0,0,0,0,0,0,0,0,0,0,0,0,0,0,0,0,0,0,0,0,0,0,0,0],"split_type":[0,0,0,0,0,0,0,0,0,0,0,0,0,0,0,0,0,0,0,0,0,0,0,0,0,0,0,0,0,0,0,0,0,0,0,0,0,0,0,0,0,0,0,0,0,0,0,0,0,0,0,0,0,0,0,0,0,0,0,0,0,0,0,0,0,0,0,0,0,0,0,0,0,0,0,0,0,0,0,0,0,0,0,0,0,0,0,0,0,0,0,0,0,0,0,0,0,0,0,0,0,0,0,0,0,0,0,0,0,0,0,0,0],"sum_hessian":[4.901E3,2.14E3,2.761E3,2.031E3,1.09E2,1.942E3,8.19E2,5.09E2,1.522E3,1.835E3,1.07E2,6.04E2,2.15E2,1E2,4.09E2,6.18E2,9.04E2,5.9E2,1.245E3,1.7E1,9E1,9.8E1,5.06E2,1.09E2,1.06E2,2.08E2,2.01E2,2.96E2,3.22E2,1.93E2,7.11E2,1.89E2,4.01E2,2.15E2,1.03E3,4.05E2,1.01E2,4.6E1,6.3E1,1.5E1,9.1E1,9.9E1,1.09E2,3E1,1.71E2,1.99E2,9.7E1,2.24E2,9.8E1,9E1,1.03E2,3.97E2,3.14E2,9.3E1,9.6E1,1.92E2,2.09E2,1.07E2,1.08E2,9.28E2,1.02E2,1.97E2,2.08E2,3.3E1,1.3E1,4.6E1,1.7E1,7.6E1,1.5E1,1.2E1,8.7E1,1.5E1,9.4E1,1.4E1,1.6E1,8.9E1,8.2E1,9.2E1,1.07E2,1.7E1,8E1,1.03E2,1.21E2,1E1,8.8E1,8.1E1,9E0,1.2E1,9.1E1,9.4E1,3.03E2,1.01E2,2.13E2,6.7E1,2.6E1,1.4E1,8.2E1,9.3E1,9.9E1,1.01E2,1.08E2,1.5E1,9.2E1,1.6E1,9.2E1,3E2,6.28E2,1.02E2,9.5E1,3E1,1.6E1,5.7E1,1.9E1],"tree_param":{"num_deleted":"0","num_feature":"3","num_nodes":"113","size_leaf_vector":"1"}},{"base_weights":[8.263719E-2,-2.856605E1,1.4700721E1,2.0870792E1,-3.5473766E1,7.648733E1,7.5210257E0,1.0788368E2,1.3928048E1,-4.23356E1,-1.8502968E1,-3.8280158E0,1.0501292E2,1.9365093E1,-1.2150615E1,3.7692702E0,1.20923395E1,2.829702E1,-1.18880625E1,-5.8439457E1,-3.890107E1,-9.197427E0,-2.7294416E1,1.4901506E2,6.057185E1,1.5848197E1,1.11565186E2,-7.631073E-1,-2.3270975E1,1.6318287E1,4.731969E1,-1.8001434E1,2.1982576E1,-3.735504E1,-6.514125E1,-3.235104E1,-4.4867165E1,-2.4130861E1,4.1905184E0,-3.3367233E1,-2.1083883E1,7.801173E1,2.1301794E2,2.167171E1,7.1536964E1,2.4463726E1,1.8034797E0,1.20206635E2,3.6759567E0,-9.766619E0,6.361667E1,-3.4628773E1,1.0166447E1,2.8456768E1,1.2971474E-1,1.6485645E1,2.4767405E1,-3.56334E0,-3.3794699E0,5.559642E-1,3.2625883E0,-1.789019E1,-4.226499E1,-8.335824E0,-5.5241623E1,-3.844507E1,-2.090142E1,-5.6554623E1,-4.0988342E1,-8.188844E0,-3.3666367E1,5.251868E1,-7.1326137E0,-3.7161137E1,-2.540054E1,-2.795988E1,-1.3954173E1,4.143967E1,1.2173594E2,6.57576E1,2.384951E2,7.3210807E0,2.599049E0,4.9931866E1,9.07072E1,1.3856351E1,1.8152876E2,-2.1300377E1,3.556405E1,7.079822E1,1.3729875E2,-1.0801002E0,1.270801E0,-2.7430632E1,2.6704066E0,3.3722317E0,9.874054E1,-2.5667156E1,-3.6306137E1,5.698021E-1,2.1526012E1,1.2564012E0,8.125403E0,-1.8463322E0,5.607099E-1,-7.1836466E-1,5.172029E0,-1.1761501E0,7.2431746E0,-2.0046268E0,-1.0530971E0,-2.7895432E0,-4.2846456E0,-4.1328907E0,-6.315697E0,-2.3731601E0,-3.642287E0,5.782604E0,-3.0575945E0,-4.1008844E0,-6.766872E0,-1.8915646E0,-3.5097098E0,-3.0134397E0,2.5525054E-1,-3.4388473E0,-2.1384535E0,2.5286536E0,6.1810117E0,-1.7440718E0,1.0957282E0,-2.1740892E0,-3.6961079E0,3.0590625E0,-2.8219378E0,-1.8364851E0,-3.1189687E0,3.0853637E-3,-2.1792424E0,2.3348963E0,4.4673324E0,1.1295096E1,6.2959123E0,3.859981E0,7.010791E0,2.2511818E1,8.6553545E0,-1.8293771E-1,9.478836E-1,2.9032388E0,4.5531993E0,8.525551E0,2.3733637E0,3.0454907E0,6.641241E-1,9.3580675E0,2.1593147E1,3.6336356E-1,-2.8770936E0,8.847647E0,6.180288E-1,2.1443796E0,6.839999E0,1.2715747E1,6.4726152E0,-1.3263781E0,-4.544496E0,4.952517E0,-1.4832504E0,8.96641E0,3.4500177E0,-2.2983496E0,-1.5815241E0,-3.2263637E0,-2.2220528E0,-6.4111674E-1,6.5321326E-1,2.3320713E0,2.7623636E-1],"categories":[],"categories_nodes":[],"categories_segments":[],"categories_sizes":[],"default_left":[0,0,0,0,0,0,0,0,0,0,0,0,0,0,0,0,0,0,0,0,0,0,0,0,0,0,0,0,0,0,0,0,0,0,0,0,0,0,0,0,0,0,0,0,0,0,0,0,0,0,0,0,0,0,0,0,0,0,0,0,0,0,0,0,0,0,0,0,0,0,0,0,0,0,0,0,0,0,0,0,0,0,0,0,0,0,0,0,0,0,0,0,0,0,0,0,0,0,0,0,0,0,0,0,0,0,0,0,0,0,0,0,0,0,0,0,0,0,0,0,0,0,0,0,0,0,0,0,0,0,0,0,0,0,0,0,0,0,0,0,0,0,0,0,0,0,0,0,0,0,0,0,0,0,0,0,0,0,0,0,0,0,0,0,0,0,0,0,0,0,0,0,0,0,0,0,0,0,0],"id":15,"left_children":[1,3,5,7,9,11,13,15,17,19,21,-1,23,25,27,-1,-1,29,31,33,35,37,39,41,43,45,47,49,51,53,55,57,59,61,63,65,67,69,71,73,75,77,79,81,83,85,87,89,91,93,95,97,99,101,103,-1,105,107,-1,-1,-1,109,111,-1,113,115,117,119,121,123,125,127,129,131,133,135,137,139,141,143,145,147,-1,149,151,153,155,157,159,161,163,-1,-1,165,167,-1,169,171,173,175,177,-1,-1,-1,-1,-1,-1,-1,-1,-1,-1,-1,-1,-1,-1,-1,-1,-1,-1,-1,-1,-1,-1,-1,-1,-1,-1,-1,-1,-1,-1,-1,-1,-1,-1,-1,-1,-1,-1,-1,-1,-1,-1,-1,-1,-1,-1,-1,-1,-1,-1,-1,-1,-1,-1,-1,-1,-1,-1,-1,-1,-1,-1,-1,-1,-1,-1,-1,-1,-1,-1,-1,-1,-1,-1,-1,-1,-1,-1],"loss_changes":[2.0663056E6,5.7001375E5,1.4486952E6,1.22339586E5,1.6958438E5,1.1909694E6,6.8243656E5,2.8156969E4,7.118805E4,5.5303625E4,3.435425E4,0E0,5.3069225E5,5.9097575E5,1.3940542E5,0E0,0E0,2.7255523E4,1.4683122E4,2.3142562E4,3.2194875E4,4.148622E4,7.48075E3,6.1051175E5,5.7739375E4,2.1316253E5,6.20235E4,3.1652738E5,2.11887E5,1.5127166E4,1.5408519E5,1.8974605E4,2.6174546E3,3.6401602E3,4.1101375E4,2.8083E4,1.7991375E4,1.4621805E4,6.0569477E4,2.3203672E3,5.002465E3,1.0209397E5,2.5444525E5,4.104343E3,4.020175E4,1.8168088E6,5.2413703E5,4.2638125E4,1.3454497E3,1.053037E5,5.0748094E4,5.321375E3,1.5467682E4,3.915618E4,5.1214136E3,0E0,5.2564664E4,3.6324543E4,0E0,0E0,0E0,5.2433838E1,1.1694336E3,0E0,8.959906E3,1.26634375E4,2.0896656E5,1.5932344E4,5.3856875E3,1.2020362E4,2.6351719E3,7.7889766E3,2.531077E4,4.444758E3,2.0964947E4,2.2611133E3,9.502368E3,4.672926E3,8.5218125E3,3.8377344E2,2.265845E5,5.60502E2,0E0,1.7772188E3,3.6617844E4,1.3639014E5,3.3998475E5,1.3454739E5,5.3998944E5,6.8864766E3,2.82835E4,0E0,0E0,6.082133E4,3.270149E5,0E0,8.368719E3,3.3472266E2,6.7700938E3,4.7197896E3,7.468383E3,0E0,0E0,0E0,0E0,0E0,0E0,0E0,0E0,0E0,0E0,0E0,0E0,0E0,0E0,0E0,0E0,0E0,0E0,0E0,0E0,0E0,0E0,0E0,0E0,0E0,0E0,0E0,0E0,0E0,0E0,0E0,0E0,0E0,0E0,0E0,0E0,0E0,0E0,0E0,0E0,0E0,0E0,0E0,0E0,0E0,0E0,0E0,0E0,0E0,0E0,0E0,0E0,0E0,0E0,0E0,0E0,0E0,0E0,0E0,0E0,0E0,0E0,0E0,0E0,0E0,0E0,0E0,0E0,0E0,0E0,0E0,0E0,0E0,0E0,0E0,0E0,0E0,0E0],"parents":[2147483647,0,0,1,1,2,2,3,3,4,4,5,5,6,6,7,7,8,8,9,9,10,10,12,12,13,13,14,14,17,17,18,18,19,19,20,20,21,21,22,22,23,23,24,24,25,25,26,26,27,27,28,28,29,29,30,30,31,31,32,32,33,33,34,34,35,35,36,36,37,37,38,38,39,39,40,40,41,41,42,42,43,43,44,44,45,45,46,46,47,47,48,48,49,49,50,50,51,51,52,52,